tree
version=v4
num_class=1
num_tree_per_iteration=1
label_index=0
max_feature_idx=23
objective=binary sigmoid:1
feature_names=lice_lag1 lice_lag2 lice_lag3 lice_lag4 lice_rollmean4w lice_rollmean8w lice_rollmax4w lice_trend4w breach_rate4w breach_rate8w breach_streak treated_this_week treatments_4w weeks_since_treatment last_action_enc SEATEMPERATURE temp_bin_enc sin_week cos_week smolt_season week_of_year LATITUDE LONGITUDE PRODUCTIONAREAID
feature_infos=[0:17.18] [0:17.98] [0:17.18] [0:29.48] [0:14.1] [0:14.1] [0:29.48] [-8.7480000000000029:5.0379999999999994] [0:1] [0:1] [0:29] [0:1] [0:4] [1:99] [2:9] [0:24.800000000000001] [0:4] [-1:1] [-1:1] [0:1] [1:52] [58.02355:71.017784000000006] [4.66045:30.415333] [1:13]
tree_sizes=6822 6844 6848 6834 6881 6867 6891 6904 6927 6949 6911 6911 6914 6901 6906 6920 6973 6934 6914 6950 6968 6913 6921 6936 6944 6923 6970 6929 6952 6966 6996 6964 6955 6969 6956 7000 6984 6978 6945 6991 6972 6967 6985 6972 6971 6970 6982 6963 6974 6966 7012 7027 6977 7001 6983 6960 6965 6939 6994 6989 6987 7001 7003 6993 6948 6971 6924 6995 7007 6942 6980 7006 6969 6993 6991 6969 6965 7000 6997 6930 6964 6973 7020 7012 6956 7001 6941 6958 6948 6994 6977 6998 6920 6989 6915 6943 6942 6976 6992 6928 6937 6920 6940 6975 6932 6960 7016 6927 6982 6956 6945 6949 6941 6880 6846 6914 6921 6900 6984 6921 6993 6930 6992 6999 6929 6884 6890 6923 6944 6890 6869 6941 6994 6966 6908

Tree=0
num_leaves=63
num_cat=0
split_feature=6 6 6 16 10 16 7 7 16 9 22 1 9 14 14 6 9 21 6 9 18 9 1 7 14 7 1 20 14 7 14 4 1 12 7 17 20 21 6 13 18 7 13 12 16 4 21 6 4 18 21 13 14 6 9 16 21 22 7 7 7 18
split_gain=519201 103122 58617.7 27701.7 14195.9 14163.9 14117.7 8836.21 8647.81 7693.27 7126.66 6121.61 5987.02 5549.85 6477.98 5301.52 5082.54 5056.21 4585.86 4153.02 4078.28 3669.67 3668.15 3239.12 3173.89 3092.17 3085.38 2706.28 2481.97 2447.19 2331.26 2232.62 2144.56 2049.26 2034.99 1973.65 1879.46 1877.28 1835.71 1790.09 1721.54 1893.75 1711.49 1674.5 1661.01 1677.58 1632.83 1553.29 1519.45 1974.31 1489.92 1412.62 1386.64 1367.89 1324.1 1316.61 1289.73 1285.2 1253.72 1252.98 1236.42 1219.74
threshold=0.19500000000000003 0.49500000000000005 0.065000000000000016 1.5000000000000002 1.0000000180025095e-35 1.5000000000000002 -0.015999999999999931 -0.042999999999999948 1.5000000000000002 1.0000000180025095e-35 5.9663830000000013 1.0000000180025095e-35 1.0000000180025095e-35 7.5000000000000009 5.5000000000000009 0.34500000000000003 1.0000000180025095e-35 63.406891500000008 0.12500000000000003 0.61250000000000016 0.40966402954315184 1.0000000180025095e-35 0.14500000000000005 0.008000000000000047 7.5000000000000009 0.017000000000000046 0.21500000000000002 13.500000000000002 2.5000000000000004 0.070000000000000132 7.5000000000000009 0.18250000000000041 1.0000000180025095e-35 1.0000000180025095e-35 0.045000000000000054 0.17992617227144039 4.5000000000000009 59.31620800000001 0.32500000000000007 2.5000000000000004 -0.060268340127661524 0.018000000000000047 2.5000000000000004 1.0000000180025095e-35 1.5000000000000002 0.012499999999999999 63.137842500000012 0.31500000000000006 0.11750000000000017 -0.060268340127661524 59.277692000000009 8.5000000000000018 6.5000000000000009 0.025000000000000005 1.0000000180025095e-35 2.5000000000000004 63.03795800000001 9.8668830000000032 0.020000000000000035 -0.022999999999999965 -0.083999999999999894 -0.060268340127661524
decision_type=8 10 10 2 2 2 8 10 2 10 2 10 10 2 2 8 10 2 10 10 2 10 10 8 2 8 10 2 2 8 2 10 10 10 8 2 2 2 10 2 2 10 2 10 2 10 2 10 10 2 2 2 2 10 10 2 2 2 8 10 8 2
left_child=2 3 10 6 8 9 22 11 26 17 21 43 18 14 37 16 29 27 52 -6 31 25 -2 44 -20 53 46 35 -17 40 42 -16 33 -10 48 -4 -27 -9 61 -24 -8 -42 -30 60 -12 -46 -3 -39 -19 -50 -15 -23 -7 -1 -22 -34 -11 -18 -54 -26 -5 -13
right_child=1 4 5 7 19 12 15 13 32 56 23 38 -14 50 20 28 57 34 24 -21 54 51 39 -25 59 36 -28 -29 30 -31 -32 -33 55 -35 -36 -37 -38 47 -40 -41 41 -43 -44 -45 45 -47 -48 -49 49 -51 -52 -53 58 -55 -56 -57 -58 -59 -60 -61 -62 -63
leaf_value=-2.9344360480446952 -2.8217302929355301 -2.4600801914068615 -2.4466348677073606 -2.9855008478075731 -2.1267443259552845 -2.7381200287629461 -2.5117123585697403 -2.5956197601211692 -2.6308209171687782 -2.3232990293788593 -3.0468258050834178 -2.4895132067027079 -2.3340864076564651 -2.6085167100034585 -2.4810931414008017 -2.3111498160437192 -2.2422896416332012 -2.9529378381675904 -2.6044965883964815 -2.0063124687099814 -2.6128363705773445 -2.4731671933780124 -2.7637033118492202 -2.8483193509839455 -2.683243217744276 -2.1715810493977332 -2.3278673693524956 -2.6020255676785311 -2.7456065365826001 -2.3882247138565971 -2.3388467058241376 -2.3417825920422239 -2.2216973117435628 -2.2303980158788237 -2.5022074439917077 -2.859828749673714 -2.7508175512093045 -2.3303745802235198 -2.395443949581991 -2.5676086123914938 -2.7999001565981323 -2.6132416389811919 -2.4864616337488847 -2.5433997971927518 -2.9993018971778715 -2.8813913778697158 -2.7569815974693368 -2.2193470207801198 -2.5835308595489863 -2.9401745174270801 -2.2091442824788161 -2.836174764525945 -2.6842372837467887 -2.8161801050776702 -2.3954108260100315 -2.1300982592369659 -2.6297224577564928 -2.5435395257563229 -2.4748969695185852 -2.3690930945833042 -2.6679511266169009 -2.7732174751042247
leaf_weight=678.03626395761967 411.50248070806265 133.42291317135096 32.230125688016415 73.46507328748703 2002.279822409153 738.48446305096149 196.23376701772213 44.53374233096838 50.41808070987463 86.036158159375191 1228.7122686430812 124.64098414778709 190.9735241830349 23.983136519789696 402.67596907168627 443.10850352048874 136.98917791992426 682.80614469200373 816.9868827983737 1114.1905267983675 305.94101478904486 85.857845261693001 164.76147395372391 383.81934370100498 36.465066388249397 23.448196366429329 438.2494668290019 275.18197343498468 77.744591563940048 110.46507789194584 240.27714647352695 1006.3555810973048 713.20854415744543 87.239772565662861 30.09036635607481 279.72896429151297 34.771090269088745 538.81815745681524 666.93625129014254 396.34584858268499 217.00726625323296 363.49162678420544 353.01572009176016 66.822902552783489 1193.4508148431778 403.70127525925636 70.924108497798443 758.41096074134111 70.300011642277241 86.615677915513515 889.24833011627197 38.961452528834343 211.52413205057383 382.48199370503426 90.806038625538349 871.86278320848942 57.149407133460045 47.743381343781948 108.05784887075424 244.95787032693624 52.602418482303619 54.430129803717136
leaf_count=13500 7312 1454 343 1534 9139 11949 2331 600 713 714 27088 1428 1624 329 4549 3575 926 13835 11145 2536 4222 957 2746 7014 552 127 3675 3741 1269 1053 2065 8705 4542 570 352 5173 571 4544 6449 5129 3766 5019 4024 834 25233 7631 1173 4796 931 1734 5451 703 3206 6756 878 4035 807 596 1208 2246 781 917
internal_value=-2.51123 -2.32191 -2.82089 -2.43351 -2.15379 -2.68061 -2.54987 -2.36144 -2.24614 -2.79532 -2.94524 -2.49156 -2.60241 -2.32815 -2.35964 -2.47936 -2.55874 -2.82969 -2.62618 -2.08369 -2.42147 -2.84362 -2.70834 -2.98461 -2.55461 -2.87231 -2.40268 -2.71632 -2.40299 -2.60842 -2.46363 -2.3816 -2.18775 -2.37706 -2.90622 -2.81714 -2.51753 -2.27642 -2.43361 -2.62519 -2.63974 -2.68302 -2.53323 -2.74575 -3.00312 -2.9695 -2.56313 -2.26546 -2.9207 -2.78039 -2.21963 -2.58648 -2.70047 -2.89179 -2.56307 -2.17131 -2.4456 -2.32015 -2.61345 -2.4098 -2.853 -2.57575
internal_weight=22141 13740.2 8400.83 8258.36 5481.8 3947.59 3158.69 5099.67 2365.33 1600.14 4453.24 1038.9 2347.45 4060.77 3147.54 2186.08 1071.93 1456.95 2156.48 3116.47 1805.78 1243.56 972.61 3209.68 1098.41 1118.74 642.596 587.141 1114.15 887.198 671.037 1409.03 1722.73 137.658 869.812 311.959 58.2193 1341.76 846.007 561.107 776.733 580.499 430.76 192.89 2825.86 1597.15 204.347 1297.23 839.722 156.916 913.231 124.819 1058.07 1060.52 396.747 1585.07 143.186 184.733 319.582 281.423 126.067 179.071
internal_count=262805 113665 149140 85828 27837 59560 39811 46017 16162 27630 89580 11943 31930 34074 28294 24624 13691 26109 30306 11675 18354 22614 15187 66966 13943 20954 6302 9257 10933 12169 7358 13254 9860 1283 16852 5516 698 9940 8794 7875 11116 8785 5293 3149 59952 32864 2627 9340 16500 2665 5780 1660 16363 20256 5100 8577 1521 1522 4414 2798 2315 2345
is_linear=0
shrinkage=1


Tree=1
num_leaves=63
num_cat=0
split_feature=0 4 9 15 15 21 7 9 0 22 0 17 11 9 11 9 20 0 22 22 9 15 20 5 15 5 0 5 20 15 20 20 15 2 1 5 21 11 17 22 5 11 1 21 1 5 17 21 5 21 17 17 3 17 15 7 17 0 7 2 17 21
split_gain=126512 22525.6 12831.1 11108.3 6144.62 5052.11 4892.92 3993.97 3806.47 3358.81 2220.52 2219.27 2102.41 1834.7 1694.74 1638.71 1256.48 1238.92 1229.6 1228.16 1107.73 1096.05 1074.96 1050.69 1007.81 954.69 906.684 898.408 1063.41 886.816 867.676 867.688 856.229 850.604 893.09 840.002 826.366 798.774 763.419 2059.79 744.242 726.667 713.566 712.73 685.057 678.428 676.415 668.229 657.707 641.294 625.853 622.269 616.281 615.566 694.959 592.989 592.341 578.48 660.588 638.327 571.311 656.673
threshold=0.095000000000000015 0.022500000000000051 1.0000000180025095e-35 9.2950000000000017 6.3050000000000006 63.263183000000005 0.008000000000000047 1.0000000180025095e-35 0.24500000000000002 5.9324210000000006 0.23500000000000001 -0.61559370248597534 1.0000000180025095e-35 0.18333333333333338 1.0000000180025095e-35 1.0000000180025095e-35 45.500000000000007 0.03500000000000001 5.3664585000000011 15.114276500000001 1.0000000180025095e-35 7.0750000000000011 5.5000000000000009 0.02250000000000003 10.695000000000002 0.07750000000000011 0.025000000000000005 0.12000000000000019 13.500000000000002 7.4850000000000012 13.500000000000002 47.500000000000007 10.805000000000001 1.0000000180025095e-35 0.19500000000000003 0.011250000000000015 59.72249200000001 1.0000000180025095e-35 0.78574730703237894 11.724129000000003 0.19625000000000023 1.0000000180025095e-35 0.12500000000000003 61.056567000000008 0.045000000000000005 0.12500000000000019 0.17992617227144039 63.03795800000001 0.17375000000000021 69.214445000000012 -0.29696027566504662 0.8542199457734333 1.0000000180025095e-35 -0.61559370248597534 13.305000000000001 0.012000000000000016 0.8542199457734333 0.075000000000000025 -0.011999999999999966 1.0000000180025095e-35 -0.2393156642875576 67.656360000000021
decision_type=8 10 10 2 2 2 8 10 8 2 10 2 2 10 2 10 2 10 2 2 10 2 2 10 2 10 10 10 2 2 2 2 2 10 10 10 2 2 2 2 8 2 8 2 10 10 2 2 10 2 2 2 10 2 2 8 2 10 8 8 2 2
left_child=1 6 4 5 8 15 9 17 30 20 16 45 43 37 -10 21 27 36 40 22 -1 -3 55 53 -14 50 46 49 56 -11 33 38 -27 -2 -35 -31 -5 -4 -32 -40 -18 -15 -13 -12 -38 -7 -9 -34 -26 60 -19 -17 -20 54 -24 -8 -29 58 -23 -60 -6 -62
right_child=2 3 13 7 10 11 19 26 14 29 12 42 24 41 -16 51 18 25 52 -21 -22 57 23 -25 48 32 -28 28 -30 35 31 -33 47 34 -36 -37 44 -39 39 -41 -42 -43 -44 -45 -46 -47 -48 -49 -50 -51 -52 -53 -54 -55 -56 -57 -58 -59 59 -61 61 -63
leaf_value=0.089646043281503537 0.33809751702174218 0.10784010475796846 0.3731385504615275 0.057026361423837116 0.32717386583584562 0.12820951806050729 0.038100158751712063 0.30993591654748576 0.32224924628268592 -0.03571039457447437 0.34587087148727813 0.017672052542198304 0.23081920729403424 0.40852477799627052 0.11728287130587259 0.31926026222541526 0.38514936975108816 0.24646569422215153 0.35875851157345667 0.044982200889054968 0.23734716398490008 0.11886177192033032 0.31911074313471111 0.32665526442314619 0.26339223516819255 0.19965549206487498 0.38596624328913026 0.27875578394826245 0.35248166638926265 8.2610072027705845e-05 0.37785837341725936 0.089457244499600352 0.28238712351527101 0.08014538680127431 0.202574317063135 0.074967272355082201 0.15563316577532529 0.32161698784054726 0.34621403864952704 0.040488913488191058 0.1367946988887353 0.37156554369371525 0.1103462967231696 0.39091951775062983 0.24323384135289952 0.28787981437329452 0.071357225055851251 0.39509443349499884 0.35950133759859731 0.19437727757943501 0.13816518708047018 0.19365138197575649 0.16861918655825806 0.081832708911411089 -0.0063760173468598779 0.42971270513541965 0.07655157879338248 0.30834312266178449 0.44744667938127436 0.20723156629228076 0.27732380963002629 -0.0061321124505195812
leaf_weight=905.99423783645034 51.05617444217205 459.39054000005126 3286.2494994662702 108.41579293459654 998.69654727727175 154.36810153722763 10.984841566532848 462.79232978075743 1128.5248531587422 899.65874210745096 1357.6756969802082 922.0624134093523 371.4592188373208 6958.8262272328138 110.74754393100739 307.60801630094647 170.66462906450033 536.76320330426097 48.42722126096487 112.36438071355224 147.62722603976727 191.32173945754766 69.860316246747971 102.63843156397343 257.50515948235989 157.72812920808792 602.75061590969563 168.47620533406734 1973.3303201049566 1083.7249964885414 108.91645392775536 84.063946537673473 297.13499455899 397.88890237361193 238.09589475020766 572.21712113171816 411.41899420320988 975.634636644274 130.02020056173205 95.603709582239389 36.642032396048307 1644.1535376645625 268.10393768921494 2485.209690798074 487.77756702527404 116.91053861752152 31.747165091335773 235.93418173491955 576.61551659554243 148.99267246201634 177.51567911356688 145.11513237655163 355.14966815337539 170.57299672439694 21.430295214056969 80.550958260893822 46.137000221759081 124.29250558465719 33.928672455251217 149.57791591435671 724.50215090811253 21.025303084403276
leaf_count=15999 460 6768 11712 1528 6734 2301 191 2341 7517 20445 6933 17349 2972 13176 1194 1906 975 5966 316 1956 1415 2482 804 1063 1566 1625 1956 1682 11596 22732 858 1269 2391 6460 2684 10835 5447 3944 1059 1376 386 3950 3453 9866 4529 931 348 1371 2494 1565 2406 1300 4097 2764 380 433 664 1120 237 1768 6442 318
internal_value=0.29202 0.146956 0.353418 0.206036 0.316424 0.133123 0.0566941 0.265709 0.243761 0.0352202 0.333917 0.0679647 0.356931 0.388171 0.303932 0.2006 0.309154 0.22974 0.242276 0.193048 0.110341 0.163571 0.229531 0.191062 0.299324 0.260082 0.344797 0.319164 0.340986 0.00424946 0.176317 0.233062 0.301991 0.141743 0.12598 0.0259593 0.18743 0.361344 0.269148 0.216669 0.341252 0.401461 0.0385484 0.375004 0.203153 0.197021 0.29462 0.332271 0.329831 0.293945 0.21955 0.278998 0.191435 0.137915 0.242703 0.382717 0.235286 0.214866 0.183869 0.251645 0.30245 0.26933
internal_weight=35510.6 10560.3 24950.3 6382.66 12085.4 2872.68 4177.62 3509.98 2344.92 3609.22 9740.51 1461.44 5048.47 12864.9 1239.27 1411.23 4692.04 2412.69 610.884 568.402 1053.62 958.511 456.038 364.502 1205.58 1405.08 1097.29 4081.16 2187.94 2555.6 1105.65 418.604 690.797 687.041 635.985 1655.94 1007.61 4261.88 334.54 225.624 207.307 8602.98 1190.17 3842.89 899.197 271.279 494.539 533.069 834.121 1893.22 714.279 452.723 403.577 261.864 91.2906 91.5358 214.613 499.121 374.828 183.507 1744.22 745.527
internal_count=262805 148540 114265 69523 81483 39615 79017 29908 22877 71426 58606 24034 23831 32782 8711 15581 34775 25263 5774 7591 17414 12375 5635 5011 7032 13759 4645 29001 13942 54012 14166 4562 5387 9604 9144 33567 11504 15656 3293 2435 1361 17126 20802 16799 9976 3232 2689 3762 4060 15059 8372 3206 4413 3948 1184 624 2346 5607 4487 2005 13494 6760
is_linear=0
shrinkage=0.05


Tree=2
num_leaves=63
num_cat=0
split_feature=6 0 15 6 22 9 22 15 0 5 17 18 9 14 0 7 14 14 1 11 18 0 9 1 13 7 0 13 11 18 19 15 23 17 14 18 5 14 14 13 22 14 22 4 22 19 13 5 9 18 17 23 5 3 4 5 4 15 5 22 5 17
split_gain=63828.4 12445 6097.72 5268.03 2740.72 2665.42 2531.59 2403.51 2073.94 1726.9 1394.69 1392.02 1309.91 1257.15 1079.98 1042.25 965.062 1256.58 963.064 947.106 931.225 1873.69 1513.46 893.255 886.285 915.429 864.773 762.74 739.586 1493.42 704.681 692.259 687.839 677.784 647.092 1578.59 1018.9 691.062 640.698 636.015 669.274 632.999 607.985 554.68 556.497 535.353 561.171 604.043 530.298 549.224 511.027 606.78 508.218 600.331 496.955 494.053 1014.81 517.518 575.366 492.985 470.706 469.69
threshold=0.095000000000000015 0.19500000000000003 7.5950000000000006 0.045000000000000005 5.9324210000000006 0.18333333333333338 11.7928835 7.1950000000000012 0.025000000000000005 0.10750000000000019 0.46472317204376884 -1.722546424198833e-16 1.0000000180025095e-35 5.5000000000000009 0.29500000000000004 0.0040000000000000287 6.5000000000000009 5.5000000000000009 1.0000000180025095e-35 1.0000000180025095e-35 -0.1799261722714405 0.03500000000000001 1.0000000180025095e-35 1.0000000180025095e-35 9.5000000000000018 0.008000000000000047 0.14500000000000005 9.5000000000000018 1.0000000180025095e-35 0.17992617227144031 1.0000000180025095e-35 7.4850000000000012 4.5000000000000009 1.0000000180025095e-35 7.5000000000000009 0.23931566428755774 0.095000000000000098 3.5000000000000004 5.5000000000000009 7.5000000000000009 15.267025000000002 7.5000000000000009 6.5249250000000005 0.25750000000000045 9.8668830000000032 1.0000000180025095e-35 70.500000000000014 0.02250000000000003 1.0000000180025095e-35 0.29696027566504685 -0.40966402954315195 3.5000000000000004 0.035000000000000052 0.015000000000000001 0.25500000000000034 0.057500000000000058 0.0049999999999999758 9.9950000000000028 0.061250000000000061 17.063598500000005 0.1287500000000002 0.35460488704253579
decision_type=8 10 2 10 2 10 2 2 8 10 2 2 10 2 10 8 2 2 8 2 2 10 8 10 2 8 8 2 2 2 2 2 2 2 2 2 10 2 2 2 2 2 2 10 2 2 2 10 10 2 2 2 10 8 10 10 10 2 10 2 10 2
left_child=3 2 6 4 24 10 20 32 13 41 16 -12 18 33 -13 31 17 -3 -10 -16 21 30 42 -15 48 -26 -8 -28 -19 43 -2 -6 -5 39 35 36 37 -20 -37 -4 -41 52 -22 44 -30 46 -17 59 49 -1 -43 -52 -9 -54 -31 -33 -57 -58 -59 -48 -40 -36
right_child=1 5 8 7 15 -7 26 9 12 -11 11 14 -14 23 19 45 -18 28 34 -21 22 -23 -24 -25 25 -27 27 -29 29 54 -32 55 -34 -35 61 38 -38 -39 60 40 -42 50 -44 -45 -46 -47 47 -49 -50 -51 51 -53 53 -55 -56 56 57 58 -60 -61 -62 -63
leaf_value=0.072886392065113131 0.40807418327463801 0.26855822272631052 0.27411432102312783 0.13174766994814863 -0.040078804115465383 0.28188279347054412 0.059182939574049423 0.081004368647049713 0.30325440326253938 0.28635052068681183 0.25858091489834589 0.13033402795643698 0.2644212180092525 0.057242788708182994 0.23169276186178053 0.067236873376016179 0.28174046649031731 0.2432083222468808 0.21536430631488171 0.08660347125112744 0.1481290556850621 0.26804317219743345 0.21610043346943733 0.1661552494161096 0.034215722934906795 0.19620363493431908 0.049945369380319987 0.20143222669117944 0.11053736771061107 0.027789624453045083 0.050884187162468168 0.0054537381089296393 0.013741424571611717 0.11686884649871693 0.25551661746765514 0.19494585635342426 0.24095942146258725 0.12791117454542064 0.029743868192578782 0.20453973739746148 -0.05474415050134758 0.22486703778784586 0.069264891396921643 0.26146955295338564 0.24804992555871086 -0.012618639532267309 0.21863859581615266 0.50494567948506508 0.22957273128930011 0.18316724743585802 0.24755338002893554 0.04339642741683046 0.26256595633141855 0.12652841116917485 0.15266119114935156 0.030461838863964603 0.4401639941552925 0.58007214557517306 -0.052938488998338334 -0.052873140238449072 0.13855621589681513 0.14289290366331106
leaf_weight=277.89733665436506 15.100230325013397 4107.0529596582055 438.48661447688937 172.28431626781821 817.98136923834682 10629.250645682216 814.81987138837576 460.46224966272712 331.89568476751447 243.09463687986135 1234.7601313889027 538.92425728216767 2499.3115471377969 277.45315123721957 1037.0078325942159 257.68465180695057 2895.92312181741 3301.4957016371191 529.04982430115342 126.16211944073439 677.82160436734557 566.23750631138682 660.95635667815804 585.63010698929429 561.67245732992887 103.24924077093601 124.5565118342638 249.61525055393577 149.7975308150053 108.31198908016086 161.3651541210711 1326.5370939336717 435.96797246858478 133.79285335168242 1157.7585579529405 351.72181962803006 2119.1530652344227 394.21926515176892 142.16224627941847 165.28437636047602 29.300093676894903 326.20137656852603 382.17558477073908 617.99528497457504 144.5866469219327 124.09572788700461 73.370040696114302 14.336400005966423 136.88049135357141 190.14904657751322 56.308172352612019 102.91428580507636 101.07989568635821 410.25435071438551 301.3701249435544 168.37508220970631 26.369955584406853 4.7395053319633034 14.797372780740259 21.652276072651148 330.31886474043131 100.62021712586284
leaf_count=4483 46 11502 1713 2042 19246 14436 11720 6228 1681 1517 5093 4696 6737 3352 4566 4289 6688 13780 3899 1035 7632 3535 3478 4116 9566 836 1527 2040 1036 1111 1950 26994 8373 1265 5118 2606 11137 3690 1628 1154 393 3077 5311 1851 638 2338 767 115 832 2511 481 1448 911 4913 1940 3218 279 35 285 425 2771 725
internal_value=0.217828 0.24222 0.20297 0.0719994 0.0381167 0.262846 0.147998 0.132465 0.223917 0.162979 0.248952 0.218165 0.234443 0.172535 0.188846 0.0108945 0.256728 0.248432 0.220713 0.215956 0.176915 0.223709 0.156721 0.131143 0.0992118 0.0593693 0.0880788 0.151004 0.230554 0.198952 0.0814491 -0.00290279 0.0471661 0.21912 0.215368 0.205232 0.221861 0.178023 0.143852 0.240729 0.165497 0.142398 0.119695 0.234562 0.178077 0.077159 0.107512 0.202415 0.143006 0.117689 0.189025 0.115595 0.119108 0.15342 0.119648 0.016833 0.0872777 0.295664 0.100625 0.156771 0.105816 0.246511
internal_weight=44859.8 38431.4 13238.8 6428.36 4119.79 25192.6 3652.65 2308.57 9586.16 1700.31 14563.4 2936.85 7956.21 1629.95 1702.09 2849.94 11626.5 8730.61 5456.9 1163.17 2463.66 742.703 1720.95 863.083 1269.85 664.922 1188.99 374.172 4623.56 1322.06 176.465 2358.8 608.252 766.864 5125 3866.63 3042.42 923.269 824.203 633.071 194.584 1457.22 1060 912.379 294.384 491.139 367.043 109.359 604.927 468.046 485.424 159.222 971.796 511.334 409.682 1540.82 214.282 45.9068 19.5369 95.0223 472.481 1258.38
internal_count=262805 157596 89224 105209 76219 68372 37239 28990 51985 18575 53936 15390 39992 11993 10297 57991 38546 31858 33255 5601 21952 5531 16421 7468 18228 10402 15287 3567 20356 6576 1996 50057 10415 4525 31574 25731 18726 7589 7005 3260 1547 17058 12943 3525 1674 7934 5596 1307 7826 6994 5006 1929 12052 5824 3051 30811 3817 599 320 1192 4399 5843
is_linear=0
shrinkage=0.05


Tree=3
num_leaves=63
num_cat=0
split_feature=6 9 6 15 7 21 15 4 21 21 21 11 5 20 5 5 7 7 17 7 20 15 17 17 20 21 15 7 21 6 15 7 4 20 5 13 20 4 20 21 21 13 13 7 13 21 6 17 11 15 13 5 21 15 13 5 20 21 17 6 15 14
split_gain=39404 6636.9 3828.28 2800.88 2188.17 1789.3 1600.64 1462.56 1226.63 1208.58 990.137 988.997 980.436 870.343 861.208 851.759 775.528 772.215 740.379 678.904 741.895 679.055 675.3 659.465 645.6 640.862 630.34 772.972 622.138 585.59 544.745 534.527 576.35 531.837 526.333 524.359 497.552 492.219 444.71 442.95 433.877 569.578 429.229 421.992 412.04 491.857 585.276 411.821 408.343 405.251 392.348 392.115 389.42 489.361 549.147 400.117 386.916 386.127 451.457 513.422 435.212 384.739
threshold=0.095000000000000015 1.0000000180025095e-35 0.045000000000000005 9.8950000000000014 0.018000000000000047 61.561491000000011 7.1950000000000012 0.12750000000000039 61.016831500000009 59.474634000000009 61.300516000000009 1.0000000180025095e-35 0.12250000000000015 13.500000000000002 0.48312500000000008 0.018750000000000048 -0.083999999999999894 0.008000000000000047 0.51639395938746258 0.011000000000000029 3.5000000000000004 10.295000000000002 -0.51639395938746191 -0.29696027566504662 5.5000000000000009 63.263183000000005 9.2050000000000018 -0.045999999999999951 59.289983500000005 0.27500000000000008 9.0050000000000008 0.022000000000000044 0.12750000000000039 45.500000000000007 0.16875000000000023 8.5000000000000018 33.500000000000007 0.14874999999999997 13.500000000000002 68.490042500000015 59.556481500000011 98.500000000000014 3.5000000000000004 -0.045999999999999951 3.5000000000000004 59.714131500000008 0.36500000000000005 -0.40966402954315195 1.0000000180025095e-35 6.3850000000000007 8.5000000000000018 0.0087500000000000026 61.110834500000003 11.705000000000002 25.500000000000004 0.010000000000000014 16.500000000000004 63.943190000000008 0.78574730703237894 0.34500000000000003 4.9050000000000011 7.5000000000000009
decision_type=8 10 10 2 8 2 2 10 2 2 2 2 10 2 10 10 10 8 2 8 2 2 2 2 2 2 2 8 2 8 2 10 10 2 10 2 2 10 2 2 2 2 2 10 2 2 10 2 2 2 2 10 2 2 2 10 2 2 2 10 2 2
left_child=2 3 5 4 7 9 25 10 31 -1 49 29 61 18 26 19 -15 35 -9 21 -21 -7 30 -10 -13 -4 27 37 -28 -6 34 32 47 57 -17 -11 -34 -3 -12 48 41 -37 -40 -44 -20 -46 -47 -5 -25 -2 -32 56 -42 -54 55 -55 -27 -18 60 -60 -59 -8
right_child=1 14 6 8 11 15 12 13 23 17 38 24 -14 16 -16 22 33 -19 44 20 -22 -23 -24 39 -26 51 28 -29 -30 -31 50 -33 36 -35 -36 40 -38 -39 42 -41 52 -43 43 -45 45 46 -48 -49 -50 -51 -52 -53 53 54 -56 -57 -58 58 59 -61 -62 -63
leaf_value=-0.0058916925250457703 0.066838266559316489 0.0017043520086381847 0.10688491316083824 0.074626268846239477 0.16240985561060978 -0.037899083098787832 0.10343572916342419 0.16939916193936341 0.20711337516889827 0.12218151503505681 0.012744280912147622 0.20537394827275202 0.22583279447318932 0.08735051119933554 0.22197017470122704 0.17905877136734222 0.21974753500200747 0.19571080746325117 0.034943082327838756 0.28794749078809528 0.030279905673635601 0.025341874727035887 0.01926144833019415 0.18312333131247643 0.090581726624313297 -0.052843655930845702 0.1139642701889738 0.1988339914205971 0.21323002077581707 0.19940180037296487 0.14919284926218182 0.18600412318829035 0.19776013148841529 0.13991881408458282 0.55234530119365466 0.03296142819611985 0.13815754788900433 0.15815930395773894 0.016967271685340454 -0.023218216576473629 0.026204291212683084 0.54695187321885463 -0.020962490318117855 0.11723106643841988 0.22593496549685052 0.046252979084914998 0.15274870202052437 0.15646756357254363 0.092768045186353995 0.16536413490858465 0.012522062830413539 -0.0053910025781764483 0.014614289298824971 0.55594743746550568 -0.053128543814548707 0.09665485341105462 0.5298168970760474 0.30365155270515509 0.019076952777543996 0.18382232226139303 0.17431259380601449 0.15363984543682452
leaf_weight=338.88500437512994 132.03765243664384 52.961576655507088 241.90710700675845 359.81456897035241 1691.7238284721971 1170.1427088342607 1115.6367387697101 443.48347929120064 6790.2786907330155 482.04176824167371 287.72780984267592 164.20743239298463 254.61595264449716 265.99088815972209 10385.713824175298 51.6851926445961 744.2821898907423 182.48867307975888 244.6776350736618 37.782659485936165 107.19226095825434 666.10030633583665 457.25111991912127 863.02839722111821 482.04705598950386 4.8700356557965261 161.09844612702727 3784.2162199132144 7813.1383318416774 2910.3237902224064 103.53756623342633 1958.0921307504177 683.45270701870322 646.3956690505147 11.554112229496239 11.693617541342974 717.97988164052367 989.64372370392084 181.1439554952085 30.549598805606365 466.6756949685514 9.9985650964081287 61.038553934544325 581.70223620906472 81.706851713359356 287.75380543991923 233.86820226535201 268.34607023000717 146.22941888123751 498.01780872792006 106.55421655252576 380.25399914011359 29.484069637954235 16.421241365373142 8.1941556558012945 6.6670458056032649 6.8664129748940468 74.84593041613698 93.795329846441746 95.386108096688986 496.44874324277043 580.01887746155262
leaf_count=6207 1562 634 2741 3062 11261 26522 12346 3047 22040 5855 4730 861 1159 2500 12577 756 3171 1240 2738 181 1573 12809 8738 3734 3504 99 668 9687 14415 10106 1370 6939 2390 4433 68 236 3450 4677 2181 323 7910 69 943 6155 528 3379 1396 1840 897 3722 1836 7509 488 116 149 96 66 185 952 451 2458 5070
internal_value=0.175736 0.192496 0.0638896 0.173161 0.154626 0.0347886 0.111911 0.132437 0.189939 0.0775932 0.0946414 0.17767 0.134346 0.150187 0.211272 0.0102822 0.167892 0.100904 0.11705 -0.0067342 0.097432 -0.0149583 0.0564279 0.201435 0.119749 0.0428884 0.202592 0.188331 0.211225 0.185803 0.118603 0.167367 0.149386 0.177851 0.24726 0.0841262 0.167225 0.150212 0.0662591 0.164354 0.0507205 0.269875 0.0849483 0.104107 0.0896724 0.111868 0.0940001 0.109588 0.170032 0.144717 0.0798762 0.00339457 0.0417073 0.160768 0.298519 0.423321 0.288042 0.194145 0.169089 0.102142 0.191257 0.120609
internal_weight=52551.7 45703.1 6848.52 22516.4 10698.6 4264.35 2584.17 5450.3 11817.8 1552.55 1741.67 5248.3 1950.27 3708.63 23186.8 2711.8 2417.14 1213.66 1291.49 1981.22 144.975 1836.24 730.582 7830.09 646.254 633.898 12801.1 4826.82 7974.24 4602.05 273.331 3987.69 2029.59 2151.15 63.2393 1031.18 1401.43 1042.61 1111.61 1039.81 549.134 21.6922 823.885 642.741 848.006 603.329 521.622 628.161 1009.26 630.055 210.092 391.99 527.442 60.7665 31.2824 23.0883 11.7364 1504.76 760.476 189.181 571.295 1695.66
internal_count=262805 157596 105209 114938 70263 76219 28990 44531 44675 22366 19293 25732 18575 25238 42658 53853 14150 16159 11088 41085 1754 39331 12768 26994 4365 10415 30081 14998 15083 21367 4030 17681 10742 11650 824 14919 5840 5311 14009 4954 9064 305 9279 7098 8041 5303 4775 4902 4631 5284 3206 7674 8759 849 361 212 165 7217 4046 1403 2643 17416
is_linear=0
shrinkage=0.05


Tree=4
num_leaves=63
num_cat=0
split_feature=0 6 9 1 15 15 22 0 6 15 6 9 1 17 21 11 18 13 21 14 18 21 18 1 22 11 5 14 5 21 0 12 6 22 14 18 21 21 18 21 22 21 18 6 15 15 18 15 21 17 13 17 1 5 0 12 9 18 14 13 15 11
split_gain=27436.8 5212.97 4827.06 2772.87 1993.63 1202.73 1050.97 1001.85 969.546 948.296 919.439 762.727 731.321 697.187 1134.45 675.711 619.476 802.493 640.294 614.887 593.733 750.711 736.458 585.638 585.04 581.044 577.981 485.57 617.957 526.094 462.984 450.71 450.589 558.539 485.622 447.183 445.284 489.983 499.365 736.285 610.199 693.023 492.246 457.748 436.469 435.748 430.309 419.119 476.622 414.356 402.765 444.606 481.345 399.008 398.773 393.062 383.59 406.384 613.978 388.859 377.687 374.106
threshold=0.045000000000000005 0.38500000000000006 1.0000000180025095e-35 0.025000000000000005 6.3050000000000006 7.9050000000000011 5.6426000000000007 0.015000000000000001 0.14500000000000005 9.9050000000000029 0.15500000000000003 0.35416666666666669 0.48500000000000004 1.0000000180025095e-35 61.189758000000005 1.0000000180025095e-35 -1.722546424198833e-16 2.5000000000000004 61.068132500000011 8.5000000000000018 -0.61559370248597534 65.124783000000022 1.0000000180025095e-35 1.0000000180025095e-35 5.8604585000000009 1.0000000180025095e-35 0.099999999999999936 6.5000000000000009 0.1275000000000002 59.394310000000004 0.015000000000000001 1.0000000180025095e-35 0.29500000000000004 17.644300000000005 7.5000000000000009 -0.2393156642875576 61.561491000000011 59.474634000000009 0.5163939593874618 59.746775000000007 5.6870420000000008 59.868658000000003 -0.2393156642875576 0.085000000000000006 10.895000000000001 13.805000000000001 0.17992617227144031 10.095000000000001 61.110834500000003 0.51639395938746258 16.500000000000004 0.70581670320594825 1.0000000180025095e-35 0.15000000000000027 0.38500000000000006 1.5000000000000002 1.0000000180025095e-35 -1.722546424198833e-16 7.5000000000000009 56.500000000000007 13.405000000000003 1.0000000180025095e-35
decision_type=8 10 10 8 2 2 2 10 8 2 10 10 8 2 2 2 2 2 2 2 2 2 2 10 2 2 10 2 10 2 10 8 8 2 2 2 2 2 2 2 2 2 2 10 2 2 2 2 2 2 2 2 10 10 10 10 10 2 2 2 2 2
left_child=2 4 3 5 8 6 -1 36 23 12 27 16 24 -4 -15 56 18 -18 -3 35 31 61 -23 -2 -5 49 47 28 44 -29 -16 -10 33 34 -24 -17 37 -7 39 42 -40 -42 -39 -38 50 -11 -14 -9 -49 -19 51 52 -6 -45 -51 -46 57 60 59 -59 -12 -22
right_child=1 11 13 9 10 7 -8 26 20 45 15 -13 46 14 30 19 17 25 -20 -21 21 22 32 -25 -26 -27 -28 29 -30 -31 -32 -33 -34 -35 -36 -37 43 38 40 -41 41 -43 -44 53 55 -47 -48 48 -50 54 -52 -53 -54 -55 -56 -57 -58 58 -60 -61 -62 -63
leaf_value=0.078602202129187004 0.17318647640111828 0.15992956748728213 0.15521792723039915 0.10016034244014223 0.19342195078172375 -0.010680182405151143 -0.031952681554553775 0.012533643022550773 0.21526662632838495 0.13824940214166787 0.17611506326355109 0.18718550906240305 -0.053819688765775059 0.14362434298241156 -0.012970764563132803 0.13461952574506525 0.13925483383245027 0.18502228478374194 0.18809286524852803 0.17737665787177265 0.14489840825686728 0.0042053955357059533 -0.0035847800650860998 0.037560106496672491 0.025729204341929591 0.13562648355169438 0.21429779178612252 0.017305276823781107 0.15991045821071684 0.16098333955039631 0.13021844508082245 -0.057969685121841801 0.14298196889498366 0.13725613364804762 0.17031540700218636 0.07550441392253758 -0.0017412734779098178 0.24140667192332965 0.090533974250490729 0.027553710903821679 -0.053398670725916732 0.39401865240386452 -0.053559009371419233 0.11994270293874908 0.13858273750402963 0.075745937730091972 0.21528137118083143 0.028624899854814773 0.14389558291273621 0.11107062553906533 0.043998615187815018 0.17722517731946638 0.066669580566955405 -0.036607049706651316 0.17163090501473785 0.034270354365763811 0.18232925473966305 0.13267965780318675 0.1769780341303186 -0.031241615124201566 0.1470428202564418 0.05011697630742519
leaf_weight=263.7819214835763 92.025533981621265 2923.3538257703185 1433.6148190163076 385.29042199626565 88.13607531785965 235.33437677845359 1161.6817963458598 165.98865886777639 226.4191519357264 959.72293878346682 3488.93232049793 10515.654333680868 17.297847792506218 500.25706379115582 233.5100471675396 865.20859572663903 2878.5930891521275 4168.2390603274107 6517.5565488450229 503.12788147106767 1425.0756880827248 229.25826736912131 232.06724486500025 589.20534884557128 838.69589849561453 980.36917333677411 92.367808070033789 66.704803235828876 718.32819323241711 1420.1365854740143 74.452169850468636 16.170334219932556 411.98745758086443 191.51255721971393 48.543134346604347 507.59208787232637 1175.0469758398831 71.076122380793095 159.14476871863008 552.96306759491563 11.210043877363203 37.971108574420214 17.65823569893837 153.87101475149393 1000.6277724280953 393.04864345863461 105.21705799549818 132.4070652090013 277.87100957706571 400.61205914244056 392.41487710550427 171.47260373458266 498.76035504043102 55.340879261493683 845.55562478303909 99.267730601131916 2007.2248940654099 2258.046485312283 1001.2297124005854 36.768532328307629 1643.3645081520081 112.31404495611787
leaf_count=3352 844 6740 5350 3373 547 4215 25756 2530 709 6687 10179 9193 276 2454 2794 3386 9494 7790 10567 1158 7920 2108 2679 8405 12034 3197 539 515 3136 6855 450 148 1936 1524 322 3049 22871 680 2052 7972 197 300 294 1272 6723 3151 270 1650 3289 2057 4021 1094 4700 736 1987 851 4289 10980 2698 297 5230 933
internal_value=0.147964 0.162884 0.070147 0.0503508 0.143448 0.026591 -0.0114945 0.0438904 0.109547 0.0905218 0.150675 0.176411 0.060817 0.134282 0.0971461 0.157719 0.170356 0.161178 0.179372 0.130092 0.122182 0.11533 0.0840628 0.0558815 0.0491589 0.171046 0.098184 0.131213 0.119533 0.154537 0.0216463 0.197053 0.104771 0.0714263 0.0264984 0.112762 0.0291907 0.0531677 0.0708444 0.0490086 0.138104 0.292037 0.182708 0.0103909 0.106646 0.120089 0.177287 0.0795725 0.106695 0.177459 0.0851199 0.106398 0.0857044 0.0785321 0.152162 0.129168 0.162686 0.158008 0.144307 0.130053 0.166806 0.137974
internal_weight=59076.7 49571.9 9504.82 7262.99 20341.9 4563.71 1425.46 3138.25 3574.58 2699.27 16767.3 29229.9 1346.5 2241.83 808.219 12311.5 18714.3 9273.37 9440.91 1875.93 2893.35 2650.76 1113.37 681.231 1223.99 6394.78 668.635 4455.85 2969.01 1486.84 307.962 242.589 884.11 472.123 280.61 1372.8 2469.62 1085.36 850.023 641.697 208.326 49.1812 88.7344 1384.26 2250.68 1352.77 122.515 576.267 410.278 5414.41 1150.78 758.369 586.896 209.212 1246.17 1099.9 10435.6 8428.34 3296.04 2294.82 5132.3 1537.39
internal_count=262805 148261 114544 103496 97236 77705 29108 48597 27528 25791 69708 51025 15953 11048 5698 41266 41832 24525 17307 7593 18279 17422 8569 9249 15407 15031 8008 28442 21072 7370 3244 857 6461 4525 3001 6435 40589 15710 11495 8946 2549 497 974 24879 17936 9838 546 7469 4939 11834 10362 6341 5247 2008 4044 7574 33673 29384 13975 11277 15409 8853
is_linear=0
shrinkage=0.05


Tree=5
num_leaves=63
num_cat=0
split_feature=6 9 6 22 7 14 18 14 15 17 14 14 17 15 9 13 3 13 13 22 17 6 15 7 15 7 22 6 22 22 17 4 7 19 7 22 22 3 1 13 20 22 17 4 23 7 15 20 6 7 11 14 13 4 14 20 15 22 4 22 15 13
split_gain=21112.6 4481.9 1787.07 1710.24 1459.53 1399.5 1335.6 1271.96 1212.21 848.964 725.529 818.647 722.964 652.79 631.427 617.389 559.439 536.574 504.915 524.696 472.478 467.877 458.105 442.558 537.58 440.051 438.741 422.636 409.365 400.063 394.744 390.038 355.884 353.151 585.916 351.083 339.812 523.091 336.963 332.974 332.137 328.902 377.142 326.691 315.737 308.982 327.277 304.783 302.311 296.459 357.262 293.734 351.401 617.57 475.996 538.253 392.744 365.745 349.656 317.421 309.128 299.887
threshold=0.075000000000000025 1.0000000180025095e-35 0.15500000000000003 5.9663830000000013 0.0069999999999999932 7.5000000000000009 -1.722546424198833e-16 5.5000000000000009 6.8750000000000009 -0.40966402954315195 2.5000000000000004 7.5000000000000009 0.70581670320594825 10.305000000000001 0.2678571428571429 18.500000000000004 0.015000000000000001 93.500000000000014 4.5000000000000009 5.2441915000000003 -0.95297903005573326 0.29500000000000004 9.9950000000000028 -0.012999999999999975 6.2750000000000012 -0.039999999999999897 4.724841500000001 0.065000000000000016 5.2307085000000013 14.589458500000001 0.70581670320594825 0.29000000000000042 -0.092999999999999916 1.0000000180025095e-35 -0.15249999999999989 23.562407500000003 8.6790420000000008 0.37500000000000006 1.0000000180025095e-35 10.500000000000002 5.5000000000000009 6.3373750000000006 0.95297903005573359 0.2425000000000003 2.5000000000000004 0.011000000000000029 3.4050000000000007 42.500000000000007 0.015000000000000001 -0.10399999999999986 1.0000000180025095e-35 6.5000000000000009 2.5000000000000004 0.080000000000000224 4.5000000000000009 43.500000000000007 12.805000000000001 5.847833500000001 0.095000000000000168 8.8626000000000023 7.9050000000000011 4.5000000000000009
decision_type=8 10 8 2 8 2 2 2 2 2 2 2 2 2 10 2 10 2 2 2 2 10 2 10 2 10 2 10 2 2 2 10 8 2 10 2 2 10 8 2 2 2 2 10 2 8 2 2 10 10 2 2 2 10 2 2 2 2 10 2 2 2
left_child=3 2 8 10 9 6 43 21 16 17 15 -12 23 40 22 18 -2 27 45 -20 -13 41 25 24 -9 -3 -17 -5 -22 36 -21 -14 -23 -7 -35 -19 -25 -38 -15 -40 -6 42 -8 49 -24 46 -1 -26 -11 -4 -51 52 53 -10 56 61 57 58 -54 -58 -59 -56
right_child=1 14 5 4 13 33 7 12 51 48 11 20 31 38 -16 26 -18 35 19 30 28 32 44 29 47 -27 -28 -29 -30 -31 -32 -33 -34 34 -36 -37 37 -39 39 -41 -42 -43 -44 -45 -46 -47 -48 -49 -50 50 -52 -53 54 -55 55 -57 59 60 -60 -61 -62 -63
leaf_value=0.39607038877584538 0.12651624587852139 0.11282768334076992 0.072584025434659999 0.013523160279090793 0.11657169946603599 0.15645364737199796 0.14748547466959547 -0.029500873707603195 0.005711976442103011 -0.036413468703385368 0.0052045063997650737 -0.010516475868217292 0.016200432730836083 0.18823908387750415 0.16029291057123887 0.43177704429141972 0.030689275361542263 0.13021309268029413 0.08806880933644437 0.22665554073767949 0.048267466069215365 0.046901843621805897 0.1128868695696319 0.11341846705757695 0.11410773864352451 0.14261866967260228 0.0010821849939615697 0.13882576075056138 0.12761953681394914 0.15288249048688904 0.082086040933511961 0.092201343791623092 0.14471944535099432 -0.059184723441756716 0.13142929139865897 -0.052742176309441738 0.04463783064534365 0.1953745980506103 0.14332888934984736 0.034858309893061587 0.018846737037088432 0.080552568740370034 -0.0085824765761950781 0.14684966218926582 0.1547186646024894 0.1744375426056656 0.039825895498466275 0.059758351854893303 0.005302491420032327 0.13535191980644151 0.10281273082207767 0.12889109891944334 0.17422077394883762 0.12609335981457812 0.14480810401677904 -0.010794642257815658 0.13796157934459016 0.002584123953399217 -0.058021147238942097 0.23496361607772998 0.1040373502673919 0.080496546626850157
leaf_weight=6.6414102017879477 186.84827588498592 1612.3706212341785 230.21136796474457 1063.3898497000337 110.32849048450589 4955.5513114146888 450.7374866232276 115.01093712821603 241.3274342045188 942.41483771800995 534.13590357452631 112.62131172418594 466.8128605261445 135.53153796866536 12715.925590142608 6.1649292111396781 823.86173759773374 196.13557309657335 160.40644652396441 251.3410264775157 250.799530364573 96.647701274603605 474.9088923484087 1378.6995496377349 472.15005915611982 5361.2724605575204 144.70717911049724 71.842053722590208 461.79821962118149 456.7323018796742 58.139680206775665 264.44625109434128 2453.7728773020208 42.27624986320734 868.98657735064626 30.268257804214954 425.61514063924551 66.554393276572227 150.74886379018426 133.32049392908812 410.23155505210161 686.43895018473268 42.346173904836178 3703.1436894014478 8989.5020290911198 64.276429489254951 220.27164500951767 568.60362124070525 805.50743785500526 5461.6591938622296 997.64002137258649 1325.4344999678433 254.92959549278021 190.74844152852893 242.17821084335446 132.55504604056478 240.61584832519293 86.877843461930752 17.307181499898434 129.84813967347145 553.08960952982306 720.71324127539992
leaf_count=22 1695 6084 1796 18606 1044 11277 2023 1314 2202 22194 6893 1460 4273 1043 12094 23 11087 3020 1633 1731 2829 854 1240 6380 2186 10848 2059 531 4030 1813 577 1357 6992 337 3368 650 2779 172 1168 1421 5716 4861 435 8642 12674 293 2374 3787 15374 18658 4023 6177 1257 1093 1279 1333 1311 1063 148 426 3716 5195
internal_value=0.128662 0.138041 0.124248 0.0418519 0.0223745 0.129937 0.123137 0.107703 0.0974918 0.00586949 0.0765799 0.0534338 0.0888821 0.0769645 0.151927 0.111082 0.0484046 0.0354698 0.129399 0.161458 0.0846509 0.12897 0.145455 0.0983703 0.0730788 0.135731 0.0186812 0.0214528 0.0996915 0.110929 0.199496 0.0436847 0.141013 0.151193 0.122586 0.105754 0.100687 0.0650214 0.12337 0.0924211 0.0395588 0.10293 0.134082 0.134935 0.15262 0.0776649 0.0502526 0.0844146 -0.0171892 0.128339 0.130326 0.109488 0.100337 0.0588567 0.107873 0.0836676 0.128546 0.110914 0.159456 0.171961 0.0902647 0.0966716
internal_weight=64825.4 58504.4 29350.4 6321.02 4049.72 24204 18337.2 7944.57 5146.34 3109.56 2271.3 1359.35 4214.63 940.161 29154 911.949 1010.71 1361.64 761.077 469.887 825.219 3729.94 16438.1 3483.37 1155.76 6973.64 150.872 1135.23 712.598 2327.6 309.481 731.259 2550.42 5866.81 911.263 226.404 1870.87 492.17 419.601 284.069 520.56 1179.52 493.084 10392.7 9464.41 291.189 226.913 1040.75 1747.92 6689.51 6459.3 4135.63 2810.19 432.076 2378.11 1095.45 1282.67 912.204 272.237 370.464 639.967 962.891
internal_count=262940 168249 125309 94691 70767 87327 72345 39226 37982 60375 23924 15212 24061 10392 42940 8712 12782 22807 6630 3941 8319 15165 30846 18431 7287 16932 2082 19137 6859 11144 2308 5630 7846 14982 3705 3670 9331 2951 3632 2589 6760 7319 2458 33119 13914 2689 2396 5973 37568 24477 22681 25200 19023 3295 15728 7807 7921 6184 1405 1737 4779 6474
is_linear=0
shrinkage=0.05


Tree=6
num_leaves=63
num_cat=0
split_feature=0 9 0 15 1 5 15 11 18 23 15 7 14 14 13 6 22 12 1 15 6 20 22 20 15 22 5 22 1 9 20 18 14 14 5 13 18 22 5 13 13 7 22 22 22 22 15 5 18 5 13 13 1 9 7 19 0 12 9 22 7 0
split_gain=16828.8 3584.34 3431.6 1793.4 1518.73 975.05 971.94 698.134 623.66 883.492 593.566 590.507 579.001 718.252 808.771 534.677 528.307 498.957 494.073 490.524 514.544 485.943 459.704 448.048 422.552 427.823 422.09 407.638 377.281 342.911 319.987 398.069 348.121 600.351 321.821 313.218 309.278 351.291 366.947 318.965 508.102 307.269 306.571 304.165 298.685 436.65 303.78 289.508 288.188 287.274 279.017 331.174 362.027 271.015 266.697 264.419 257.219 252.016 251.868 270.337 267.118 251.788
threshold=0.045000000000000005 1.0000000180025095e-35 0.28500000000000009 6.3850000000000007 0.025000000000000005 0.080000000000000113 6.9850000000000012 1.0000000180025095e-35 -0.61559370248597534 7.5000000000000009 9.9050000000000029 0.011000000000000029 6.5000000000000009 3.5000000000000004 5.5000000000000009 0.015000000000000001 6.3373750000000006 1.0000000180025095e-35 0.22500000000000003 10.505000000000001 1.0850000000000002 25.500000000000004 22.337608000000003 4.5000000000000009 10.805000000000001 9.1359830000000013 0.11625000000000012 6.5249250000000005 1.0000000180025095e-35 1.0000000180025095e-35 19.500000000000004 -0.46472317204376873 5.5000000000000009 6.5000000000000009 0.19291666666666676 10.500000000000002 -0.29696027566504651 17.732816000000003 0.17375000000000021 9.5000000000000018 3.5000000000000004 -0.036999999999999915 8.9761530000000018 17.109725000000005 12.789583500000001 13.317067000000002 11.695000000000002 0.24250000000000024 0.8542199457734333 0.17125000000000021 7.5000000000000009 98.500000000000014 0.025000000000000005 1.0000000180025095e-35 -0.11499999999999987 1.0000000180025095e-35 0.015000000000000001 1.5000000000000002 0.46428571428571436 11.189125000000002 0.008000000000000047 1.0000000180025095e-35
decision_type=8 10 10 2 8 8 2 2 2 2 2 8 2 2 2 10 2 10 8 2 10 2 2 2 2 2 8 2 8 10 2 2 2 2 8 2 2 2 10 2 2 8 2 2 2 2 2 10 2 10 2 2 10 10 8 2 10 10 10 2 8 10
left_child=1 4 3 8 6 12 -1 29 -2 17 11 61 13 14 28 16 23 26 22 20 -9 27 -11 -8 30 53 -10 -3 -5 -4 31 -7 -32 -34 49 -20 37 38 57 40 -38 -28 -21 -13 46 -46 -15 54 56 -33 -23 52 -52 -26 -12 -14 -29 -17 59 60 -19 -6
right_child=2 21 7 5 10 24 15 19 9 18 47 43 55 44 -16 36 -18 58 35 42 -22 50 -24 -25 25 -27 41 48 -30 -31 32 34 33 -35 -36 -37 39 -39 -40 -41 -42 -43 -44 -45 45 -47 -48 -49 -50 -51 51 -53 -54 -55 -56 -57 -58 -59 -60 -61 -62 -63
leaf_value=-0.022465238096323403 0.14232024678083285 0.095257202950089104 0.13069818648489748 0.13251187843658549 0.058383369334007673 0.15545377524515397 0.18920377314901779 0.08579537332780722 0.067432829765807861 0.0039872743675243424 0.19227887676785504 0.1282137285461592 0.12347205787344553 -0.0072269035036539066 0.11801143911504289 0.095588539600915096 -0.010591647608147348 0.011129648382955472 0.034884351456345317 0.12003224773436755 0.13374548915157553 0.13172567307643931 0.089553354955368661 0.033369088529578317 0.11332806838694842 0.14437673018764438 0.058407632084498985 -0.036325758731758757 0.017305512119006782 0.14315196323309157 0.12195975929523482 0.10359578162158378 0.083244235736907521 0.12795043613781806 0.12978187589081444 0.11758579419319895 -0.0016866024974480451 -0.022450053721109937 -0.039136589768259698 -0.0081810861586242064 0.1060874552679953 0.1347422620550541 0.14638930453919594 -0.05495898389415016 0.29133622436550743 0.068146012902624217 0.059254931484621055 -0.015094039619725011 0.14014755304266394 0.023533289404706885 -0.00063832690155597629 0.15632884232486025 0.10484221634475757 0.13370968288378526 0.087436096686109355 0.063126744793201184 0.10164817273902926 0.015716111592204696 0.14859560572869282 0.14149567256330395 0.081884187695391936 0.010806362731383676
leaf_weight=1020.216873575002 369.83376552537084 666.8785441853106 8316.380131855607 88.690188582986593 438.26962261274457 850.24037584289908 48.700299959629774 1562.2404668852687 445.50982097536325 740.66389195621014 63.320277772843838 238.73930662125349 1638.8108797036111 323.0621424280107 1326.9263047687709 808.84645299986005 1023.1789682880044 360.39233047515154 190.51374591141939 2712.1771399900317 871.63257700204849 1334.4832943975925 199.18234492093325 872.24956476315856 4032.9733404144645 2953.2639318406582 151.75828982517123 153.75620024651289 357.58336297050118 16481.791743740439 2223.7067270390689 748.45718931779265 2486.3229358680546 1075.903803166002 1481.667022742331 286.89727085083723 204.3178643733263 95.756275787949562 62.736641388386488 345.90330864116549 235.31146343797445 1003.9333114214242 1859.7825959175825 25.040635865181684 25.865780174732208 143.43891181051731 367.05394829064608 66.065389670431614 40.688899356871843 131.76630074158311 140.10987885296345 123.84650479629636 193.95270270109177 2738.5205627977848 1442.1869609989226 204.14086836948991 43.289567492902279 112.49364373832941 69.908039376139641 69.878149591386318 211.7804106771946 760.86371724307537
leaf_count=21959 1553 2943 17362 417 4520 2163 386 5424 4189 8819 144 1254 5523 2989 6775 8400 21297 2912 1210 4732 880 3259 1842 12615 11587 5230 840 1974 2717 14477 6647 3733 10981 2569 4382 1214 2405 1549 792 4807 2315 4136 2090 347 106 1054 2446 408 335 815 1308 399 492 3794 9244 1239 225 1294 103 355 1183 9781
internal_value=0.113488 0.0553523 0.123876 0.110872 0.0382942 0.116259 0.0208775 0.135038 0.0803884 0.0742485 0.0660146 0.0430943 0.0952934 0.0802465 0.0984284 0.0324851 0.0141366 0.0932949 0.043162 0.121101 0.102968 0.105092 0.0221214 0.0416097 0.121271 0.128497 0.10878 0.0752172 0.0402011 0.138975 0.113462 0.126117 0.106437 0.0967469 0.115556 0.0845833 0.0516084 0.0689731 0.077869 0.027738 0.0559994 0.124718 0.130754 0.110825 0.0427328 0.102244 0.028133 0.0873502 0.019002 0.0916107 0.12017 0.0864927 0.0606024 0.121571 0.0918457 0.116788 -0.00601386 0.0858363 0.0584697 0.0486565 0.0373183 0.0281952
internal_weight=69663.9 10561.2 59102.7 27298.6 7864.2 23198.4 4829.71 31804 4100.25 3730.42 3034.49 1462.91 4475.57 2632.62 1773.2 3809.49 1944.13 2313.16 1417.26 7005.83 2433.87 2697.01 939.846 920.95 18722.8 9724.76 1601.2 904.613 446.274 24798.2 8998.06 3212.13 5785.93 3562.23 2361.89 477.411 1865.37 1079.83 984.077 785.533 439.629 1155.69 4571.96 263.78 859.421 169.305 690.116 1571.57 237.735 880.223 1792.39 457.909 334.063 6771.49 1505.51 1842.95 197.046 921.34 711.959 642.051 572.173 1199.13
internal_count=262940 114452 148488 103523 103517 75167 77819 44965 28356 26803 25698 15902 23266 16504 9909 55860 34298 13718 13085 13126 6304 10935 10661 13001 51901 20611 9165 5477 3134 31839 31290 11093 20197 13550 8930 2424 21562 12035 10486 9527 4720 4976 6822 1601 6595 1160 5435 9796 2534 4548 5458 2199 1800 15381 9388 6762 2199 9694 4553 4450 4095 14301
is_linear=0
shrinkage=0.05


Tree=7
num_leaves=63
num_cat=0
split_feature=6 0 6 16 22 0 5 9 14 18 14 17 22 0 14 14 7 7 11 9 14 18 13 22 22 5 13 3 13 2 17 5 3 17 22 13 13 7 12 5 14 14 6 11 5 13 13 17 22 16 13 22 7 13 18 5 17 1 2 3 22 3
split_gain=13468.5 3229.06 2262.59 1344.39 1121.4 959.782 805.72 655.56 632.547 842.295 658.788 630.437 920.581 613.573 599.802 630.6 503.123 449.685 422.969 410.536 406.521 415.004 380.032 354.662 345.832 338.42 390.479 328.278 323.71 402.217 313.969 311.68 483.957 309.348 308.066 295.035 294.51 306.896 295.879 287.228 284.907 786.766 388.165 272.956 373.529 268.317 267.542 300.055 264.839 263.471 261.495 258.005 256.347 257.767 255.325 249.23 247.525 247.185 247.492 244.957 238.945 235.783
threshold=0.115 0.28500000000000009 0.045000000000000005 1.5000000000000002 6.3373750000000006 0.095000000000000015 0.090000000000000122 0.13392857142857145 7.5000000000000009 -0.060268340127661524 5.5000000000000009 -0.29696027566504662 6.1533000000000007 0.015000000000000001 5.5000000000000009 6.5000000000000009 -0.55649999999999966 0.0060000000000000079 1.0000000180025095e-35 1.0000000180025095e-35 6.5000000000000009 0.23931566428755774 5.5000000000000009 15.035316500000002 11.554425000000002 0.017500000000000036 98.500000000000014 1.0000000180025095e-35 3.5000000000000004 1.0000000180025095e-35 0.78574730703237894 0.1275000000000002 0.03500000000000001 0.29696027566504674 22.964425000000002 12.500000000000002 8.5000000000000018 0.0020000000000000178 1.0000000180025095e-35 0.041250000000000106 4.5000000000000009 7.5000000000000009 0.025000000000000005 1.0000000180025095e-35 0.086250000000000118 6.5000000000000009 1.5000000000000002 0.70581670320594825 6.3914250000000008 1.5000000000000002 2.5000000000000004 17.023471000000004 -0.0049999999999999949 25.500000000000004 0.40966402954315184 1.0000000180025095e-35 0.61559370248597556 0.055000000000000007 1.0000000180025095e-35 1.0000000180025095e-35 12.483250000000002 0.065000000000000016
decision_type=8 10 10 2 2 8 10 10 2 2 2 2 2 10 2 2 10 8 2 10 2 2 2 2 2 10 2 10 2 8 2 10 10 2 2 2 2 10 10 10 2 2 10 2 10 2 2 2 2 2 2 2 10 2 2 10 2 10 10 10 2 10
left_child=2 3 4 5 27 16 11 18 9 -7 31 28 52 14 45 50 -2 25 -3 20 21 43 -20 -10 33 49 36 40 29 -4 -8 32 -11 -18 -25 46 37 -27 60 -28 -1 -42 54 48 -45 -5 -12 -48 -15 -6 -16 -41 -13 -54 -43 -56 -33 -35 -59 -14 -39 -47
right_child=1 7 6 13 17 8 30 -9 23 10 35 12 59 19 15 -17 24 -19 22 -21 -22 -23 -24 34 -26 26 39 -29 -30 -31 -32 56 -34 57 -36 -37 -38 38 -40 51 41 42 -44 44 -46 61 47 -49 -50 -51 -52 -53 53 -55 55 -57 -58 58 -60 -61 -62 -63
leaf_value=0.083809753158342812 0.14454703076763567 0.11821783151314993 0.11058940914545459 0.12344075223144275 -0.044242013503186822 0.10964911644320943 0.11480434439464693 0.1278922321850173 0.12675196017202014 0.11822495677702345 -0.0040947512228442047 0.026484401114872026 0.05453860596002319 0.094287637432211094 0.06710554150118804 0.088947732962672388 0.103036915559864 0.049858861803822374 0.10950974216557437 0.11821525044391748 0.11747417249272447 0.075501717378564592 0.075662384855002388 -0.0032449498738441455 0.01342757290563548 0.02309828773867896 0.016096709918140099 0.004419509901897805 0.088541415834256801 0.011392827312189163 0.046603184467960759 0.1160655745579323 0.0064400579672267231 0.011254018808958394 0.13473259302130927 -0.010650996439189207 -0.020560351059302696 0.045835068603864236 1.0367501267000101e-05 0.3293000525208073 -0.022601529430121781 0.025451160245534812 0.15765521538542676 0.010392231268054769 0.092010181497773902 0.15060022277917362 0.077268570509686774 0.020141457650309308 0.11508832758587402 -0.0030837287705376172 -0.012554522909528194 0.069463199814748078 0.10812991199207794 0.030703636173922952 0.12578445659888179 0.019696782062223448 0.074272241605926131 0.14406547364794173 0.052954473432562876 -0.0048961475988859825 0.33844940267517409 0.047723435625529186
leaf_weight=706.70806642994285 140.37068101763725 13432.205877408385 147.4594116024673 717.4637488424778 641.50496592372656 1885.3249787092209 1102.5045201964676 16274.150441706181 1434.7320957146585 157.25713515281677 179.90885443240404 192.72024650499225 218.12396818771958 2657.0282409116626 147.22561254352331 562.21450083702803 318.99757267534733 409.78775074705482 2885.7916606590152 6424.9745683446527 3364.8681063055992 1782.8523714914918 1163.7213244885206 104.01667216047645 564.58845888450742 208.45658411830664 28.838524792343378 321.34218970313668 1632.8802521489561 332.86655565351248 199.24630339071155 856.16994513198733 251.94827835634351 335.17446905747056 66.202035702764988 214.04244607686996 340.32649083063006 10.03016686439514 18.619172908365726 23.475422747433186 318.08247176557779 311.87724287807941 112.14368871599436 169.52126464992762 809.96916581690311 70.476727329194546 831.55751169472933 317.66307686269283 3608.5183210372925 987.17644643038511 343.10763075202703 16.109544176608324 518.98196470737457 135.57765999063849 177.47896123677492 80.460045255720615 604.35787444934249 83.094868991523981 723.53130568191409 844.74494317919016 22.916702549904585 265.55111639201641
leaf_count=6906 406 22937 783 1562 17055 6285 4912 12264 4441 736 1325 1723 2318 8478 657 2284 1646 4786 6276 9198 6529 7835 3488 682 6222 3408 533 4099 10620 2713 1482 2956 2302 3023 224 1898 6758 145 289 205 4840 3995 778 1005 2556 190 4634 2491 9417 19653 2716 227 3223 1059 1345 1009 3025 306 4770 11673 173 1466
internal_value=0.101578 0.110063 0.047813 0.0981249 0.0226679 0.0820456 0.0701732 0.12067 0.0911565 0.0828262 0.068009 0.0591103 0.0382925 0.105094 0.0795004 0.052805 0.0530055 0.00160806 0.113948 0.107958 0.102641 0.0971123 0.0997829 0.118656 0.0466612 -0.00699824 0.0229488 0.05078 0.0779277 0.041846 0.104365 0.0879661 0.0493989 0.0595058 0.0504177 0.0438286 0.0100505 0.0501151 0.159331 0.136118 0.0595087 0.0423356 0.0726239 0.10243 0.0778845 0.106172 0.0526019 0.0614777 0.106267 -0.0192952 0.0113639 0.223557 0.0771696 0.0920928 0.0558891 0.0926921 0.0987717 0.047344 0.0623403 0.00730116 0.249367 0.0693003
internal_weight=73809 63748.6 10060.4 29992.7 4735.33 9068.94 5325.11 33755.9 6903.18 5298.23 3412.91 4023.36 1910.15 20923.8 2106.04 1052.55 2165.76 2707.24 17481.7 18817.7 12392.8 9027.89 4049.51 1604.95 2025.39 2297.45 668.773 2028.09 2113.21 480.326 1301.75 1869.73 409.205 1460.8 170.219 1543.17 600.349 260.023 51.566 68.4235 1706.75 1000.04 681.96 7245.04 979.49 1053.49 1329.13 1149.22 6265.55 1628.68 490.333 39.585 847.28 654.56 569.816 257.939 1460.53 1141.8 806.626 1062.87 32.9469 336.028
internal_count=262940 146230 116710 101265 76204 47372 40506 44965 30999 25652 19367 34112 19996 53893 8875 5657 16373 53232 32701 45018 35820 29291 9764 5347 15967 48446 11738 22972 14116 3496 6394 9019 3038 9745 906 10348 10773 4015 607 965 18873 11967 7127 21456 3561 3218 8450 7125 17895 36708 3373 432 6005 4282 6349 2354 5981 8099 5076 13991 318 1656
is_linear=0
shrinkage=0.05


Tree=8
num_leaves=63
num_cat=0
split_feature=0 5 9 15 7 22 15 17 0 3 13 13 11 9 7 18 21 17 1 17 21 1 17 22 0 3 13 22 17 15 21 5 0 21 21 21 18 22 17 0 5 18 9 21 0 21 21 3 22 18 9 18 13 5 5 15 15 13 18 15 7 22
split_gain=11161.4 3197.8 2026.63 1226.22 1080.01 1004.95 844.908 663.587 602.752 566.895 532.444 628.59 493.726 487.501 418.513 643.96 412.629 519.173 409.447 378.77 374.221 563.451 373.864 364.468 342.214 329.172 321.028 282.121 277.549 273.401 247.638 246.655 238.556 230.494 323.924 275.196 320.305 568.143 358.625 249.605 259.828 241.447 228.939 386.484 293.526 226.644 240.719 226.031 220.371 341.744 215.979 223.344 213.74 211.428 207.576 206.138 205.573 260.795 201.505 221.133 405.86 324.943
threshold=0.095000000000000015 0.053750000000000055 1.0000000180025095e-35 8.9950000000000028 0.0070000000000000071 6.2811305000000006 9.9950000000000028 -0.51639395938746191 0.015000000000000001 0.075000000000000025 6.5000000000000009 86.500000000000014 1.0000000180025095e-35 0.46428571428571436 0.048000000000000036 -1.722546424198833e-16 63.147165500000007 -0.66312265824079508 0.015000000000000001 -0.95297903005573326 62.091900000000003 0.22500000000000003 0.61559370248597556 15.235241500000003 0.12500000000000003 1.0000000180025095e-35 98.500000000000014 23.466358000000003 1.0000000180025095e-35 6.6050000000000013 59.31620800000001 0.19875000000000018 0.015000000000000001 59.474634000000009 59.556481500000011 61.582451000000013 0.29696027566504685 5.9274585000000011 -0.40966402954315195 1.0000000180025095e-35 0.035000000000000052 0.8542199457734333 1.0000000180025095e-35 63.077676500000003 0.03500000000000001 59.645975000000007 60.199035000000009 3.0100000000000002 5.951175000000001 0.29696027566504685 1.0000000180025095e-35 -0.1799261722714405 13.500000000000002 0.080000000000000113 0.15464285714285705 12.295000000000002 9.7950000000000017 5.5000000000000009 -0.95297903005573326 9.9050000000000029 0.018000000000000047 5.078116500000001
decision_type=8 10 10 2 8 2 2 2 10 10 2 2 2 10 8 2 2 2 10 2 2 10 2 2 10 10 2 2 2 2 2 10 10 2 2 2 2 2 2 10 10 2 10 2 10 2 2 8 2 2 10 2 2 10 10 2 2 2 2 2 8 2
left_child=1 4 7 16 5 19 -7 -2 10 32 28 18 14 30 15 31 22 26 -12 -1 -17 24 -3 25 -22 -14 -18 45 50 -27 -4 -9 -8 -21 -35 36 -36 39 52 40 -38 -41 43 44 -24 -6 48 -19 -47 -50 51 -5 -39 -31 -10 -11 57 -32 -48 60 61 -60
right_child=2 3 13 8 27 6 9 12 54 55 11 -13 23 -15 -16 20 17 47 -20 33 21 -23 42 -25 -26 29 -28 -29 -30 53 56 -33 -34 34 35 -37 37 38 -40 41 -42 -43 -44 -45 -46 46 58 -49 49 -51 -52 -53 -54 -55 -56 -57 -58 -59 59 -61 -62 -63
leaf_value=-0.019313986523529003 0.10119405312794211 0.092313397689803789 0.075237957628970453 0.092032091237909022 0.0055966345150218998 -0.024132862052152388 0.0023459835587761736 0.087128561867479526 0.087159367617903702 0.039455580548175939 -0.01278964264401823 0.12072122194072865 0.12369507071090709 0.12052636716609316 0.10214474814858975 0.084289433762718635 0.066160180581559383 0.015755203748763123 0.058159163114000989 0.0092884121013980282 -0.020168944080595538 0.081005398055451469 -0.0097200917002738096 -0.046793553175895466 0.0454687751651843 0.018498735877564072 0.19464499290371476 -0.055210931098887528 0.011711946658321737 -0.0011720364612831794 0.092823366670765808 0.11026052575336967 0.050842112471339296 0.24754039817697082 0.044407731903665044 0.0004690943433791086 0.10993757233136266 0.20305921166205279 -0.054066667881921618 -0.055607223173080415 -0.05625666976422327 0.079247990633145457 0.073572536896206256 0.21020586432947261 0.051584425279788841 0.086766229910546597 0.010167730542660016 0.1464051904774327 0.0002606062753226247 0.2607236711332121 0.10775619416475644 0.017185110329053965 0.40284133018361273 0.074797978652365787 0.10851968980443211 0.163474952102999 0.11217952463975051 0.11034527453927256 0.13553357401636054 0.084833499318897762 0.087320439161279642 -0.0052958916350846234
leaf_weight=197.97329961508512 12923.587300039828 847.52402047067881 596.14857277274132 268.83195026963949 158.17511347681284 1638.5985876359046 789.34024855867028 3049.0741520561278 2292.7661557756364 50.722216628491879 439.26096111163497 191.35737415775657 223.3083214610815 9762.8358254283667 4312.6352974846959 2220.1157407239079 276.79462546482682 1289.1393311619759 378.63810647279024 250.10805367678404 253.34476598352194 1108.5412311553955 324.57149113342166 73.504621423780918 918.59743277356029 332.67823392525315 58.974245697259903 51.519135538488626 113.24277685210109 98.919737584888935 4054.5532599911094 1852.5984406992793 373.60322365164757 22.955703672021627 721.59509263932705 180.59404949098825 332.74483826011419 34.595291089266539 9.3428459130227548 60.657400261610746 25.306255370378494 73.301927533000708 624.15903333574533 29.895166486501694 490.07002720609307 257.78906532377005 180.00399453565478 33.977249253541231 17.245074257254601 46.689339011907578 862.3503086566925 158.39581030979753 21.839456487447023 1234.9437996298075 2256.9834374673665 98.712374269962311 11884.515335068107 4459.1429793462157 46.546095456928015 766.86419116333127 325.5583982616663 341.29847893863916
leaf_count=2698 27596 3646 1286 1321 1346 35802 14157 10134 9246 312 5190 780 549 5535 9335 9115 1646 15294 1633 3335 2891 4158 3445 552 6410 2147 199 691 859 582 7710 3923 3610 84 7670 2358 3033 189 156 730 285 577 2527 147 3222 1330 1717 138 141 75 1797 1233 106 4223 4243 347 12379 5906 256 4529 2138 4271
internal_value=0.0919254 0.0574489 0.102386 0.0743925 0.0312516 0.0181612 -0.000189511 0.0928056 0.0870433 0.0297055 0.0668375 0.0391419 0.0858911 0.111295 0.0892482 0.0833328 0.0522363 0.0332012 0.0200554 0.0462048 0.0696769 0.0554512 0.0658694 0.0624401 0.0312795 0.0666887 0.0887272 0.0604104 0.0867631 0.0590501 0.107003 0.0958713 0.0179257 0.0536893 0.0611779 0.0582477 0.0664035 0.0948589 0.232869 0.076408 0.0981913 0.0181849 0.0506097 0.0336389 0.0271593 0.0631936 0.0677902 0.0191103 0.107374 0.190469 0.0933536 0.0642824 0.280372 0.069164 0.0977555 0.121379 0.107931 0.102001 0.0601197 0.066194 0.0461576 0.0116054
internal_weight=77369.7 18010.6 59359 10936.9 7073.68 4881.99 2950.98 28601.8 6961.83 1312.38 2412.08 1009.26 15678.3 30757.2 13714.9 9402.27 3975.11 1658.89 817.899 1931.01 4500.6 2280.48 2316.22 1963.35 1171.94 1889.85 335.769 2191.69 1402.82 1666.54 20994.4 4901.67 1162.94 1733.04 1482.93 1459.98 1279.38 557.788 65.7776 492.01 358.051 133.959 1468.7 844.537 814.642 2140.17 1981.99 1323.12 321.723 63.9344 1289.58 427.228 56.4347 1333.86 4549.75 149.435 20398.2 8513.7 1660.27 1480.27 713.403 387.845
internal_count=262940 148509 114431 56566 91943 75449 54228 81615 26302 18426 12813 7603 54019 32816 45966 36631 30264 17277 6823 21221 22574 13459 12987 8053 9301 7501 1845 16494 5210 6952 27281 14057 17767 18523 15188 15104 12746 5076 451 4625 3318 1307 9341 6814 6667 15803 14457 15432 1546 216 4351 2554 295 4805 13489 659 25995 13616 12911 11194 6665 4527
is_linear=0
shrinkage=0.05


Tree=9
num_leaves=63
num_cat=0
split_feature=0 5 8 15 7 22 0 15 4 15 11 15 4 14 0 14 14 5 21 17 17 12 18 14 11 17 14 19 12 22 17 21 7 5 22 14 18 14 14 12 21 22 7 5 15 4 20 7 21 18 21 21 21 14 14 18 22 12 5 15 2 14
split_gain=9458.98 2667.57 1733.85 1016.09 903.108 855.968 762.707 759.808 713.292 678.079 445.337 378.882 371.903 349.401 357.507 419.236 348.369 436.945 340.783 424.816 339.794 335.636 331.186 397.409 330.62 319.032 309.233 279.788 277.762 250.464 298.189 352.204 272.228 266.915 238.428 235.905 283.524 222.613 351.783 280.456 219.109 211.362 241.619 208.036 203.993 203.164 196.987 195.114 192.412 190.692 188.259 211.956 211.85 245.643 505.091 297.903 357.693 296.696 218.366 320.362 199.672 276.833
threshold=0.095000000000000015 0.053750000000000055 0.29166666666666669 8.9950000000000028 0.0070000000000000071 6.2811305000000006 0.28500000000000009 9.9950000000000028 0.002500000000000023 6.3850000000000007 1.0000000180025095e-35 7.705000000000001 0.04250000000000017 4.5000000000000009 0.025000000000000005 6.5000000000000009 7.5000000000000009 0.19062500000000002 63.147165500000007 -0.66312265824079508 0.98182534576205316 1.0000000180025095e-35 -1.722546424198833e-16 3.5000000000000004 1.0000000180025095e-35 -0.95297903005573326 7.5000000000000009 1.0000000180025095e-35 1.0000000180025095e-35 5.1884830000000006 0.78574730703237894 65.124783000000022 -0.059999999999999921 0.11250000000000011 23.466358000000003 5.5000000000000009 0.23931566428755774 7.5000000000000009 5.5000000000000009 1.5000000000000002 68.727993000000012 8.220641500000001 -0.026999999999999958 0.087500000000000119 9.9950000000000028 0.070000000000000381 3.5000000000000004 0.008000000000000047 59.645975000000007 0.29696027566504685 62.141275500000006 59.474634000000009 59.556481500000011 4.5000000000000009 7.5000000000000009 -0.46472317204376873 5.8973500000000003 1.0000000180025095e-35 0.0062500000000000056 7.4850000000000012 0.055000000000000007 8.5000000000000018
decision_type=8 10 10 2 8 2 10 2 10 2 2 2 10 2 10 2 2 10 2 2 2 10 2 2 2 2 2 2 10 2 2 2 8 10 2 2 2 2 2 10 2 2 10 10 2 10 2 10 2 2 2 2 2 2 2 2 2 10 10 2 10 2
left_child=1 4 6 18 5 25 9 45 -5 21 -8 -12 41 -10 15 28 17 24 20 26 -3 29 -19 -24 35 -1 -20 34 -15 -2 -31 33 -33 -32 37 -11 43 38 39 44 -25 -9 -43 -37 47 -7 -21 -6 -39 -40 51 60 -53 57 -55 -56 -57 58 -54 -60 -27 -62
right_child=2 3 -4 8 27 7 10 12 13 16 11 -13 -14 14 -16 -17 -18 22 19 46 -22 -23 23 40 -26 50 -28 -29 -30 30 31 32 -34 -35 -36 36 -38 48 49 -41 -42 42 -44 -45 -46 -47 -48 -49 -50 -51 -52 52 53 54 55 56 -58 -59 59 -61 61 -63
leaf_value=-0.018653648821755069 0.11508206305762825 0.066064286773658706 0.10785881611564674 0.0093805930395753374 0.1321146949628359 -0.025960966117898221 0.098783489444821418 -0.029974971498142752 0.096575742034185841 0.087053079063475189 0.0489808247255221 0.087634194055450976 0.082267508133872708 -0.0060317001352475832 0.083188314383159545 0.081030879615773516 0.097385371340849888 0.10071612747501374 0.052055164474472976 0.074457910570815786 0.0021224369311928812 0.034473424248795917 0.1005436175881997 0.058965637804715837 0.048066554073421933 -0.011230265427962113 0.15897761820425207 0.020026592624783703 0.058669647759405232 0.08140521131397202 0.005466153633748555 0.16776866759884093 0.0020418359150320598 0.081795297581242835 -0.055253126083652938 0.041670914333557657 0.039735350909562518 0.0014666039358825175 0.03452641366709143 -0.027480728846047117 0.11690896823973916 0.17822084235537894 0.021187075470366423 0.08190213991135846 0.10288172273437311 0.10222419632271976 0.011391882044077229 0.015762968652316113 0.090226011552347024 -0.055643686360403434 -0.054329441807504354 0.19604550849407421 0.13635383924371794 -0.016365614541597701 0.01807550535566382 0.069315212990759198 0.19904248900519336 0.026522687416168492 -0.055227372249102305 0.094071260154853856 -0.056461689721651581 0.20743388061782425
leaf_weight=194.81440156698227 285.70469579100609 2183.333168450743 15423.051692813635 350.2674797847867 45.964043039828539 1572.0255495384336 17685.866686150432 211.56259534135461 2697.4055722355843 3464.7172386161983 740.94638352096081 4391.0485142096877 252.19095440208912 356.80077150464058 2937.6548463888466 625.644870698452 4937.2325806692243 3932.2685316950083 265.44589323922992 137.99930839240551 229.62286645919085 823.78096594288945 1278.9557592049241 1715.5772684216499 1070.869518481195 209.747419513762 90.737256642431021 458.44925047457218 309.99259236827493 1411.844650156796 139.8797628171742 26.354571305215359 414.52730733528733 632.07775373384356 41.164739493280649 377.09134311228991 685.65694385021925 65.825846560299397 141.34989862516522 68.565943852066994 180.29919458180666 25.219778932631016 852.82608999311924 2173.0180592238903 353.31437299028039 31.530926384031773 1204.9536568708718 166.74091219902039 842.98283784836531 100.19668350741267 43.289130691438913 27.398116089403629 219.31802363321185 284.70979517325759 203.02981454879045 271.19571240991354 66.083698689937592 194.57884189113975 43.566757000982761 205.01062100753188 15.960306439548729 26.336907871067524
leaf_count=2698 933 11194 10280 4248 257 35536 25644 3733 7106 9595 2803 7966 1185 2847 8476 2346 9022 6247 1560 1434 1793 4795 2329 5699 4337 3081 285 4588 1279 6239 1064 92 3448 2433 549 1803 3692 487 1061 679 417 75 13433 5593 1930 266 13998 1697 4050 1196 673 84 1973 3573 2176 2434 318 1939 539 1479 165 89
internal_value=0.0839218 0.052687 0.0933365 0.0677684 0.0289447 0.0169441 0.088506 -0.000210147 0.078994 0.0821937 0.0950207 0.0820535 0.0275519 0.0825138 0.0735469 0.0516323 0.0858768 0.0820578 0.0479008 0.0307479 0.0599794 0.0626493 0.0910178 0.0790056 0.0738637 0.0421433 0.0792935 0.0549487 0.024048 0.0706244 0.0657851 0.0476019 0.0119485 0.0679644 0.0637161 0.0779866 0.0682785 0.0664598 0.0484758 0.0680227 0.0644761 0.0148879 0.0256975 0.075953 0.0795917 -0.0234404 0.0178724 0.0409058 0.0837971 -0.00287732 0.0486862 0.05121 0.0582737 0.0557361 0.0375287 0.0659277 0.0947329 0.0784108 0.099989 0.0679045 0.00875441 0.107856
internal_weight=80415.6 18624.8 61790.8 11389.9 7234.95 4950.4 46367.7 2945.36 7277.77 23549.9 22817.9 5131.99 1341.8 6927.5 4230.09 1292.44 19815.7 14878.5 4112.09 1699.14 2412.96 3734.17 7107.1 3174.83 7771.35 2005.04 356.183 2284.55 666.793 2910.39 2624.68 1212.84 440.882 771.958 1826.11 6700.48 3235.77 1784.94 876.132 634.585 1895.88 1089.61 878.046 2550.11 566.019 1603.56 1342.95 212.705 908.809 241.547 1810.23 1766.94 1514.89 1487.49 825.019 540.309 337.279 662.474 467.895 248.577 252.045 42.2972
internal_count=262940 148509 114431 56566 91943 75449 104151 54228 26302 67738 36413 10769 18426 22054 14948 6472 48734 39712 30264 17277 12987 19004 14692 8445 25020 21221 1845 16494 4126 14209 13276 7037 3540 3497 11906 20683 11088 11357 6820 4563 6116 17241 13508 7396 3884 35802 15432 1954 4537 2257 18523 17850 14515 14431 8501 4928 2752 5930 3991 2018 3335 254
is_linear=0
shrinkage=0.05


Tree=10
num_leaves=63
num_cat=0
split_feature=6 4 6 14 14 22 15 20 9 15 4 15 3 17 21 15 22 3 5 17 17 17 6 5 5 15 14 14 22 14 21 14 21 14 22 21 22 22 20 15 12 14 22 18 12 21 11 22 2 15 21 21 14 21 15 6 5 15 21 6 2 5
split_gain=8247.46 2440.75 1771.03 764.434 907.347 756.681 756.015 729.565 478.004 439.53 414.371 407.014 401.638 389.927 498.647 427.563 396.055 372.544 468.299 352.843 346.306 343.931 318.34 379.089 308.516 307.617 302.009 370.501 294.858 291.018 266.953 277.245 261.229 481.599 250.153 254.672 247.906 258.592 243.838 238.545 229.99 226.372 390.015 278.371 264.787 222.928 220.68 219.482 216.303 215.145 201.612 325.289 209.813 200.171 197.878 196.587 196.361 192.671 202.791 204.546 191.867 183.231
threshold=0.14500000000000005 0.29750000000000043 0.045000000000000005 7.5000000000000009 5.5000000000000009 5.847833500000001 6.5050000000000008 13.500000000000002 0.2678571428571429 9.2050000000000018 0.11000000000000025 7.0050000000000008 0.03500000000000001 0.70581670320594825 67.553825500000016 7.5050000000000008 11.724129000000003 1.0000000180025095e-35 0.12500000000000019 0.78574730703237894 0.70581670320594825 0.78574730703237894 0.015000000000000001 0.12250000000000015 0.073750000000000163 10.295000000000002 4.5000000000000009 7.5000000000000009 15.373808000000002 7.5000000000000009 59.645975000000007 6.5000000000000009 62.309966500000009 8.5000000000000018 17.919475500000004 59.065782000000006 22.631666000000003 18.214358500000007 7.5000000000000009 2.8050000000000002 1.5000000000000002 4.5000000000000009 15.807067000000002 0.4647231720437684 1.0000000180025095e-35 63.448870000000007 1.0000000180025095e-35 8.1220585000000032 0.60500000000000009 5.9050000000000011 68.033782500000015 68.325222000000011 2.5000000000000004 63.799842000000005 2.0050000000000003 0.49500000000000005 0.16875000000000023 8.9950000000000028 68.867390000000015 0.065000000000000016 0.10500000000000002 0.04375000000000006
decision_type=8 10 10 2 2 2 2 2 10 2 10 2 8 2 2 2 2 10 10 2 2 2 10 10 10 2 2 2 2 2 2 2 2 2 2 2 2 2 2 2 10 2 2 2 10 2 2 2 10 2 2 2 2 2 2 10 10 2 2 10 8 10
left_child=2 3 5 4 19 26 17 20 9 48 -9 12 -7 14 15 55 -15 53 54 28 -6 -18 -13 29 30 -16 40 -28 46 -24 61 41 -33 -34 35 -5 37 56 -29 -22 49 42 44 45 -32 -43 -2 -11 -3 -1 52 -52 -46 -4 -19 -12 -30 -44 -59 -60 -55 -8
right_child=1 8 6 34 7 11 24 10 -10 47 13 22 -14 16 25 -17 21 18 -20 -21 39 -23 23 -25 -26 -27 27 38 36 -31 31 32 33 -35 -36 -37 -38 -39 -40 -41 -42 43 57 -45 50 -47 -48 -49 -50 -51 51 -53 -54 60 -56 -57 -58 58 59 -61 -62 -63
leaf_value=-0.033517471954493894 0.089823051053762648 0.080611484975157244 0.1037622071399904 0.0033042971356627019 0.049411918169730354 -0.04103056047958209 -0.024902618358932736 0.036038155209923095 0.0999393856826577 0.087750975253563207 -0.010607750584006915 -0.0023554301570671947 0.062351857688696492 0.10179527947485584 0.068965737897593457 0.06155822781763183 0.10337312356871792 0.18978795852591737 0.069999489213771152 0.059834451317426832 0.16452535088255807 -0.049390744043019616 0.0046732643319627384 0.15555059971023139 0.074323768410498064 0.11262112433323852 -0.021346963526110409 0.10868450778795685 0.045092738174292435 0.061520152790065646 0.0835548359269844 0.095315378797103334 0.099218464563671338 0.024126807901390795 0.042613503658542468 0.089774181406949649 0.093157695856515121 0.013233622316409469 0.030972522921396146 -0.00091756297316891505 -0.0056814118177163087 0.011802679583728957 -0.038973066287936446 -0.0411767528093826 0.0048119887500716919 0.067985827072239963 0.065569594070830378 0.10094156757215787 0.04668192604639726 0.082974919807644473 0.26872251872135305 -0.0098691851939093911 0.23514192107946835 -0.012615380217026729 -0.013384264485828752 0.12143297537534062 0.087135287804693276 -0.059079857319877707 -0.035260320768671964 0.081187051356947537 0.14493667647066974 0.051065965636695958
leaf_weight=42.143464557826519 7767.4526233449578 6817.6138101518154 178.11868805065751 86.051718682050705 1019.8840908035636 716.73069387674332 177.15603225305676 1090.2657015919685 14551.776594355702 7061.2080906033516 287.53675366193056 1377.223629642278 108.11859140172601 1274.138315204531 851.7356641702354 6935.0168192237616 64.435465786606073 12.16062932088971 230.76454469934106 1942.7656802795827 22.485078316181898 86.044755604118109 577.10953877493739 60.898549813777208 2775.5305865481496 766.83507223054767 301.26270630955696 124.17459803074598 573.65591216832399 369.14438931271434 946.80590826645494 711.37442591041327 359.5491900369525 525.73436425626278 303.0611458607018 8137.2005011364818 578.98171189799905 301.40516065433621 539.47666833549738 702.57729572430253 98.013358891010284 386.50929494947195 121.43954264372587 133.65556506812572 253.17796611040831 325.04035519808531 1066.7002796791494 5698.7795600444078 504.4868677854538 665.81438030302525 21.32763496786356 20.59663475304842 10.288948457688091 93.831315502524376 826.09082698822021 31.252914518117905 538.37159268930554 45.787855766713619 47.928190723061562 176.90570842474699 24.335425909608603 143.80145682394505
leaf_count=429 15609 13425 1007 383 4808 19055 1451 5455 10260 9256 1774 26308 1132 3101 2967 19066 150 76 1592 7917 119 636 8311 339 10878 1074 4174 461 2115 4541 4889 2479 1589 3193 1081 15492 1693 1446 5416 4949 963 2870 1503 1452 1943 2189 2880 5456 1363 4931 36 172 54 1212 11791 49 1261 389 497 862 108 796
internal_value=0.0766742 0.0836672 0.0409741 0.0742394 0.0699648 0.0172726 0.0547829 0.0607367 0.0930389 0.0880387 0.0653501 0.00279481 -0.0274795 0.0684537 0.0645548 0.0589556 0.0927352 0.0206768 0.00692667 0.079455 0.0306308 0.0160226 0.0132679 0.0346319 0.061266 0.0896485 0.0435095 0.0246382 0.0829758 0.0268499 0.0530423 0.0564912 0.0727539 0.0546245 0.0872252 0.0888693 0.0656009 0.0543129 0.0455131 0.00421303 0.0661022 0.0460608 0.0568708 0.0250312 0.0704967 0.0374675 0.0868945 0.0936421 0.0782738 0.0760403 0.0300126 0.131855 0.0138069 0.0702882 -0.0104368 0.00233701 0.065447 0.0133512 0.0368313 0.0563638 0.0198311 0.00913427
internal_weight=82589.7 69061.7 13528 34427.9 25901.5 4980.11 8547.91 13132.2 34633.9 20082.1 11387.3 3209.23 824.849 10297 8872.38 7253.81 1424.62 1365.3 1069.02 12769.3 1744.95 150.48 2384.38 1007.15 7182.61 1618.57 1770.89 964.914 10826.6 946.254 4407.08 4086.12 1596.66 885.284 8526.31 8223.25 1992.41 1413.43 663.651 725.062 805.971 2489.46 1644.26 845.205 1252.2 711.55 8834.15 12760 7322.1 707.958 305.391 41.9243 263.467 296.285 838.251 318.79 1112.03 392.061 270.622 224.834 118.167 320.957
internal_count=262873 133785 129088 94025 77069 76060 53028 44148 39760 29500 34272 59686 20187 28817 24930 20889 3887 15786 13459 32921 9876 786 39499 13191 37242 4041 16374 10051 25004 12852 26364 24117 7261 4782 16956 15875 6515 4822 5877 5068 6323 16856 10345 6511 7094 5059 18489 14712 14788 5360 2205 208 1997 2327 11867 1823 3376 3251 1748 1359 1320 2247
is_linear=0
shrinkage=0.05


Tree=11
num_leaves=63
num_cat=0
split_feature=0 9 5 22 15 0 9 4 22 9 15 14 13 15 7 11 15 22 7 1 13 20 15 5 13 15 7 20 22 15 15 4 0 14 1 22 20 23 22 0 15 15 0 11 0 2 5 9 5 14 5 20 2 22 15 4 22 20 0 23 15 12
split_gain=7774.54 2118.12 1801.67 914.003 875.691 563.447 558.779 561.858 523.387 503.419 444.859 400.428 379.111 362.344 319.315 315.562 292.298 284.853 268.538 248.833 240.143 238.321 237.955 255.699 237.18 234.718 232.379 267.595 376.16 265.404 226.767 225.128 215.734 428.487 285.937 212.667 212.602 213.377 206.055 204.299 200.568 199.569 205.651 315.745 214.322 196.435 196.166 194.072 194.02 242.405 199.023 192.059 191.09 190.306 185.34 184.747 184.153 183.084 373.254 217.258 192.014 182.791
threshold=0.095000000000000015 1.0000000180025095e-35 0.02250000000000003 6.0813500000000014 6.5050000000000008 0.19500000000000003 1.0000000180025095e-35 1.0000000180025095e-35 11.554425000000002 0.46428571428571436 7.6050000000000013 6.5000000000000009 86.500000000000014 10.005000000000001 0.02600000000000004 1.0000000180025095e-35 10.395000000000001 6.0423915000000008 0.018000000000000047 0.045000000000000005 61.500000000000007 19.500000000000004 8.2050000000000018 1.0000000180025095e-35 9.5000000000000018 6.7750000000000012 0.045000000000000054 13.500000000000002 9.8668830000000032 2.0050000000000003 9.3050000000000015 0.032500000000000098 0.025000000000000005 3.5000000000000004 0.025000000000000005 6.0423915000000008 2.5000000000000004 2.5000000000000004 15.570750000000002 0.40500000000000008 13.005000000000001 9.7950000000000017 0.20500000000000004 1.0000000180025095e-35 1.0750000000000004 0.03500000000000001 0.2329166666666668 1.0000000180025095e-35 0.11250000000000011 2.5000000000000004 0.11500000000000012 48.500000000000007 0.055000000000000007 22.337608000000003 9.7050000000000018 0.0025000000000000564 17.023471000000004 25.500000000000004 0.015000000000000001 5.5000000000000009 9.4050000000000029 1.0000000180025095e-35
decision_type=8 10 10 2 2 10 10 10 2 10 2 2 2 2 8 2 2 2 8 8 2 2 2 10 2 2 8 2 2 2 2 10 10 2 10 2 2 2 2 10 2 2 10 2 10 10 10 10 10 2 10 2 8 2 2 10 2 2 10 2 2 10
left_child=2 5 3 19 8 10 7 -6 18 41 26 15 32 14 -5 39 -17 -18 36 22 -15 -12 23 24 -1 -14 27 29 -29 -2 31 56 33 38 -34 -24 -4 -38 55 53 -37 42 -3 -44 -45 -22 -35 -39 -31 -50 -51 -40 -10 54 -7 -9 -27 58 59 60 -8 -30
right_child=1 9 4 13 6 11 57 12 52 -11 21 -13 25 20 -16 16 17 -19 -20 -21 45 -23 35 -25 -26 30 -28 28 61 48 -32 -33 34 46 -36 40 37 47 51 -41 -42 -43 43 44 -46 -47 -48 -49 49 50 -52 -53 -54 -55 -56 -57 -58 -59 -60 -61 -62 -63
leaf_value=0.18434587242497022 0.24485585735342658 0.064060319433778837 0.12035423323098418 -0.026610667880985678 -0.01087040205708545 0.062144042955511819 0.055198420650063446 0.2589043830701942 -0.038487831394586683 0.097150495841083678 0.094166390047519422 0.086979836698775737 0.26239874501816407 0.0047223828659176542 0.054866996788680046 0.033345529088925178 0.038862366996236013 0.080202073932488224 0.10454298811686098 0.086656966888594825 0.042196897658428704 0.064504426776388124 0.020078651780444649 0.037774259542022792 0.059239899741090576 0.023765282810588016 0.077419355366525791 0.075758574919771393 0.039910202084570912 -0.010047908519350621 0.10107585367780257 -0.00274854365926254 0.080993091417966873 0.022020878381611004 0.049122037006686346 0.18369785403914668 -0.046738948127134028 0.016802141945154829 -0.0039925003525745507 0.086022632945507535 -0.054197504327738469 0.087795810038659439 0.086731247739706682 0.047260821961434871 0.093419040726070671 0.1772195851149147 -0.049912177747729047 0.060052746507118449 0.067383611934526202 0.17956534330069465 0.0047005682335940916 0.28831448368316293 0.010996353272549867 0.10128093083038381 0.076120739621753072 0.067312257489441238 0.2178420328848498 0.077265062838229731 0.079819253103254467 -0.046930623764406487 -0.03458459607846117 -0.02106955819425323
leaf_weight=73.479686260223389 13.189422860741614 1994.945548824966 66.523258730769157 1337.9396697692573 371.90199114754796 4639.8466074839234 299.24517357349396 12.78115192055702 335.3586151599884 10329.601069048047 748.02920468151569 5112.1350920200348 18.807217720896006 971.05076698586345 132.12414975836873 957.32199378311634 609.11551345139742 1319.1412387341261 148.87535597383976 275.32421666756272 286.33717794343829 7149.5139860138297 1179.0433477982879 253.55612048506737 78.205971729010344 23.602798156440258 481.64695321768522 854.9241166934371 581.05544578284025 380.30376163497567 470.82985334470868 121.38881988823414 841.67219496890903 1121.0223722495139 4294.6277802847326 37.00844269618392 87.277449235320091 631.65650518238544 147.45509210601449 2855.4731309711933 11.64860128611326 13408.762702271342 6279.1204812973738 944.6449972987175 342.72184173762798 29.733929898589849 103.53074682503939 440.07095160335302 315.65400184318423 16.869043834507465 459.69541937485337 5.8421132788062087 466.45549206808209 488.78623789548874 4852.6031183600426 808.85932997986674 25.350984204560518 3245.4157077074051 589.55130261555314 96.195853725075722 74.34538758918643 155.85525995865464
leaf_count=340 37 4408 355 31153 5928 13462 1160 118 6272 5468 1740 7266 92 13708 1040 4213 1711 2399 569 1085 3719 19721 12155 2386 835 189 1299 2623 3395 3542 1529 850 4187 8370 20439 209 839 6697 1416 4282 182 13179 7283 2112 312 136 870 1714 1849 85 3555 55 5602 891 8396 4332 116 6856 1304 1122 527 1189
internal_value=0.0708795 0.0791559 0.0431878 0.016084 0.0517039 0.0699679 0.0567357 0.049205 0.022403 0.0879829 0.0609 0.0748236 0.0519993 -0.00232722 -0.0192877 0.070871 0.0559305 0.0671433 0.0411318 0.0426858 0.017044 0.0673139 0.035272 0.0684936 0.119844 0.0882971 0.0453581 0.0397985 0.0531927 0.0218165 0.0831903 0.0337543 0.0487336 0.0356307 0.0543447 0.0243061 0.0334286 0.0284394 0.0603638 0.0742295 0.126745 0.0838603 0.0783412 0.0821064 0.059549 0.054899 0.0159392 0.0345616 0.0193076 0.0333997 0.0108903 0.00714724 -0.0097004 0.0708557 0.069289 0.0702926 0.124269 0.0713739 0.0533255 0.0200775 0.0373314 0.0270131
internal_weight=84805.1 65291 19514.1 4665.45 14848.6 31991.2 12672.4 8367.67 2176.22 33299.8 11156.7 20834.4 7995.77 2757.19 1470.06 15722.3 2885.58 1928.26 1374.4 1908.27 1287.12 7897.54 1632.94 405.242 151.686 659.98 3259.19 2777.55 1591.83 1185.71 641.172 170.343 7335.79 2199.49 5136.3 1227.7 1225.53 1159 974.938 12836.7 48.657 22970.2 9561.43 7566.49 1287.37 316.071 1224.55 1071.73 1172.52 792.218 476.564 153.297 801.814 9981.24 9492.45 821.64 48.9538 4304.75 1059.34 469.786 373.591 736.911
internal_count=262873 114417 148456 66948 81508 81655 59460 48491 22048 32762 39035 42620 42563 49756 32193 35354 8323 4110 10174 17192 17563 21461 16107 3561 1175 2776 17574 16275 7207 9068 2684 1155 39787 15161 24626 12546 9605 9250 5921 27031 391 27294 14115 9707 2424 3855 9240 8411 9031 5489 3640 1471 11874 22749 21858 4450 305 10969 4113 2809 1687 4584
is_linear=0
shrinkage=0.05


Tree=12
num_leaves=63
num_cat=0
split_feature=6 9 6 17 22 15 21 15 7 7 18 20 11 7 14 21 15 14 15 22 6 14 20 9 21 22 14 14 9 7 20 4 15 22 21 22 7 21 22 22 21 17 15 15 14 21 9 4 20 19 12 18 22 20 18 21 21 22 19 17 22 21
split_gain=6570.89 1867.39 1792.65 632.425 575.524 561.964 398.039 348.062 373.964 319.333 408.357 474.511 381.641 358.691 309.656 367.486 331.112 295.872 287.185 285.115 259.348 251.892 251.889 251.55 290.322 242.997 227.837 307.895 226.278 225.255 259.421 224.466 223.808 216.764 264.081 213.347 232.887 193.313 187.682 187.247 186.939 194.636 245.401 204.224 185.71 184.66 184.156 205.623 180.408 178.822 294.298 173.856 172.533 233.192 220.448 290.484 277.521 264.579 234.511 286.566 271.721 230.221
threshold=0.19500000000000003 0.13392857142857145 0.045000000000000005 -0.51639395938746191 5.847833500000001 7.285000000000001 64.946390000000022 7.0050000000000008 -0.012999999999999975 0.063000000000000098 -1.722546424198833e-16 5.5000000000000009 1.0000000180025095e-35 -0.0069999999999999793 7.5000000000000009 61.016831500000009 9.9950000000000028 5.5000000000000009 8.8050000000000015 17.109725000000005 0.015000000000000001 5.5000000000000009 13.500000000000002 1.0000000180025095e-35 61.894748000000007 4.8767170000000002 4.5000000000000009 7.5000000000000009 0.73214285714285732 0.045000000000000054 18.500000000000004 0.19750000000000031 3.4050000000000007 5.589392000000001 59.714131500000008 8.5798695000000027 -0.0010000000000000028 59.31620800000001 9.292525000000003 5.9973835000000006 60.435348000000005 -0.78574730703237861 15.505000000000001 10.195000000000002 7.5000000000000009 68.780300000000025 1.0000000180025095e-35 0.072500000000000231 7.5000000000000009 1.0000000180025095e-35 2.5000000000000004 0.98182534576205305 5.7868165000000014 46.500000000000007 -0.98182534576205283 65.807055000000005 63.470125000000003 18.067750000000004 1.0000000180025095e-35 0.51639395938746258 13.170768000000001 69.993582000000018
decision_type=8 10 10 2 2 2 2 2 10 8 2 2 2 10 2 2 2 2 2 2 10 2 2 10 2 2 2 2 10 8 2 10 2 2 2 2 10 2 2 2 2 2 2 2 2 2 10 10 2 2 8 2 2 2 2 2 2 2 2 2 2 2
left_child=2 3 4 14 26 6 22 8 -6 10 -5 21 13 39 15 17 -17 -2 -14 28 -9 -12 23 24 33 -23 40 -28 -3 30 -8 -27 -32 -4 -35 36 -24 -11 -18 -13 41 -1 43 -43 -22 -34 47 -47 -29 -39 -51 -20 -7 54 56 -56 -54 58 -57 60 -60 -59
right_child=1 19 5 9 7 52 29 20 -10 37 11 12 18 -15 -16 16 38 -19 51 -21 44 25 35 -25 -26 31 27 48 -30 -31 32 -33 45 34 -36 -37 -38 49 -40 -41 -42 42 -44 -45 -46 46 -48 -49 -50 50 -52 -53 53 -55 55 57 -58 61 59 -61 -62 -63
leaf_value=-0.02999211398321441 0.074341438726836892 0.082623938411479372 0.010833215184890145 0.065397888557656339 0.066800070960876562 0.063237056833909941 -0.018793829566970718 -0.0026862300516462966 -0.039210130284739797 0.028656373580357469 0.085517747312658446 0.04264816492713485 -0.033631341350635467 0.055463528695580848 0.0837305677259403 0.057172342784880439 0.070075640884111501 0.044242234001217157 0.014303348965307008 0.046551432031850928 0.013158288874530903 0.12761777633753971 0.0070242066638144494 0.07373720077027994 -0.019963671312411946 0.011183429787966289 -0.021469505122888529 0.090839687072281114 0.094352013753224911 0.092083131712051611 0.27599251074893505 0.059510871957204906 -0.01779345322327916 0.0177062487321312 0.1187875259085953 0.10303528932041482 0.069806933700214249 0.07792283624720453 0.083991045140112408 0.011882064408420392 0.034526802201030944 0.10467472333448605 0.23717251524115965 0.017525759761626493 0.056046080613005866 -0.016488382508043183 0.13993369624943669 0.064252764879140847 0.026535815019244537 0.062875179587571425 -0.050288233469234271 0.15184070077310857 0.065558172298760736 0.014909117133059003 0.045760756936368115 0.070004662694356012 -0.00029001968907318559 -0.0037856463600273223 0.18798411897850112 -0.059546172414689638 0.079023822666376073 0.059873439426737868
leaf_weight=35.910668604075909 1300.8089125901461 18228.550211008638 318.03178717941046 7754.5967639051378 94.432821620255709 3901.8733620122075 614.6468137614429 1384.0857447236776 698.79034446924925 263.59979781508446 1077.2220047414303 1041.242673382163 278.25557918474078 2987.7783856652677 5295.9097588807344 2397.4481391869485 4312.8774924576283 2192.7498528659344 61.260454230010509 485.26972632110119 633.79915680363774 101.57991990447044 219.014334294945 249.19865192100406 335.16434945911169 321.96455504745245 301.78795989602804 135.14261688664556 5310.9900630116463 76.630819391459227 8.9748561419546586 946.95564514398575 176.72252121567726 119.48520303145051 140.70735355466604 255.5075251609087 453.68246379867196 4298.9018233567476 5530.000707089901 941.93245106190443 474.58753020316362 240.89524462819099 26.960485707968473 93.244446620345116 419.46198555827141 133.14512003585696 44.332650687545538 193.38124934583902 565.45830831304193 1732.8684198185802 59.423504404723644 36.766853630542755 261.70980225130916 439.42049501463771 3463.9225371070206 1860.2500627823174 411.7641113139689 207.43817439675331 123.21351308375597 20.085743892937899 106.8231446146965 450.38949600234628
leaf_count=359 2098 17871 2395 18506 644 13700 8918 26308 19543 734 2598 4175 1813 8924 6453 6054 7309 5733 256 991 8570 162 1430 584 3963 1741 4174 461 2233 256 27 2786 1947 976 727 1462 1758 6781 7386 5477 3842 1250 83 789 4621 2054 127 1310 5416 3184 305 60 1053 2749 14202 6480 2447 1311 275 187 555 2290
internal_value=0.0658591 0.0733256 0.040468 0.0670795 0.0149659 0.0493931 0.0313797 0.002179 -0.0265897 0.0611335 0.0572741 0.0491924 0.0408459 0.044521 0.0732728 0.0697528 0.0738351 0.0554495 -0.00770477 0.084488 0.0115416 0.0674259 0.0447171 0.0292101 0.0170619 0.0532056 0.0370093 0.0207524 0.08527 0.00903236 0.00359842 0.0472487 0.0283279 0.0385235 0.0723691 0.0641398 0.0493663 0.070577 0.0778937 0.0280354 0.0557058 0.0810232 0.0920634 0.0803551 0.0302384 0.0242686 0.0443122 0.0313296 0.0389397 0.0723912 0.0591232 0.0658891 0.0547404 0.0502267 0.052474 0.0554108 0.0252984 0.0674861 0.0761164 0.121571 0.137386 0.0397993
internal_weight=86649 66959 19690.1 42934.1 5104.56 14585.5 3338.63 3230.57 793.223 21904.3 15549.6 7794.96 5347.24 4970.95 21029.8 15733.9 12240.3 3493.56 376.283 24024.8 2437.35 2447.72 2090.79 1162.59 913.389 1370.5 1873.99 1002.39 23539.5 1247.83 1171.2 1268.92 556.556 578.224 260.193 928.204 672.697 6354.79 9842.88 1983.18 871.598 397.011 361.1 334.14 1053.26 547.582 370.859 326.526 700.601 6091.19 1792.29 98.0273 11246.9 7345.02 6905.6 6232.12 673.474 2768.2 2110.37 250.122 230.037 657.828
internal_count=262873 113630 149243 92535 76060 73183 27934 59686 20187 57502 46498 27992 20705 18576 35033 28580 20749 7831 2129 21095 39499 7287 13295 8645 8061 4689 16374 10051 20104 14639 14383 4527 5465 4098 1703 4650 3188 11004 14695 9652 6323 2481 2122 2039 13191 5438 3491 3364 5877 10270 3489 316 45249 31549 28800 25300 3500 11098 7497 1017 830 3601
is_linear=0
shrinkage=0.05


Tree=13
num_leaves=63
num_cat=0
split_feature=0 6 6 15 9 21 22 9 15 13 22 9 15 7 21 22 21 20 22 21 11 15 22 20 21 2 12 13 13 21 15 22 20 6 15 18 13 13 12 22 21 13 6 18 6 1 2 15 7 12 20 15 11 21 21 15 21 21 21 7 15 22
split_gain=6440.71 2203.48 1425.06 682.855 578.012 536.847 504.827 370.996 361.171 329.581 305.56 298.989 297.692 370.478 339.35 402.19 382.059 310.801 295.564 380.532 256.55 246.159 242.924 234.042 605.283 341.626 233.302 216.834 208.267 204.421 203.964 268.389 193.635 193.182 217.57 210.077 189.991 186.483 302.652 214.666 185.537 181.176 180.958 182.879 180.178 167.247 205.815 184.754 175.385 166.299 163.035 241.017 160.315 160.163 159.989 173.015 205.127 193.127 168.85 222.195 199.901 160.577
threshold=0.095000000000000015 0.39500000000000007 0.045000000000000005 9.2950000000000017 0.46428571428571436 63.263183000000005 6.3914250000000008 1.0000000180025095e-35 6.3050000000000006 80.500000000000014 6.1533000000000007 1.0000000180025095e-35 8.3050000000000015 -0.012999999999999975 65.934625000000025 17.063598500000005 68.97605750000001 29.500000000000004 21.824016500000003 61.812435000000001 1.0000000180025095e-35 10.805000000000001 12.221125000000002 24.500000000000004 66.503467500000014 1.0000000180025095e-35 1.5000000000000002 43.500000000000007 3.5000000000000004 59.289983500000005 8.4050000000000029 8.4776830000000007 19.500000000000004 0.015000000000000001 14.605000000000002 -0.51639395938746235 32.500000000000007 9.5000000000000018 1.5000000000000002 5.1144500000000006 63.332542000000011 8.5000000000000018 0.25500000000000006 -0.61559370248597534 0.025000000000000005 0.13500000000000004 0.16500000000000004 7.1950000000000012 0.017000000000000046 1.0000000180025095e-35 19.500000000000004 7.0750000000000011 1.0000000180025095e-35 63.458348500000007 59.729492000000008 15.105000000000002 60.118741000000007 61.316531500000011 59.89198300000001 0.0020000000000000178 15.905000000000003 6.5249250000000005
decision_type=8 10 10 2 10 2 2 10 2 2 2 10 2 10 2 2 2 2 2 2 2 2 2 2 2 10 10 2 2 2 2 2 2 10 2 2 2 2 10 2 2 2 8 2 8 8 10 2 8 10 2 2 2 2 2 2 2 2 2 10 2 2
left_child=2 8 6 5 10 -4 37 9 18 27 20 -10 13 -8 30 16 22 -18 19 -2 -3 28 36 24 25 -24 -22 54 -12 -9 31 -14 -32 -34 -35 -36 52 38 39 -1 -30 49 43 -21 -37 47 -47 48 -7 -17 51 -39 -16 -50 61 56 -56 58 -57 -60 -61 -5
right_child=1 4 3 7 -6 45 12 29 11 -11 21 -13 14 -15 15 41 17 -19 -20 42 26 -23 23 -25 -26 -27 -28 -29 40 -31 32 -33 33 34 35 44 -38 50 -40 -41 -42 -43 -44 -45 -46 46 -48 -49 53 -51 -52 -53 -54 -55 55 57 -58 -59 59 60 -62 -63
leaf_value=0.0104464218999281 0.060605907911173901 0.070573977604631119 0.044010085603227882 0.0087202210777424915 0.086410112985870105 -0.01573982060179634 0.063760183422463507 -0.01790716644019414 0.057729416520595711 0.080739512667252628 0.061046126099516353 0.073125093176611852 0.41174892947653563 -0.032066483975656659 -0.053665999270269965 0.1550712593045484 -0.053408440691704945 0.25933343827678307 0.079439758534246063 0.070151441117341187 0.041716189865315279 0.083262217557367277 0.11136541850040067 0.028055985928762541 0.014780945846528899 0.59344970482639414 0.07113240152636692 -0.0056135260968061332 0.09322993869095858 0.069420895072695402 0.25669715148958505 -0.052854965619259321 -0.040792640627046364 -0.0046713302669978913 0.027627519686928378 0.4192931025870264 0.38204298395272351 -0.0016631394611050327 -0.00089071455952804469 0.069861269415155774 0.072070794995473642 -0.027721938731249025 0.040510057475531006 0.0072189509927818273 0.080384061329760129 0.064819037501871693 0.0088052705386085141 0.022369093686217579 0.33253583266396924 -0.003095627230210988 0.0051911322227766099 0.08291072790621648 0.29104099705681613 0.043892219283822489 0.081655533112730189 0.078114372222293657 0.046697070599657005 0.066750116978973123 -0.041294385298466345 -0.062650747165775109 0.081636043430624389 0.097754137707619856
leaf_weight=190.42359995096922 1554.6426614746451 10604.710062652826 3408.9031856805086 474.8702563084662 10225.611090481281 882.51051586866379 113.08180931210518 68.591029286384583 18155.76741059497 618.80074379593134 3179.4016419574618 3816.419723495841 6.4596118368208391 933.41092378087342 8.1700213924050349 28.633393384516239 10.047603160142897 37.948292590677738 561.39741943776608 130.34080249071121 1673.6347823441029 8335.7914802730083 6.0886443741619578 447.68655354529619 29.284432031214237 9.2698874250054342 1128.5510295033455 226.44164477288723 1346.5171857401729 2912.4810946136713 6.458172343671321 5.9916503727436066 414.33322343602777 278.22667789086699 24.245148193091154 8.4540133923292125 9.1435042135417444 149.80701244436204 285.22141797654331 753.90106972306967 4493.1793540492654 275.79660465195775 1591.7907637953758 1009.7358453981578 7.3150511570274839 308.61543563008308 349.95476973056793 868.28796258941293 5.1571424417197695 39.606022022664547 874.7657721452415 192.46798897907138 5.7446349300444117 70.572281021624804 468.97682186216116 62.467297106981277 3987.3359133340418 164.68292213231325 220.03214560449123 32.839611113071442 89.230033151805401 56.687474083155394
leaf_count=1639 4918 14431 16299 2608 5274 13216 793 245 43472 1975 5949 5340 88 25148 144 323 190 198 1764 381 3690 7412 106 6445 514 31 1615 1335 1186 4475 96 128 8482 3557 290 59 50 1534 2870 5320 6346 5307 5333 7306 65 1673 2013 6673 23 677 10455 1522 29 792 1534 203 16656 534 1356 219 317 250
internal_value=0.0614057 0.0688205 0.0367951 0.0444638 0.0761116 0.031126 0.0140547 0.0528416 0.0576781 0.0460576 0.0726882 0.0604035 -0.00082923 -0.0217117 0.0123441 0.0329238 0.0589363 0.193863 0.0453256 0.0408577 0.0670186 0.0770682 0.0463711 0.0389422 0.148111 0.402335 0.0535633 0.0423469 0.0713434 0.0674116 -0.012506 0.188178 -0.0158871 -0.0182901 0.011007 0.120021 0.20499 0.0305132 0.044247 0.0578802 0.0769497 -0.00967342 0.0296194 0.0144138 0.262078 0.0134523 0.0350541 0.00566362 -0.00947367 0.0632715 0.0166383 0.0458944 0.0886455 0.0635487 0.0443012 0.0470603 0.0503761 0.0211032 0.00252234 -0.0112807 0.0428195 0.0182152
internal_weight=88236.9 67807.5 20429.4 15277.4 40987.4 5894 5151.98 9383.44 26820.1 6402.36 30761.8 21972.2 2705.4 1046.49 1658.9 907.42 563.384 47.9959 4847.91 4286.51 13406.9 17354.9 515.388 492.33 44.643 15.3585 2802.19 5783.56 9019.1 2981.07 751.484 12.4513 739.032 732.574 318.241 40.0142 23.0582 2446.59 1229.55 944.325 5839.7 344.036 2731.87 1140.08 15.7691 2485.1 658.57 1826.53 958.24 68.2394 1217.04 342.275 13.9147 75.7294 5557.12 5025.56 4456.31 569.252 404.569 342.102 122.07 531.558
internal_count=262873 114417 148456 72396 45903 40689 76060 31707 68514 26987 40629 48812 52720 25941 26779 14014 7707 388 19702 17938 19736 20893 7319 7096 651 137 5305 25012 13481 4720 12765 216 12549 12453 3971 414 223 23340 9829 6959 7532 6307 13020 7687 124 24390 3686 20704 14031 1000 13511 3056 173 815 23677 20819 18190 2629 2095 1892 536 2858
is_linear=0
shrinkage=0.05


Tree=14
num_leaves=63
num_cat=0
split_feature=0 6 6 15 21 22 6 14 14 21 21 7 15 0 17 14 14 22 17 4 17 21 4 22 12 20 3 13 21 13 21 4 15 18 21 13 0 20 17 21 22 15 21 17 18 0 21 17 18 21 13 21 21 22 17 22 20 6 14 14 13 15
split_gain=6003.32 2067.9 1128.49 852.717 614.869 548.391 384.551 358.84 373.879 347.491 362.654 391.185 324.768 318.413 291.538 288.656 307.078 265.684 262.363 258.959 256.21 264.946 232.933 222.003 327.975 242.053 216.395 215.383 215.056 211.287 209.982 198.802 196.032 195.02 227.936 214.468 193.374 193.238 193.787 231.719 622.413 202.187 192.393 190.462 182.109 190.069 181.458 178.478 176.71 183.008 169.657 169.302 298.758 194.616 181.261 176.298 175.63 200.664 168.424 421.184 183.932 196.362
threshold=0.19500000000000003 0.065000000000000016 0.47500000000000003 8.9950000000000028 63.406891500000008 17.109725000000005 0.45500000000000007 6.5000000000000009 5.5000000000000009 59.474634000000009 60.267433000000004 3.1779833221592841e-18 7.0750000000000011 0.045000000000000005 0.98182534576205316 4.5000000000000009 3.5000000000000004 8.5798695000000027 -0.91023613416931226 0.66875000000000029 0.91023613416931248 66.104185000000015 0.090000000000000219 5.1711250000000009 1.0000000180025095e-35 39.500000000000007 1.0000000180025095e-35 98.500000000000014 66.158090000000016 15.500000000000002 59.609724000000007 0.25000000000000044 7.7950000000000008 0.23931566428755774 69.926217000000008 37.500000000000007 0.055000000000000007 39.500000000000007 0.61559370248597556 63.458348500000007 8.3029580000000021 4.5050000000000008 60.253183000000007 -0.2393156642875576 -0.51639395938746235 0.03500000000000001 59.474634000000009 -0.66312265824079508 -0.91023613416931226 59.065782000000006 98.500000000000014 65.807055000000005 68.727993000000012 12.438041500000002 0.91023613416931248 14.849483000000001 33.500000000000007 0.14500000000000005 4.5000000000000009 8.5000000000000018 3.5000000000000004 7.6950000000000012
decision_type=10 8 10 2 2 2 10 2 2 2 2 8 2 10 2 2 2 2 2 10 2 2 8 2 10 2 10 2 2 2 2 10 2 2 2 2 10 2 2 2 2 2 2 2 2 10 2 2 2 2 2 2 2 2 2 2 2 8 2 2 2 2
