tree
version=v4
num_class=1
num_tree_per_iteration=1
label_index=0
max_feature_idx=23
objective=binary sigmoid:1
feature_names=lice_lag1 lice_lag2 lice_lag3 lice_lag4 lice_rollmean4w lice_rollmean8w lice_rollmax4w lice_trend4w breach_rate4w breach_rate8w breach_streak treated_this_week treatments_4w weeks_since_treatment last_action_enc SEATEMPERATURE temp_bin_enc sin_week cos_week smolt_season week_of_year LATITUDE LONGITUDE PRODUCTIONAREAID
feature_infos=[0:29.48] [0:29.48] [0:29.48] [0:29.48] [0:12.345000000000001] [0:12] [0:29.48] [-8.7480000000000029:8.0739999999999998] [0:1] [0:1] [0:29] [0:1] [0:4] [0:99] [0:9] [0:28.600000000000001] [0:4] [-1:1] [-1:1] [0:1] [1:52] [58.02355:71.017784000000006] [4.66045:30.415333] [1:13]
tree_sizes=6765 6817 6794 6784 6817 6848 6839 6871 6891 6897 6909 6897 6911 6900 6913

Tree=0
num_leaves=63
num_cat=0
split_feature=18 9 6 21 6 9 9 18 18 21 7 21 21 13 22 14 14 22 21 4 22 16 17 22 22 3 21 17 14 4 22 21 16 21 21 14 14 14 22 22 21 22 14 21 14 14 14 1 22 13 14 14 22 14 14 17 1 17 7 14 1 21
split_gain=116174 91313.8 36912.7 35341.3 23905.8 17239.5 16243 11559.7 11409.4 8148.02 6931.93 6523.9 8155.81 5834.34 5057.2 5038.88 14343.1 4565 4262.53 3741.99 3581.1 3559.96 3388.07 3169.37 3027.16 3010.89 2959.46 2878.94 2867.7 2673.33 2641.29 2620.42 2607.54 2304.5 2242.96 2151.22 2097.8 4939.95 2050.89 2044.84 2007.64 2044.5 1998.1 1993.58 1977.74 2174.15 1976.9 1953.69 1907.95 1895.31 1875.02 1867.04 1841.86 1807.68 2796.55 1835.18 1798.43 1787.73 1785.15 1769.81 1756.88 1730.29
threshold=-0.35460488704253562 1.0000000180025095e-35 0.015000000000000001 63.352958500000007 0.095000000000000015 0.13392857142857145 0.41428571428571431 0.91023613416931248 -0.78574730703237872 63.447470000000003 0.019000000000000062 61.362741500000006 69.214445000000012 6.5000000000000009 15.119392000000003 5.5000000000000009 7.5000000000000009 5.8581415000000012 59.405500500000009 0.12000000000000018 8.2672835000000013 2.5000000000000004 0.35460488704253579 16.911100500000003 5.8424750000000012 0.045000000000000005 58.975141500000007 0.61559370248597556 8.5000000000000018 0.022500000000000048 7.3486920000000007 59.556481500000011 2.5000000000000004 70.077182000000008 60.107102000000005 7.5000000000000009 5.5000000000000009 6.5000000000000009 17.070984000000006 8.2672835000000013 63.447470000000003 5.2610585000000007 8.5000000000000018 59.065782000000006 7.5000000000000009 2.5000000000000004 4.5000000000000009 1.0000000180025095e-35 6.5249250000000005 8.5000000000000018 4.5000000000000009 7.5000000000000009 14.972283000000003 7.5000000000000009 2.5000000000000004 -0.70581670320594825 1.0000000180025095e-35 -0.61559370248597534 0.013000000000000027 7.5000000000000009 0.025000000000000005 69.807520000000011
decision_type=2 10 8 2 8 10 10 2 2 2 8 2 2 2 2 2 2 2 2 10 2 2 2 2 2 10 2 2 2 10 2 2 2 2 2 2 2 2 2 2 2 2 2 2 2 2 2 10 2 2 2 2 2 2 2 2 10 2 8 2 10 2
left_child=2 3 17 7 21 8 9 10 11 18 13 24 36 26 15 -10 27 46 -3 42 -20 -5 23 35 -4 -21 -2 -17 -28 48 31 -30 -16 -14 -26 50 -13 47 56 58 41 -8 -6 -18 45 49 -1 -38 53 -11 -19 -12 -46 54 -15 -55 -7 -33 -9 -48 -29 -34
right_child=1 6 5 4 19 38 40 39 14 44 51 12 33 29 32 16 43 22 20 25 -22 -23 -24 -25 34 -27 28 60 30 -31 -32 57 61 -35 -36 -37 37 -39 -40 -41 -42 -43 -44 -45 52 -47 59 -49 -50 -51 -52 -53 -54 55 -56 -57 -58 -59 -60 -61 -62 -63
leaf_value=-2.3918370934239572 -3.1067166488936873 -2.7440229525346176 -2.4004450552665046 -2.9976884973766431 -2.8522881164574363 -2.3860982475933739 -2.3959958470720006 -2.8693814614677278 -2.3597685529160035 -2.5134781047933878 -2.5313100078607782 -2.237797732695114 -2.6827297392358633 -2.6502403906398935 -2.6777321904593983 -2.7235084513960865 -3.0102048877217267 -2.5598335546188205 -2.41125325662584 -2.4322547506998 -2.1164366366136718 -2.7112919423625761 -2.7961559905644484 -2.7586361653800751 -2.4902800884151466 -2.7059230527763947 -2.6046358087964481 -2.8024490400151563 -2.739100137922148 -2.6491956784728079 -2.9186005041141989 -2.3155918682156202 -2.5371481467119015 -2.4291161903905705 -2.7845256417131918 -2.4628207696686157 -2.6773983959852292 -2.221242733691247 -2.6428267835366177 -2.3644253879664894 -2.3450624454480162 -2.1336925605217676 -2.6281196780861973 -2.3283909013735533 -2.3356384691026664 -2.7291780321471153 -2.7784568939644552 -2.3792419088672796 -2.9774259309849898 -2.7953827157496343 -2.7956660041334662 -2.3939065000839244 -2.829769855610869 -2.4677546687312875 -2.9619229931343418 -2.8194522299577329 -2.1646828549935275 -2.6190895465302826 -2.7211458519280609 -2.4902568743743645 -2.498912571956061 -2.182687293363589
leaf_weight=254.09874013066292 24.640138573944569 89.745146721601486 1140.2836846262217 1521.6253102347255 685.0646542981267 100.53864518553019 87.165027290582657 486.65348651260138 1100.6788544431329 376.99841879308224 830.2823623791337 1352.1974741369486 151.06598001718521 131.11305806040764 394.07020803540945 457.5841428488493 10.879502713680266 245.75635498017073 1376.9236182272434 107.41896311193705 111.33214366436005 116.83639845997095 368.52702812105417 283.55510184168816 223.13730977475643 1561.4021449834108 899.25754977762699 55.214551240205765 54.26850750297308 727.50761438161135 27.908289551734924 293.31655195355415 141.94955864548683 220.04116662591696 91.250216290354729 311.46339070796967 58.697712130844593 690.13888566941023 24.898150414228439 26.876241758465767 235.73689167946577 502.86523297429085 116.27737256139517 736.58103194087744 110.30009615421295 317.05364959686995 83.165842741727829 858.79267874360085 113.69725362956524 70.824272498488426 128.27492705732584 352.05726611614227 22.748051099479198 92.024251848459244 159.5373717546463 62.137871146202087 1044.3892522603273 58.138686276972294 348.57410599291325 148.18484669178724 348.96112332493067 45.453100003302097
leaf_count=2449 573 1467 11177 32225 12611 958 847 9117 9936 4507 10208 9065 2293 1909 5944 7301 233 3155 13780 1118 489 1837 6390 4714 2569 24390 12312 964 882 10578 549 2401 1761 2277 1562 3423 885 4409 359 245 2062 2374 1644 6209 945 5093 1414 8071 2364 1227 2223 3407 409 1020 3270 1105 5547 812 5546 1706 4075 257
internal_value=-2.53087 -2.63797 -2.41382 -2.72213 -2.82918 -2.37328 -2.41375 -2.6283 -2.39926 -2.4778 -2.59103 -2.34998 -2.3114 -2.63604 -2.47092 -2.44221 -2.4986 -2.61945 -2.40938 -2.73095 -2.3892 -2.97727 -2.66712 -2.61804 -2.43832 -2.68831 -2.56375 -2.63762 -2.55371 -2.71236 -2.44809 -2.41573 -2.60472 -2.53235 -2.57568 -2.55989 -2.2837 -2.3223 -2.19389 -2.7937 -2.22172 -2.17244 -2.81976 -2.33831 -2.59804 -2.62899 -2.48811 -2.39832 -2.79464 -2.55806 -2.64071 -2.4904 -2.42012 -2.74791 -2.82132 -2.60951 -2.18413 -2.3658 -2.80752 -2.59386 -2.54038 -2.45118
internal_weight=23168.1 12098.3 11069.8 8796.62 4108.62 9246.8 3301.69 4687.99 8076.98 2475.93 3825.89 4785.61 3330.93 2643.55 3291.37 2709.9 1609.22 1823.03 1578 2470.16 1488.26 1638.46 1337.58 969.05 1454.67 1668.82 1357.53 861.76 1332.89 1286.02 433.632 405.724 581.473 371.107 314.388 685.495 2959.83 1607.63 1169.83 862.104 825.767 590.03 801.342 747.461 897.924 764.876 485.449 917.49 558.51 447.823 374.031 1182.34 133.048 444.813 290.65 154.162 1144.93 351.455 835.228 231.351 404.176 187.403
internal_count=284649 173323 111326 140123 73825 85852 33200 66298 78988 27917 51390 42308 27000 37775 36680 28718 18782 25474 15736 39763 14269 34062 19905 13515 15308 25508 17529 12340 16956 20246 4644 4095 7962 4570 4131 8801 22430 13365 6864 14908 5283 3221 14255 6442 12181 10827 5569 8956 9668 5734 5378 13615 1354 7304 5179 2125 6505 3213 14663 3120 5039 2018
is_linear=0
shrinkage=1


Tree=1
num_leaves=63
num_cat=0
split_feature=0 15 8 20 20 20 22 5 21 21 15 19 22 20 5 22 21 15 17 22 21 15 4 21 7 8 17 2 7 22 21 21 7 22 22 15 4 21 5 17 5 17 15 22 21 21 17 22 21 15 17 22 3 21 5 17 5 22 21 17 5 22
split_gain=19323.1 10676.5 8350.74 7506.65 9645.3 6449.88 6789.92 5371.79 4142.42 3145.31 2787.97 2132.44 1890.09 1847.4 1845.18 1708.08 1592.39 1483.53 1480.05 1450.25 1625.68 1591.87 1366.96 1272.9 1251.62 1165.36 1115.55 1114.6 1088 1084.47 1087.79 1042.14 1009.88 993.847 992.065 1058.82 979.707 1135.59 1832.33 1098.63 998.647 974.07 952.632 950.843 930.807 892.655 864.118 857.785 987.726 818.331 798.916 1038.29 788.786 770.754 768.636 767.308 761.239 752.114 914.879 893.495 746.057 745.148
threshold=0.025000000000000005 6.8750000000000009 1.0000000180025095e-35 38.500000000000007 14.500000000000002 38.500000000000007 6.5249250000000005 0.11500000000000012 63.352958500000007 62.831525000000006 4.8950000000000005 1.0000000180025095e-35 15.035316500000002 9.5000000000000018 0.099999999999999936 9.1645375000000016 59.474634000000009 11.395000000000001 0.40966402954315223 18.067750000000004 59.474634000000009 11.005000000000001 0.10750000000000025 59.474634000000009 -0.086999999999999897 0.58333333333333337 0.91023613416931248 1.0000000180025095e-35 0.021000000000000036 8.8854765000000011 70.06002500000001 63.500499500000011 -0.0019999999999999831 8.2672835000000013 7.8482300000000009 10.695000000000002 0.0049999999999999767 61.561491000000011 0.032500000000000043 -0.66312265824079508 0.003749999999999996 0.78574730703237894 12.495000000000003 8.4903415000000013 68.428320000000014 62.010159000000009 0.61559370248597556 18.214358500000007 66.030965000000023 4.995000000000001 -0.66312265824079508 5.8269830000000011 0.49500000000000005 59.474634000000009 0.0062499999999999995 0.95297903005573359 0.12500000000000019 22.337608000000003 70.627252000000013 -0.78574730703237861 0.2600000000000004 5.8581415000000012
decision_type=8 2 10 2 2 2 2 8 2 2 2 2 2 2 10 2 2 2 2 2 2 2 8 2 8 10 2 10 10 2 2 2 8 2 2 2 10 2 10 2 10 2 2 2 2 2 2 2 2 2 2 2 8 2 10 2 10 2 2 2 10 2
left_child=1 9 3 4 7 13 16 28 17 23 44 56 25 54 -8 -12 32 33 -9 20 61 57 34 -1 -22 -4 29 -16 -2 -20 -31 -17 -7 -5 -10 -36 37 50 39 -39 43 -33 -38 -41 -6 -18 -46 48 -13 52 -26 -52 -50 -28 -3 -51 -11 -21 59 -59 -14 -15
right_child=2 5 12 8 10 6 14 18 22 11 15 47 60 19 27 31 45 -19 26 21 24 -23 -24 -25 36 -27 53 -29 -30 30 -32 41 -34 -35 35 -37 42 38 -40 40 -42 -43 -44 -45 46 -47 -48 -49 49 55 51 -53 -54 -55 -56 -57 -58 58 -60 -61 -62 -63
leaf_value=0.054014758232131199 0.13825244589233007 -0.032810173757559784 0.36598521213805801 0.24562332295259406 0.30570617432151959 0.27954474281084413 0.026317609846659169 0.2222979926017474 0.8615410659220436 -0.00017766801857486535 0.33460111099156009 0.10029705660556172 0.36371198403994448 0.29539675538633253 0.018758692760557107 0.51327363037909135 0.298103388196369 0.33551589783733332 0.3680094445682075 0.077908589883099899 0.23228141288320314 0.36651014745629973 0.22266994063124013 0.25800637284872507 0.40723167213296768 0.41267313292228053 0.11663036269376573 0.27876090779078838 0.23904706954373078 0.24241661065620163 0.47165734749622268 0.37470556733248661 0.032509891240882938 0.41902614811479238 0.092836003035822623 0.27513305744302946 0.36229680264398989 0.17774158431127574 0.1305323051810503 0.16106978388679219 0.42223561864420528 0.2739555970727135 0.30224191820366764 0.3157639144503453 0.38977153441078871 0.077375664731726024 0.062305870842679648 0.056300036509622814 0.10458771801512978 0.26116895763625125 0.33037192648818159 0.14308332437117188 0.47723128534928733 0.28417181012221676 0.20284866956532543 0.57364144191743671 0.15397167635486633 0.021766926909399117 0.073231100370772004 0.32847372712940492 0.22739963929340778 0.13637827883731765
leaf_weight=88.113806124776602 817.58902326598763 52.261426191776991 4074.0849451161921 1227.6847989670932 99.272544223815203 66.226761102676392 558.03666458651423 563.46155323460698 4.5944531708955756 480.80592240765691 6623.6165795773268 239.16448269039392 153.27819965407252 117.08330915868282 58.07671345770359 129.40030783414841 981.01371876895428 1123.5734266974032 1030.1935303993523 144.07057586312294 450.10530878975987 137.48381254076958 1304.1189171820879 578.87391905486584 275.32453683018684 1989.1432359926403 73.950801055878401 142.01305719837546 398.08531368151307 376.19847548007965 60.002657879143953 4665.5454207547009 110.22873830795288 88.594821538776159 468.42993786931038 95.972911674529314 1699.2265008874238 176.86942287161946 216.84132440760732 122.17847077548504 172.04770947247744 252.9103864505887 1080.0699345059693 531.28629123792052 23.644306242465973 48.048085745424032 136.14663904160261 182.10333588719368 140.0693185441196 199.95317195728421 554.20836696773767 85.404163915663958 15.802944734692572 956.83550019934773 102.39601715281606 21.787270586937666 96.097255796194077 28.079532191157341 74.615850087255239 153.85291301086545 290.85084214061499 198.68003813922405
leaf_count=1419 12233 1002 18768 12506 847 711 10833 6478 18 9878 38675 3625 1015 839 905 274 8199 7700 7073 2160 3481 1181 14757 5305 1473 4616 911 1286 4083 4201 435 22864 1808 293 8000 1193 8276 1996 2882 1412 1111 2209 7137 4481 126 654 2025 2895 2415 1927 3788 1060 69 8603 1252 187 1194 491 1096 1326 2650 2342
internal_value=0.302386 0.244394 0.324656 0.309004 0.324605 0.269498 0.190269 0.260177 0.250381 0.141951 0.347698 0.0987521 0.374009 0.293914 0.0730265 0.351299 0.264001 0.293316 0.295495 0.29816 0.305593 0.219708 0.194456 0.231058 0.312084 0.381302 0.312011 0.203294 0.171259 0.34003 0.27395 0.37321 0.125226 0.257295 0.129791 0.123834 0.319394 0.293915 0.26232 0.290829 0.315059 0.369525 0.338959 0.286841 0.185464 0.287797 0.110761 0.151651 0.179803 0.230159 0.336018 0.305364 0.142368 0.272152 0.123215 0.291871 0.0254997 0.169329 0.220668 0.281136 0.274444 0.195341
internal_weight=37405.7 10378.5 27027.2 20519.8 16206.9 8335.73 1963.64 4276.32 4312.97 2042.77 11930.5 1375.78 6507.36 6372.09 758.126 11671.5 1205.52 2439.85 3060.64 6217.43 5679.33 538.103 1873.12 666.988 5363.56 6063.23 2497.18 200.09 1215.67 1466.39 436.201 5047.86 176.455 1316.28 568.997 564.403 4913.46 2134.16 1219.22 1002.38 825.512 4918.46 2779.3 653.465 259.063 1029.06 159.791 798.881 616.777 377.613 914.937 639.613 155.872 1030.79 154.657 221.74 576.903 400.619 256.548 181.932 444.129 315.763
internal_count=284649 102096 182553 155504 111037 73182 24396 44017 44467 28914 67020 22190 27049 48786 13024 64022 11372 20499 27701 46532 40278 6254 23968 6724 37097 23384 21223 2191 16316 11709 4636 25347 2519 12799 9211 9193 33616 18203 11882 9000 7004 25073 15413 5893 2998 8853 2151 11118 8223 4598 6321 4848 2484 9514 2254 2114 11072 5073 2913 1817 3665 3181
is_linear=0
shrinkage=0.05


Tree=2
num_leaves=63
num_cat=0
split_feature=18 6 22 0 9 14 14 17 6 14 17 15 22 23 22 9 14 14 0 14 14 18 15 22 17 23 22 22 22 15 5 15 17 13 13 23 18 22 7 23 22 22 14 14 15 14 17 0 0 5 22 22 6 15 7 4 6 15 18 22 13 14
split_gain=10848.8 12805.5 6938.19 3973.16 3798.93 2221.6 2259.32 2902.03 1801.14 1677.93 1576.37 1522.03 1435.59 1429.35 1615.63 1361.71 1358.83 3237.97 1280.26 1204.2 1920 1044.5 1007.75 983.795 915.238 946.277 912.945 895.206 849.833 835.819 831.812 804.281 794.737 787.067 731.466 727.722 724.144 717.266 706.982 703.482 693.597 674.632 785.694 667.318 643.703 687.88 865.747 623.481 615.995 611.768 576.137 567.483 559.8 685.928 549.133 548 542.38 805.031 754.259 550.248 529.571 525.753
threshold=-0.12053668025532321 0.085000000000000006 6.5249250000000005 0.025000000000000005 0.15476190476190479 8.5000000000000018 5.5000000000000009 0.40966402954315223 0.18500000000000003 1.5000000000000002 -0.91023613416931226 5.9750000000000005 18.067750000000004 2.5000000000000004 6.2710165000000009 1.0000000180025095e-35 3.5000000000000004 6.5000000000000009 1.0000000180025095e-35 7.5000000000000009 5.5000000000000009 0.5163939593874618 11.005000000000001 9.1645375000000016 0.91023613416931248 7.5000000000000009 15.373808000000002 9.1322915000000027 9.7746835000000019 4.8950000000000005 0.13250000000000026 5.6950000000000012 -0.61559370248597534 15.500000000000002 2.5000000000000004 9.5000000000000018 -0.78574730703237872 5.1905250000000001 0.07400000000000008 1.5000000000000002 10.672200000000002 5.4453830000000005 7.5000000000000009 1.5000000000000002 16.905000000000005 8.5000000000000018 0.35460488704253579 0.085000000000000006 0.51500000000000012 1.0000000180025095e-35 13.712633500000001 4.7684165000000007 0.12500000000000003 6.9750000000000005 -0.036999999999999915 0.0049999999999999767 0.015000000000000001 10.705000000000002 -0.060268340127661524 23.262116000000002 13.500000000000002 1.5000000000000002
decision_type=2 8 2 10 8 2 2 2 10 2 2 2 2 2 2 8 2 2 10 2 2 2 2 2 2 2 2 2 2 2 10 2 2 2 2 2 2 2 8 2 2 2 2 2 2 2 2 10 8 10 2 2 10 2 8 10 10 2 2 2 2 2
left_child=3 2 10 12 5 6 8 13 28 -10 41 -7 16 14 -8 19 31 18 34 20 29 56 36 -22 27 -26 32 -9 54 -5 -23 33 -11 -1 -18 -28 -14 -13 -15 -19 -25 -2 -43 -6 45 49 -47 -29 -45 -41 -27 -21 53 -53 -3 -48 -4 58 -58 -59 -12 -31
right_child=1 4 21 15 43 11 7 24 9 26 60 37 22 38 -16 -17 17 39 -20 51 23 30 -24 40 25 50 35 47 -30 61 -32 -33 -34 -35 -36 -37 -38 -39 -40 44 -42 42 -44 48 -46 46 55 -49 -50 -51 -52 52 -54 -55 -56 -57 57 59 -60 -61 -62 -63
leaf_value=0.22972935329769695 0.28770024584513648 0.37975428218443513 0.039114940438458867 0.14280920656100934 0.14172576415022628 0.14776813019334958 0.17757856188048685 0.25938787193841556 0.12995442185641456 0.30485905302820293 0.17398354068841063 0.33269269204164842 0.15794901168741549 0.11181972111241452 0.48501670629271287 0.27522773090835012 0.22473282708274361 0.048474566036188493 0.20627219820520876 0.030831108392297281 0.19416040950880803 0.0010298808633588041 0.25302009318729629 0.3029372466380158 0.13891216033647236 0.36376591110508028 0.0073882060725394931 -0.026047428088897002 0.10261966373974392 0.21640455983878595 0.16825145005576306 0.24788569032384827 0.24070054302078209 -0.017383902259107797 0.092963394231764973 0.20573263488556126 0.043794625006851537 0.2512036989346787 0.18327939603449794 0.21764561574560037 0.22644010886192195 0.067509202848486743 0.24795281549931386 0.23825479346447065 0.3494436913914481 0.22774592022721923 0.039249333872834108 0.1892035931741255 0.27714677068913446 0.28895609866641681 0.17999056286398857 0.12359208857269539 0.29207227138984498 0.26001353618250767 0.18343502459475544 0.17969236353746615 0.25269145323605879 0.20901911877954749 0.050241328154598142 0.72518309862196562 0.11019527354017029 0.26351338329726531
leaf_weight=73.677764035761356 363.8331491202116 38.684207268059254 330.90969568118453 159.71722228080034 127.39703892916441 300.31212370470166 176.2484099380672 997.09619653597474 352.20108114555478 673.4932584092021 784.72116023302078 359.46825994551182 430.19867421686649 2239.8882850818336 56.41070618480444 5569.9969819523394 119.85475556179881 51.109155986458063 513.42905083298683 24.060041308403015 2697.1625619195402 1034.58121644333 187.42896703630686 365.30779406428337 617.34547871351242 85.363853801041842 50.997389283031225 38.004770144820213 430.42900690436363 660.96962138265371 80.126662325114012 3473.7210942953825 1703.5996587090194 57.268650848418474 868.37599508464336 496.25972996279597 205.18573215976357 1085.4017496481538 409.37912190333009 522.74715077131987 1569.0102903023362 94.817098774015903 165.84408131241798 2011.8880865164101 119.08058839663863 1234.5004717223346 100.97357644513249 293.00940565392375 2061.167762376368 708.24632215499878 85.225419949740171 99.441434774547815 1898.8632557019591 1255.0852485671639 449.65715620294213 222.53488028049469 54.86734951287508 119.75529891252518 284.89875710755587 5.3958896324038497 555.84936835616827 5698.0296373106539
leaf_count=505 1692 199 5987 1672 873 2592 1487 5414 3211 3365 6815 1317 4297 22974 151 14910 734 642 3412 199 16669 20260 1183 1231 5342 486 639 594 5885 2911 808 16435 11128 833 9365 4180 3107 6417 3068 3338 8483 1139 844 8856 316 5963 1255 2646 5572 2599 860 774 5622 4211 3777 1384 644 1287 4995 17 6432 20646
internal_value=0.22256 0.193232 0.112135 0.241866 0.213993 0.198472 0.188654 0.165944 0.215708 0.233057 0.1781 0.250189 0.214052 0.133297 0.25212 0.254229 0.22047 0.202021 0.142222 0.246122 0.238291 0.0442875 0.151139 0.213676 0.210408 0.167716 0.245474 0.235736 0.15384 0.255779 0.01305 0.2433 0.258878 0.121656 0.108945 0.187249 0.121085 0.271477 0.122862 0.232367 0.240887 0.243713 0.182315 0.254411 0.235599 0.230738 0.208666 0.16449 0.257936 0.258674 0.271953 0.272766 0.274555 0.249998 0.198987 0.135857 0.0880416 0.122866 0.0829341 0.231274 0.147535 0.258617
internal_weight=47900.5 19014.5 3875.6 28886 15138.9 10938.5 9193.29 4997.97 4195.32 3276.55 1965.06 1745.18 8888.33 2881.93 232.659 19997.6 8065.52 4460.85 1501.66 14427.6 11150.2 1910.53 822.813 4631.48 2116.05 787.935 2924.35 1328.11 918.77 6518.72 1114.71 3604.67 2377.09 130.946 988.231 547.257 635.384 1444.87 2649.27 2959.19 1934.32 624.494 260.661 4200.45 2908.08 2789 1558.01 331.014 4073.06 1230.99 170.589 3277.45 3253.39 1354.53 488.341 323.508 795.827 464.917 339.766 125.151 1340.57 6359
internal_count=284649 151953 50920 132696 101033 85732 75406 43022 32384 22523 16922 10326 55368 27680 1638 77328 46781 29008 13511 62418 51612 33998 8587 26383 15342 6688 19312 8654 9861 25229 21068 17773 14493 1338 10099 4819 7404 7734 26042 15497 9714 3675 1983 15301 14855 14539 8602 3240 14428 5937 1346 10806 10607 4985 3976 2639 12930 6943 5639 1304 13247 23557
is_linear=0
shrinkage=0.05


Tree=3
num_leaves=63
num_cat=0
split_feature=6 15 20 9 15 20 14 14 20 21 5 21 13 21 21 15 21 23 7 20 5 12 21 21 5 21 4 14 21 6 21 21 17 14 13 21 13 5 21 14 21 21 6 21 20 15 21 20 21 21 13 20 21 13 15 20 21 21 15 15 21 21
split_gain=4779.61 4088.86 3622.8 2513.49 2226.06 1955.59 2791.6 2301.95 2010.13 1704 1132.4 995.418 953.769 971.772 786.539 754.537 753.792 730.385 782.389 709.843 700.192 694.872 674.522 639.393 596.206 593.743 591.986 582.093 584.675 928.276 557.658 539.616 510.495 493.747 483.248 473.489 623.018 467.28 461.433 459.257 453.092 449.879 449.29 443.509 441.715 439.974 498.658 429.58 418.438 500.447 444.643 413.568 412.497 408.959 408.05 405.831 427.558 403.713 403.672 491.364 402.841 401.957
threshold=0.045000000000000005 6.6050000000000013 42.500000000000007 1.0000000180025095e-35 6.1050000000000013 34.500000000000007 8.5000000000000018 5.5000000000000009 3.5000000000000004 62.010159000000009 0.15062499999999998 61.049925000000009 82.500000000000014 62.783608500000007 59.148475000000005 8.3050000000000015 63.397984000000008 2.5000000000000004 0.019000000000000062 8.5000000000000018 0.23750000000000021 2.5000000000000004 59.474634000000009 59.556481500000011 0.11625000000000012 68.325222000000011 0.0049999999999999767 1.5000000000000002 62.343450000000011 0.19500000000000003 68.325222000000011 59.556481500000011 -0.82298386589365657 1.5000000000000002 85.500000000000014 70.627252000000013 4.5000000000000009 0.32937500000000003 62.298583000000001 8.5000000000000018 59.065782000000006 62.966692000000002 0.47500000000000003 59.474634000000009 16.500000000000004 13.195000000000002 60.31126600000001 9.5000000000000018 70.529125000000008 65.443840000000009 13.500000000000002 12.500000000000002 62.731907500000013 7.5000000000000009 12.205000000000002 48.500000000000007 68.005185000000026 60.203652000000005 9.9050000000000029 13.405000000000003 70.150510000000011 61.561491000000011
decision_type=8 2 2 10 2 2 2 2 2 2 8 2 2 2 2 2 2 2 8 2 10 10 2 2 10 2 10 2 2 10 2 2 2 2 2 2 2 10 2 2 2 2 10 2 2 2 2 2 2 2 2 2 2 2 2 2 2 2 2 2 2 2
left_child=1 12 19 4 10 8 7 15 -6 23 25 20 13 52 -5 24 33 22 42 -3 -10 -18 -9 34 -7 44 30 41 43 -30 31 -21 54 -16 -4 36 -31 -20 45 53 -8 -17 -19 -29 -2 46 -35 -22 49 50 -26 57 -1 -25 -32 56 -53 -14 -42 -60 -58 -33
right_child=3 2 9 14 5 6 40 17 11 -11 -12 -13 51 -15 16 27 21 18 37 26 47 -23 -24 39 48 -27 -28 28 29 35 32 61 -34 38 -36 -37 -38 -39 -40 -41 58 -43 -44 -45 -46 -47 -48 -49 -50 -51 -52 55 -54 -55 -56 -57 60 -59 59 -61 -62 -63
leaf_value=0.11498383558822055 0.12602153487824472 0.061896676807853129 -0.012008423018041892 0.083702330016418525 0.096947002961508766 0.058501928501253346 0.017094909963537911 0.15768222871487725 0.18323463810445123 -0.011578545401520406 0.16909315510588205 0.2031326883749896 0.26063707131033564 0.024249295510280947 0.11759740707346684 0.065113811839474289 0.19022114207885657 0.091775136081001116 0.14307379833891706 0.097132950374404448 0.19742719025843011 0.10124269821555364 0.36696489510749186 0.17869202140724791 0.25025470520246001 0.085414676462196526 0.18768977290760752 0.12834786987551977 0.11838246836421243 0.24645818787126028 -0.01924121544821274 0.19141845689663312 0.13909755602328422 0.21081137997530647 0.20443814664334267 0.43019535686818833 0.1479546257916253 -0.055638454684155819 0.22898385302636073 0.20042457000763278 0.1701294808527668 0.18422060979961974 -0.021360930781782504 0.23841830504038161 0.19161150148129902 0.22166222831640489 0.17909782975407582 0.09844461690920038 0.36255952531893421 0.086538219683060372 -0.055093458444573563 0.1113815117612061 0.42829640941217778 0.058001471957524753 0.24426977910283221 -0.052757117461279562 0.30295942234923251 0.029846381541952811 0.25112953142020816 0.1942535682204477 0.076415929443349503 0.1565318035746773
leaf_weight=314.36425249278545 1355.8200336024165 145.30409670621157 125.4021508730948 140.84011280164123 539.66317390277982 214.43425777554512 28.872872412204742 211.39461412280798 4649.5196994058788 379.4946128949523 2602.9289837814867 11609.800835896283 23.300771199166775 876.2410455159843 142.77329115569592 155.92065147683024 4517.3549341633916 1536.0498272590339 1197.6391531638801 240.88467659428716 148.52681452780962 230.621472671628 47.074287436902523 116.39055244624615 120.22412187233567 771.46390630304813 3845.5687848441303 102.30854192003608 451.79108318313956 363.71981938183308 91.680901724845171 1717.3407306447625 711.99878918379545 2695.9421232938766 32.463134035468102 23.766497824341059 287.33373316377401 30.334071055054665 2696.6366629675031 228.82967495173216 376.43822336569428 161.28954163193703 93.070632867515087 867.6130531989038 316.63589719310403 2579.7816785499454 2294.4366116225719 418.38981910422444 25.152741353958845 148.40211825817823 13.234775822609661 75.681903637945652 10.868421282619236 176.82429556548595 17.494534604251385 16.381684079766273 105.71341826766729 101.44618924334645 925.11701501905918 644.14826752617955 24.09613312035799 1590.1870575137436
leaf_count=2838 12164 2065 1887 889 5348 2811 298 1431 20462 7118 16780 36678 175 14004 665 1286 17713 14416 8556 2251 652 1318 74 753 706 8601 16234 691 3882 1535 1511 7719 5560 7434 312 42 1759 339 4497 1208 2639 923 1047 3469 1595 5713 7889 2666 114 1432 160 736 39 1893 89 340 759 1862 2969 2212 302 11139
internal_value=0.177674 0.148031 0.160407 0.184783 0.176473 0.182501 0.162089 0.145243 0.191934 0.0732997 0.146144 0.194981 0.0727245 0.0516449 0.201316 0.177017 0.202409 0.115309 0.108028 0.171445 0.176838 0.185899 0.195798 0.120675 0.122475 0.121701 0.173382 0.1888 0.198351 0.173851 0.160791 0.169384 0.12366 0.20994 0.0325013 0.210987 0.202985 0.138165 0.211224 0.147338 0.213711 0.125675 0.0853117 0.226808 0.138439 0.204897 0.19623 0.124377 0.167156 0.149719 0.219974 0.145792 0.125454 0.105909 0.0229844 0.186744 0.205837 0.0729545 0.216629 0.227783 0.260907 0.174646
internal_weight=56704.4 10968 9419.86 45736.5 30438.1 25391.2 8025.33 6050.75 17365.9 1059.4 5046.85 16826.2 1548.09 1201.47 15298.4 2935.19 15157.5 3115.56 2857.09 8360.46 5216.44 4747.98 258.469 679.91 521.448 2443.92 8215.16 2413.74 2096.53 1126.61 4369.59 3548.41 821.174 10409.6 157.865 674.82 651.054 1227.97 10266.8 522.045 1974.58 317.21 1629.12 969.922 1672.46 7570.16 4990.38 566.917 307.014 281.861 133.459 346.62 325.233 293.215 109.175 221.873 205.491 124.747 1945.7 1569.27 129.81 3307.53
internal_count=284649 80794 59739 203855 157737 118597 52791 44673 65806 13171 39140 60458 21055 16881 46118 18810 45229 25863 24358 46568 23780 19031 1505 6053 5223 22360 44503 13587 11378 7218 28269 21109 7160 26198 2199 3336 3294 8895 25533 3854 8118 2209 15463 4160 13759 21036 15323 3318 2412 2298 866 4174 2877 2646 1600 2137 1797 2037 7820 5181 1061 18858
is_linear=0
shrinkage=0.05


Tree=4
num_leaves=63
num_cat=0
split_feature=18 6 22 9 0 21 18 22 17 21 23 22 14 14 9 17 21 0 18 14 18 5 15 21 15 21 14 22 21 22 21 22 18 14 5 21 17 5 21 21 21 22 21 15 21 22 20 15 21 6 21 21 22 5 22 5 22 21 17 21 21 22
split_gain=4746.75 5407.67 3657.25 1775.04 1764.09 879.294 806.465 1212.14 781.481 760.685 739.97 698.371 679.432 1441.9 869.212 747.531 1125.11 671.175 659.144 675.354 655.554 619.083 601.622 581.981 913.012 508.981 480.461 678.359 656.586 478.539 602.783 504.182 461.444 455.621 731.954 642.051 454.873 452.544 449.38 448.116 446.602 1405.73 1136.12 431.805 418.689 416.231 404.863 406.829 402.769 429.91 527.726 400.667 391.571 391.081 390.393 389.343 388.153 388.102 382.113 403.952 400.853 686.055
threshold=-0.12053668025532321 0.085000000000000006 6.5249250000000005 0.15476190476190479 0.025000000000000005 63.397984000000008 -0.91023613416931226 5.8581415000000012 -0.70581670320594825 63.646133000000013 1.5000000000000002 8.2672835000000013 7.5000000000000009 5.5000000000000009 0.61250000000000016 -0.46472317204376817 68.787433000000007 1.0000000180025095e-35 0.91023613416931248 6.5000000000000009 0.5163939593874618 0.10125000000000016 3.5050000000000003 59.746975000000006 15.605000000000002 70.765717500000008 1.5000000000000002 15.262750000000002 68.77130750000002 6.2033250000000004 68.877030000000005 5.4219585000000006 -0.61559370248597534 8.5000000000000018 0.11625000000000012 70.892325000000014 0.78574730703237894 0.073750000000000107 70.019677000000016 62.664110000000001 59.801743000000009 5.9801750000000009 59.474634000000009 12.295000000000002 63.118851000000006 5.7226920000000012 7.5000000000000009 6.6750000000000007 68.402180000000016 0.015000000000000001 68.170812500000025 68.341774000000015 4.7684165000000007 0.24500000000000019 23.262116000000002 0.37250000000000022 14.972283000000003 60.616276000000006 0.91023613416931248 59.31620800000001 59.801743000000009 6.0575335000000008
decision_type=2 8 2 8 10 2 2 2 2 2 2 2 2 2 10 2 2 10 2 2 2 10 2 2 2 2 2 2 2 2 2 2 2 2 10 2 2 10 2 2 2 2 2 2 2 2 2 2 2 10 2 2 2 8 2 10 2 2 2 2 2 2
left_child=4 2 8 5 6 10 25 -8 -2 -7 -3 18 13 22 15 16 -15 -11 55 40 48 -22 -6 -9 32 -1 28 -28 57 31 -31 -17 53 34 35 36 -19 -33 -36 43 41 -20 -43 -34 -13 -21 -40 -48 49 -4 -51 -35 -14 -25 -32 58 -54 -24 60 -60 61 -12
right_child=1 3 20 -5 12 9 7 23 -10 17 11 44 52 14 -16 29 -18 33 19 45 21 -23 26 24 -26 -27 27 -29 -30 30 54 37 39 51 38 -37 -38 -39 46 -41 -42 42 -44 -45 -46 -47 47 -49 -50 50 -52 -53 56 -55 -56 -57 -58 -59 59 -61 -62 -63
leaf_value=0.16107377927332953 0.14974016191177467 -0.056366158722718246 0.038421888171337293 0.16589693753546308 -0.055548594422825816 0.040476260199350834 0.1592519083264744 0.039593462491284009 0.09423773885043453 0.034353617413954922 0.16146739937469598 0.27329479271575824 0.0068761569363855989 0.10452399825908575 0.20727727811246149 0.1532134491552023 0.19618035298877348 0.056506821520326204 0.056159001445326595 0.20672665791042799 -0.003626785469478352 0.11111334973530169 0.05928378002917483 0.13392550971025427 0.20175223018572308 -0.026686199990122283 0.18181101959873722 0.14828713454735884 0.22213111353568024 0.17019747505387756 0.0466677388309229 0.026485584852381658 0.07675829732208056 0.18169174268730348 0.12426341919159548 0.33619361361972205 0.14001633727366458 0.12164579488108368 0.24357348678661089 0.081619837479812662 0.073880349065758619 -0.015190100586630603 0.35957172936163762 0.20178379854187245 0.16728513132796369 0.086916729965192771 0.07602452295820783 0.19472364083170968 0.014692488960341719 0.1067142429716377 0.37234994139327421 -0.01708425307378177 0.18558119046918664 0.056019426717024527 0.1784131513381734 0.097207743410519076 0.13834054217066091 0.1403072676208732 0.029270926571332862 0.13423136311421299 0.14838068108752339 0.25115431417723488
leaf_weight=4519.4243022873998 1323.0120883621275 46.428868498653173 274.18498018756509 5762.5007166862488 28.750657677650452 303.64502626284957 2720.9064959958196 229.72394615411758 1218.1639649085701 210.21241559460759 999.05942327901721 154.15843368321657 32.139906093478203 2060.9509952738881 553.26486021280289 1522.9219777062535 399.76487892121077 726.28714824095368 178.0921785980463 247.02074825018644 1044.2026741877198 132.47404363751411 186.26632289588451 2277.0216351561248 325.89867816865444 36.384590543806553 9544.8336170986295 1792.3737924918532 207.9492279291153 3182.2461174353957 170.23034017533064 148.19894986599684 116.79776210337877 470.39852034300566 3110.8299420587718 24.182896632701159 210.27401728183031 795.94899294525385 153.77386867254972 1318.6929103471339 855.07508958131075 25.835968799889088 93.090886950492859 168.9695118740201 235.31652545556426 102.601856790483 127.05892714112997 167.15147593989968 277.68110374733806 370.39883556962013 19.691118396818638 26.795064132660627 5528.9607809707522 173.35214214026928 83.965819589793682 369.66402354091406 471.9367063716054 715.61166637763381 98.41893046349287 1336.4293654337525 4013.777752738446 271.08291182667017
leaf_count=17454 6480 486 4265 15301 355 2626 10116 2031 10442 2178 4288 157 225 11028 367 5133 1372 7966 1589 1196 19761 1307 1031 11783 951 400 20409 6821 350 9253 1140 968 736 2312 21390 150 1950 3501 606 10357 7008 263 106 492 767 786 1005 884 4564 3975 126 255 10952 1048 277 1818 1883 2263 870 7151 17328 597
internal_value=0.148312 0.131268 0.0826881 0.142409 0.159141 0.133111 0.143053 0.132787 0.123134 0.117412 0.14273 0.14376 0.166114 0.161935 0.146582 0.142567 0.119414 0.121881 0.14079 0.110699 0.0341758 0.00929103 0.17291 0.117169 0.121237 0.159574 0.173437 0.176511 0.14204 0.152217 0.164279 0.135416 0.114765 0.125549 0.120551 0.0818242 0.0752561 0.106709 0.131006 0.0939207 0.0922278 0.145048 0.278158 0.150684 0.209245 0.171567 0.177826 0.143462 0.0652614 0.0864003 0.120123 0.170979 0.180934 0.128414 0.0901858 0.147165 0.181866 0.123573 0.149914 0.127032 0.156128 0.180609
internal_weight=64292.5 24979 4659.81 20319.2 39313.5 14556.7 11887.2 7331.36 2541.18 5530.61 9026.05 8979.62 27426.3 21393.3 8917.49 8364.23 2460.72 5226.96 8590.15 1501.72 2118.63 1176.68 12475.8 4610.46 4380.73 4555.81 12447 11337.2 1109.83 5903.51 3436.44 2467.07 4054.83 5016.75 4519.56 960.744 936.561 944.148 3558.81 1604.46 1152.09 297.019 118.927 285.767 389.475 349.623 447.984 294.21 941.956 664.275 390.09 497.194 6033.04 2450.37 254.196 7088.43 6000.9 901.878 6718.77 1434.85 5283.92 1270.14
internal_count=284649 151953 50920 101033 132696 85732 55368 37514 16922 41322 44410 43924 77328 64268 33039 32672 12400 38696 43000 10948 33998 21068 31229 27398 25367 17854 30874 27230 3644 20272 10670 9602 24416 36518 33951 10066 9916 4469 23885 11585 8966 1958 369 1228 924 1982 2495 1889 12930 8366 4101 2567 13060 12831 1417 32052 12835 3294 30234 8021 22213 4885
is_linear=0
shrinkage=0.05


Tree=5
num_leaves=63
num_cat=0
split_feature=18 22 9 4 23 14 14 17 15 22 14 20 4 4 4 1 22 14 22 20 7 23 22 15 13 22 13 7 22 22 22 15 22 14 17 23 22 6 22 17 15 13 7 13 22 18 6 22 22 3 15 22 13 22 15 22 22 22 22 3 4 22
split_gain=3509.44 3671.42 2621.77 2532.92 1257.86 1135.82 2658.52 1962.39 1108.63 1224.69 1071.82 1045.37 894.413 849.205 837.697 745.605 666.044 611.286 704.396 610.063 522.49 454.868 714.972 535.581 444.775 444.492 427.512 425.846 482.729 625.696 479.654 763.742 484.914 419.042 586.11 417.097 527.893 1084.66 545.837 489.362 443.748 414.072 403.763 399.513 391.816 391.036 582.697 664.612 381.249 371.896 388.829 371.752 366.128 349.641 336.319 328.741 322.875 562.847 438.18 347.253 348.368 320.029
threshold=-0.61559370248597534 14.972283000000003 1.0000000180025095e-35 0.067500000000000226 1.5000000000000002 7.5000000000000009 5.5000000000000009 0.40966402954315223 10.695000000000002 22.895025500000003 1.5000000000000002 12.500000000000002 0.0075000000000000466 0.082500000000000323 0.0049999999999999767 0.015000000000000001 25.692408500000003 1.5000000000000002 5.3314835000000009 48.500000000000007 0.0059999999999999941 2.5000000000000004 6.1594000000000007 14.505000000000001 9.5000000000000018 9.7746835000000019 74.500000000000014 0.042000000000000058 6.3914250000000008 5.8581415000000012 17.934700000000003 8.6950000000000021 19.587800000000005 4.5000000000000009 0.17992617227144039 8.5000000000000018 7.2362250000000001 0.045000000000000005 10.745416500000001 -0.78574730703237861 5.1950000000000012 44.500000000000007 0.016000000000000063 31.500000000000004 15.119392000000003 0.61559370248597578 0.23500000000000001 11.354997500000001 20.7894915 0.045000000000000005 8.4050000000000029 14.849483000000001 64.500000000000014 4.7008665000000009 5.8050000000000006 5.4219585000000006 14.429167000000001 11.484741500000002 11.354997500000001 0.045000000000000005 0.27750000000000041 8.1359165000000022
decision_type=2 2 8 8 2 2 2 2 2 2 2 2 10 10 10 10 2 2 2 2 10 2 2 2 2 2 2 8 2 2 2 2 2 2 2 2 2 10 2 2 2 2 10 2 2 2 10 2 2 10 2 2 2 2 2 2 2 2 2 10 10 2
left_child=14 2 4 8 52 6 17 12 -3 20 -4 13 -8 25 26 -9 27 18 -6 -5 -10 22 -14 56 -21 -7 33 28 29 -16 -30 48 -33 41 43 36 40 -38 -39 -37 -13 -1 61 -35 -28 -19 47 -47 -32 50 -31 -12 -2 -42 -15 -20 57 58 -23 -60 -61 -25
right_child=1 3 10 19 5 11 7 15 9 -11 51 35 21 54 16 -17 -18 45 55 24 -22 23 -24 42 -26 -27 44 -29 30 49 31 32 -34 34 -36 39 37 38 -40 -41 53 -43 -44 -45 -46 46 -48 -49 -50 -51 -52 -53 -54 -55 -56 -57 -58 -59 59 60 -62 -63
leaf_value=0.13057660595274248 -0.055007217989059248 0.0092428197244779128 0.036118143179806099 0.11178185421452419 -0.014386540705083654 0.067070563710655923 -0.0089597786207863406 0.046070084818186724 -0.0091460154038608427 0.23985819557938479 0.14403915119967287 0.013204777263589179 0.081247076996983802 0.081299298507808301 0.13845479739424807 0.12184485748160651 -0.037807065408273999 0.14114059002760834 0.23799951406497383 0.074423680197675757 0.11292084306005475 0.06163322480043746 0.24457118209529713 0.051498469781277305 -0.0559795446377832 -0.044308578288439475 0.16677289495435085 0.15754566300487258 0.15042479829060496 0.17946463892690792 -0.00052216749072951294 0.052644053369335579 0.16998578089182292 0.091055842912188711 0.03315074508129455 0.042686587866454406 0.056518359920857963 0.11069429081212148 0.17867660885946585 0.32612772675065949 -0.022242260035370526 0.025787908031626547 0.16385881072588096 0.18335006813157562 0.10586769883535373 0.10762014260839903 0.1436350651485899 0.0029308910218146982 0.097288234350423997 0.11727761239134354 0.037330960973669627 0.2054901890360577 0.11002604048513039 0.15291447063260122 0.15203403896957265 0.098060752652733799 0.16551668935197417 0.0048459008647685486 0.49693035309278288 -0.055968928267979584 0.31040375167909579 0.20386454139541052
leaf_weight=1630.5127513483167 139.60702678188682 1328.0415944755077 229.0180215165019 3300.3542394191027 144.36232548207045 418.52944266051054 389.04930810257792 361.25794275477529 174.15878450870514 115.76364794373512 12337.209060519934 58.72171077132225 242.96067662164569 263.85118980705738 5856.7356312274933 3202.5785619728267 49.761236771941185 4924.7949042282999 46.072394095361233 271.86745227873325 176.51373581588268 2156.2759185768664 92.527108516544104 241.68601395189762 86.096513878554106 113.96975483000278 760.0766968652606 5598.8236511647701 12614.481737866998 56.534729421138763 128.59397062659264 102.99878690391779 606.38860484957695 514.43902836740017 363.35871455073357 20.386907629668713 522.65390868112445 621.40085263177752 562.5798921212554 60.178765185177326 28.696911543607712 100.05808904021978 217.84876395761967 151.86621160805225 404.65144357085228 874.54696615412831 935.82872834056616 183.39257537946105 442.28311434388161 923.03076609969139 323.19098941981792 251.12278524041176 44.261998903006315 3971.8658732399344 462.79991021007299 471.08653635531664 66.217677053064108 482.25223250314593 9.5157774612307531 11.873432956635954 14.305824391543863 40.194398142397404
leaf_count=6943 2000 20159 1262 19477 1134 4052 4936 3717 1539 278 31169 425 1694 1592 15553 15848 393 19711 129 2012 798 16808 97 1732 944 2004 2462 10514 26932 113 1022 583 1743 3135 3118 132 5696 2818 1773 143 216 736 950 566 2433 6162 4300 2596 2194 3262 1797 387 422 12111 1879 2823 406 4633 46 128 40 162
internal_value=0.128996 0.119369 0.12528 0.0811903 0.11496 0.116038 0.108284 0.0872389 0.0325337 0.0988476 0.143315 0.132524 0.0630363 0.0911991 0.141778 0.114164 0.144949 0.129187 0.0832678 0.105057 0.0522973 0.0708699 0.126292 0.0651315 0.0430595 0.0432323 0.12021 0.14529 0.142031 0.131483 0.147465 0.118305 0.152948 0.109491 0.0842343 0.141424 0.139845 0.116513 0.142997 0.254404 0.149655 0.124518 0.112735 0.112092 0.145613 0.133577 0.114895 0.0894724 0.0752558 0.100143 0.0584923 0.145265 -0.0152795 0.151658 0.12635 0.110528 0.0564508 0.0537502 0.0645095 0.238261 0.144238 0.0732249
internal_weight=71296.1 40668.3 35215.5 5452.8 22398.1 22214.3 15108.6 7528.54 1794.48 466.436 12817.3 7105.64 3964.71 1259.15 30627.8 3563.84 26702.8 7580.08 661.521 3658.32 350.673 3575.66 335.488 3240.17 357.964 532.499 3924.96 26653.1 21054.2 7159.49 13894.7 1280.26 709.387 2760.23 1029.66 5846.48 5765.92 1706.63 1183.98 80.5657 4059.28 1730.57 499.729 666.305 1164.73 6918.56 1993.77 1057.94 570.877 1302.76 379.726 12588.3 183.869 4000.56 726.651 517.159 2740.44 2674.22 2191.97 35.695 26.1793 281.88
internal_count=284839 201340 156133 45207 123315 120893 88052 51197 22774 2615 32818 32841 31632 9527 83499 19565 64106 36855 4086 22433 2337 26696 1791 24905 2956 6056 19393 63713 53199 20725 32474 5542 2326 14498 6819 23314 23039 10287 4591 275 12752 7679 2844 3701 4895 32769 13058 8758 3216 5172 1910 31556 2422 12327 3471 2952 22061 21655 17022 214 168 1894
is_linear=0
shrinkage=0.05


Tree=6
num_leaves=63
num_cat=0
split_feature=18 9 22 1 0 22 0 23 22 9 14 14 20 18 15 22 18 0 6 18 22 1 15 22 5 22 6 15 22 22 13 12 18 23 22 6 0 14 14 22 15 22 22 22 6 15 6 22 13 13 22 22 13 6 22 15 14 14 14 18 22 15
split_gain=2815.75 2702.4 1658.5 2161.11 1531.85 719.57 664.025 635.609 620.177 616.969 590.179 878.537 1122.6 706.696 680.372 846.396 514.66 500.635 495.851 439.284 593.019 450.562 436.029 529.513 431.167 418.536 394.929 391.302 375.888 371.982 403.064 370.31 366.496 384.864 364.128 412.858 361.406 348.285 415.045 344.009 669.287 337.398 391.361 333.627 327.747 317.627 322.452 396.72 316.346 302.278 450.286 367.547 550.292 302.178 495.158 300.536 300.307 534.431 399.537 297.215 296.091 326.355
threshold=-0.060268340127661524 1.0000000180025095e-35 11.484741500000002 0.025000000000000005 0.015000000000000001 21.154609000000004 0.15500000000000003 1.5000000000000002 18.067750000000004 0.41428571428571431 7.5000000000000009 4.5000000000000009 9.5000000000000018 0.91023613416931248 9.4050000000000029 11.097042000000002 -0.70581670320594803 0.46500000000000002 0.095000000000000015 -0.88545602565320969 7.8672165000000005 0.015000000000000001 10.205000000000002 21.829375000000002 0.1000000000000001 9.1645375000000016 0.12500000000000003 7.3850000000000007 5.8014670000000015 8.226833000000001 98.500000000000014 1.5000000000000002 0.56806474673115548 2.5000000000000004 11.354997500000001 0.19500000000000003 1.0000000180025095e-35 5.5000000000000009 7.5000000000000009 11.097042000000002 5.705000000000001 22.245591500000003 25.692408500000003 6.2710165000000009 0.055000000000000007 13.905000000000003 0.13500000000000004 5.1713500000000012 5.5000000000000009 34.500000000000007 16.134166500000003 22.337608000000003 51.500000000000007 0.025000000000000005 7.2362250000000001 4.8950000000000005 7.5000000000000009 5.5000000000000009 1.5000000000000002 0.8542199457734333 14.972283000000003 4.9050000000000011
decision_type=2 8 2 8 10 2 10 2 2 8 2 2 2 2 2 2 2 8 10 2 2 10 2 2 10 2 10 2 2 2 2 10 2 2 2 10 10 2 2 2 2 2 2 2 10 2 10 2 2 2 2 2 2 10 2 2 2 2 2 2 2 2
left_child=4 2 7 -4 8 17 36 29 19 16 11 -9 13 32 26 53 25 -3 60 31 48 -22 -10 -24 39 37 28 -27 -12 -2 -31 -1 -13 -34 35 -35 -5 -6 45 -14 -41 59 -43 -15 -17 -39 47 -47 -21 -8 -51 -52 -53 54 -16 -28 57 58 -20 -38 -18 -62
right_child=1 5 3 6 9 -7 49 10 22 -11 14 12 24 43 15 44 18 -19 56 20 21 -23 23 -25 -26 27 55 -29 -30 30 -32 -33 33 34 -36 -37 41 38 -40 40 -42 42 -44 -45 -46 46 -48 -49 -50 50 51 52 -54 -55 -56 -57 -58 -59 -60 -61 61 -63
leaf_value=0.12373150311755204 -0.054015296952078032 0.11278714752382568 -0.00062179664940668151 -0.033439190882446644 0.13212060147561228 0.023724055231498901 0.092622802731763362 0.10896248127007371 0.044690945617323341 0.15029051874875921 0.10668266582580821 0.17031532110408565 0.023698946685252048 0.0018238039505158892 0.11410419204245992 0.50745820433439492 0.10387558295584685 0.13478956835053507 0.081898435933434433 0.12769924095176297 0.067122525649416662 0.11167077993073825 0.014321132671576016 0.14796932354440789 0.070146534279171238 0.10694946780180691 0.033380994851597415 0.13995145513279569 0.035320163145913332 -0.055943166603050792 0.44309515002832617 0.062407996666479185 0.17654415883522606 0.034505889304505433 0.33238800578387639 0.11131491922657333 0.07002971293511287 0.11402651846954193 0.13065073914618028 0.56733895081616426 -0.054563643853170946 0.13086797718998558 -0.054870167926049297 0.096836182445115992 0.23115047501882888 0.13244438825588806 0.094485212340553279 -0.022170605040736764 0.099511863059001643 0.20025040192583093 -0.0082689863772848708 0.26360126185621174 -0.057585003250128247 0.13913674419212024 -0.024307269438008202 0.11896491057559284 0.13510320015110433 0.10090743188762924 0.13132780060855959 0.020676851113037298 -0.040070359354633538 0.076559206066862701
leaf_weight=4385.1426449269056 100.64257875457406 6163.1224609278142 1030.2768137678504 100.23900522664189 4941.3914053663611 189.51939807832241 1723.8931515142322 3886.0820262506604 683.19240126013756 2344.503839828074 306.92367449402809 314.58816388994455 864.06970357149839 201.62134049832821 681.80595265701413 18.692558363080025 1701.8010285906494 4453.5731089711189 451.8475491553545 1816.0429098233581 1750.2162464298308 839.99408439174294 101.63846930488944 273.65408812835813 1984.4813921637833 1005.2970500439405 114.1782234609127 8431.0608823671937 462.71917989850044 7.7663671001791963 8.4469423070549965 260.82175247371197 181.6849080696702 227.49639543518424 16.22448318079114 757.45195137709379 924.01195656508207 2678.1746418625116 2429.7909333705902 8.4459332413971442 8.8692560084164125 275.06383651122451 31.620854452252388 170.54695593938231 25.201904311776161 59.510409757494926 1041.5331000760198 136.99226181954145 2202.7191625200212 170.48571707308292 64.135016813874245 42.39282201230526 19.456331796944141 1669.7670977860689 71.380809053778648 1009.608890555799 2617.1400844976306 3520.149522177875 4292.6770358532667 455.41567548364401 70.585864923894405 399.22833947837353
leaf_count=13457 1646 19725 17145 1470 9556 1187 10184 19141 5805 1963 1894 1009 8255 2080 2523 77 6151 8500 1719 5175 10967 2960 781 1123 12770 3075 738 13933 5382 92 46 1065 497 1846 63 2843 8202 7457 4529 18 129 2204 430 1289 39 174 3476 880 9168 587 529 99 179 4404 1127 4149 5349 14801 10920 4977 888 1992
internal_value=0.112939 0.100541 0.0886406 0.0636201 0.120296 0.120293 0.081007 0.09788 0.105066 0.125488 0.098925 0.0913434 0.0768846 0.107025 0.113916 0.13122 0.123766 0.122017 0.115989 0.108507 0.100225 0.0815693 0.0684757 0.111774 0.0572217 0.128664 0.0913718 0.136436 0.0637786 -0.0182097 0.20405 0.120289 0.12235 0.109594 0.0974442 0.0935741 0.0587986 0.122167 0.114417 0.0281209 0.248785 0.0642821 0.111717 0.0453634 0.348817 0.104345 0.0834015 0.0246542 0.112249 0.100643 0.147279 0.0755974 0.162563 0.127278 0.100987 0.110269 0.120343 0.115669 0.12662 0.0537359 0.094175 0.0590365
internal_weight=77177 28741.9 17935.7 4836.99 48435.1 10806.2 3806.71 13098.7 12313.4 36121.7 12981.8 8621.56 4735.48 1869.61 4360.28 2466.85 33777.2 10616.7 13053.4 11254.9 6608.97 2590.21 1058.48 375.293 2865.87 20723.8 1893.43 9436.36 769.643 116.856 16.2133 4645.96 1497.45 1182.86 1001.17 984.948 1786.35 11287.4 6346 881.385 17.3152 1686.11 306.685 372.168 43.8945 3916.21 1238.04 196.503 4018.76 2020.36 296.47 125.984 61.8492 2422.95 753.187 1123.79 10881.8 8264.67 4744.52 1379.43 2171.62 469.814
internal_count=284839 147475 118063 46006 137364 29412 28861 72057 50501 86863 70273 49940 30799 9627 20333 8170 84900 28225 41820 42792 28270 13927 7709 1904 21172 43080 12163 17008 7276 1784 138 14522 6258 5249 4752 4689 17283 26072 16516 8402 147 15813 2634 3369 116 11987 4530 1054 14343 11578 1394 807 278 8054 3650 4887 32789 27440 12639 13179 9031 2880
is_linear=0
shrinkage=0.05


Tree=7
num_leaves=63
num_cat=0
split_feature=18 9 22 6 18 0 14 6 22 14 14 0 17 22 7 0 16 18 18 6 22 22 13 17 5 9 14 14 17 22 7 22 12 14 22 5 18 22 13 22 22 22 5 5 22 17 22 22 7 13 17 14 17 17 13 3 22 3 13 22 22 22
split_gain=2298.73 2379.63 1264.54 1596.24 825.094 749.212 695.661 648.391 723.146 635.854 1333.84 1521.41 602.056 558.218 432.976 426.142 449.401 423.46 397.053 363.692 398.704 358.785 338.628 332.94 403.752 330.691 401.935 668.748 502.359 448.371 357.311 354.245 329.364 324.969 376.523 390.769 324.67 321.231 305.586 302.518 301.844 760.4 432.895 410.221 290.293 289.939 287.62 276.033 275.384 267.346 259.88 259.115 336.621 276.614 386.962 256.899 256.755 252.308 252.181 259.032 246.612 242.259
threshold=-0.70581670320594803 1.0000000180025095e-35 14.972283000000003 0.095000000000000015 0.61559370248597578 0.015000000000000001 1.5000000000000002 0.045000000000000005 6.5249250000000005 7.5000000000000009 5.5000000000000009 0.015000000000000001 -0.82298386589365657 14.972283000000003 0.0059999999999999941 0.15500000000000003 2.5000000000000004 0.4647231720437684 1.0000000180025095e-35 0.67500000000000016 6.176358500000001 18.214358500000007 14.500000000000002 0.70581670320594825 0.0975000000000001 0.64583333333333337 2.5000000000000004 7.5000000000000009 0.17992617227144039 6.3914250000000008 -0.055999999999999904 5.6678330000000008 1.0000000180025095e-35 1.5000000000000002 7.8482300000000009 0.078750000000000112 0.40966402954315184 24.576241500000005 1.0000000180025095e-35 14.429167000000001 11.792933500000002 14.429167000000001 0.1625000000000002 0.40687499999999999 15.570750000000002 -0.88545602565320969 25.389991500000004 5.9309165000000013 0.0010000000000000057 5.5000000000000009 -0.88545602565320969 8.5000000000000018 0.06026834012766185 0.70581670320594825 8.5000000000000018 0.48500000000000004 5.8269830000000011 0.39500000000000007 18.500000000000004 17.010100000000005 9.1645375000000016 8.367892000000003
decision_type=2 10 2 8 2 10 2 8 2 2 2 10 2 2 8 8 2 2 2 10 2 2 2 2 8 10 2 2 2 2 10 2 10 2 2 10 2 2 2 2 2 2 10 8 2 2 2 2 10 2 2 2 2 2 2 10 2 10 2 2 2 2
left_child=5 2 4 14 9 37 21 8 38 10 33 32 48 25 22 16 58 18 -14 20 -7 45 -4 -11 39 26 -8 28 29 31 55 -28 -12 34 -2 -36 -31 57 56 47 -9 43 -43 51 -18 -3 -22 -25 -13 -39 -34 53 -53 -42 -55 -30 -6 -1 59 -5 -26 -37
right_child=1 6 3 15 7 19 13 40 -10 23 11 12 17 -15 -16 -17 44 -19 -20 -21 46 -23 -24 24 60 -27 27 -29 30 36 -32 -33 50 -35 35 61 -38 49 -40 -41 41 42 -44 -45 -46 -47 -48 -49 -50 -51 -52 52 -54 54 -56 -57 -58 -59 -60 -61 -62 -63
leaf_value=0.10109936315194107 0.03254362272668556 -0.043518664211910238 -0.028258811480968413 0.029413066912598554 0.17640363326485883 0.10353288394193183 0.12045557368029479 0.086954125117528328 -0.0088642175600552806 0.11458860926792397 0.0017182118216568878 0.030954399494214392 0.095594094146773168 0.076779967110038136 0.063032218705635648 0.09896660360992568 -0.0029102042726020295 0.13138538723088841 0.046953682565302197 0.13313992583517351 0.11866831562825107 0.12316099173976247 0.027289350193336649 0.0992096128735864 0.10032852874255777 0.13161120155529168 0.069390947070852957 0.12029769003602418 0.022595765881405452 0.069490018263159342 0.12624213843379337 0.0051533683732672237 -0.057944214992905134 0.10683703975963865 0.28124279241377298 0.18515603861450669 0.11580635043226405 0.28378417647833037 0.058444072478003151 0.24115345666309984 -0.0038264783302824727 0.0353388136174742 0.2032751970489057 0.22483006016929397 0.1516097792711755 0.055324498563888352 -0.00038130069374927195 0.042930130038237035 0.073318946017931513 0.0055214156987910077 0.11048686402889062 0.14831580670777342 -0.057210991205741336 0.23931211060561619 -0.057084890057158381 0.10287822756507957 -0.01068516702965875 0.055602117899244331 0.021447078871718525 0.085203286749445273 0.16369213456366746 0.059522185252100082
leaf_weight=7786.1851527914405 327.10086154565215 115.85937782377005 400.20889374613762 303.43933662772179 102.57997389882803 6922.3693142980337 5613.4794676825404 5934.5445080399513 427.09452269226313 5092.3232279121876 811.46500029042363 590.17203314229846 2236.4626813419163 1128.7149260267615 546.45972718670964 1964.5153111293912 35.835722267627716 648.32030944898725 516.44450047239661 2607.9137898683548 13788.640416264534 113.4805770739913 872.50228841230273 339.42726472765207 720.68433402851224 2107.0760684609413 1015.9821660593152 3199.3705786392093 158.5975671634078 666.41053706407547 1211.6847514584661 272.09543892741203 27.814836241304874 6693.5616951212287 30.851152949035168 50.914931878447533 875.38609670102596 9.2301945164799672 744.31729619950056 24.467314619570971 475.9966998398304 57.339151997119188 116.01622667908669 25.913607887923717 200.21541970223188 206.29173820465803 50.921763129532337 608.37738094851375 1095.9002109281719 133.15299775451422 129.65389313548803 75.862165980041027 27.017844121903181 28.337107624858618 18.010945752263069 268.08122672140598 22.330574914813042 317.13083872944117 425.09873445704579 661.86845832690597 195.13727315887809 155.74945592880249
leaf_count=26340 1767 735 6254 2478 367 16816 11267 30051 7796 13507 7767 4059 9091 5142 4750 9208 205 2132 3151 2654 24116 353 10636 1334 2405 1892 3267 5808 721 2378 2691 1295 246 22111 68 89 2520 24 5715 65 4410 558 333 64 438 920 275 4796 6044 1074 567 317 269 117 183 666 188 1235 3487 4455 466 706
internal_value=0.100387 0.0937903 0.0861153 0.0639636 0.0903425 0.110969 0.109075 0.0768033 0.0444118 0.0957165 0.0893083 0.0719833 0.0829202 0.11072 0.0258058 0.0832942 0.0643644 0.0950308 0.0864692 0.115541 0.11333 0.0467076 0.00982202 0.107939 0.0900062 0.113209 0.11029 0.102847 0.0903523 0.0775958 0.112386 0.0558213 0.0145599 0.103764 0.0673368 0.115253 0.095787 0.0980106 0.0705889 0.067566 0.0830157 0.054668 0.147728 0.0298921 0.128152 0.0197763 0.11823 0.0630849 0.0584902 0.0235602 0.0807357 0.0218125 0.0943414 0.00752734 0.124132 0.073037 0.142957 0.0993188 0.0535351 0.0676659 0.11383 0.090474
internal_weight=82328.4 50712.8 33760.3 5410.14 28350.2 31615.5 16952.5 8055.36 1296.32 20294.8 13314.4 6056.23 5087.3 16516.9 1819.17 3590.97 1626.46 3401.23 2752.91 23369.8 20761.9 435.632 1272.71 6980.42 1888.09 15388.2 13281.1 7667.61 4468.24 2829.87 1638.36 1288.08 968.934 7258.18 564.616 237.516 1541.8 8245.7 869.228 972.272 6759.04 824.494 173.355 651.138 236.051 322.151 13839.6 947.805 1686.07 142.383 157.469 625.225 102.88 522.345 46.3481 426.679 124.911 8103.32 1390.41 965.308 915.822 206.664
internal_count=284839 212305 172650 41911 130739 72534 39655 50368 14066 80371 57798 33057 24477 37647 21640 20271 11063 14374 12242 43861 41207 2008 16890 22573 9066 32505 30613 19346 13538 9460 4078 4562 8580 24741 2630 863 4898 28673 6270 6195 36302 6251 891 5360 643 1655 24391 6130 10103 1098 813 5296 586 4710 300 1387 555 27575 10420 6933 2871 795
is_linear=0
shrinkage=0.05


Tree=8
num_leaves=63
num_cat=0
split_feature=18 9 21 0 0 9 21 21 22 3 22 7 21 0 21 22 21 22 18 2 17 18 21 21 22 18 22 21 2 13 5 15 22 13 21 5 22 13 21 1 2 15 13 22 13 22 22 17 22 22 13 22 20 13 21 21 17 18 21 22 15 21
split_gain=2039.25 1860.6 1368.19 1539.75 1108.1 545.45 536.437 821.111 1136.14 694.943 516.927 484.02 482.399 401.754 396.743 383.762 381.163 364.218 418.83 407.764 348.334 341.287 567.254 509.71 346.292 333.167 327.69 324.75 318.453 313.438 311.636 308.35 539.049 299.247 298.211 298.109 294.693 504.837 305.606 290.972 288.447 283.305 315.945 278.346 344.776 277.289 317.586 349.656 335.838 322.595 300.32 328.59 280.049 283.461 275.512 266.984 316.973 266.366 255.98 438.935 254.001 301.537
threshold=-0.060268340127661524 1.0000000180025095e-35 63.352958500000007 0.015000000000000001 0.015000000000000001 0.2678571428571429 59.474634000000009 59.801743000000009 5.9801750000000009 0.025000000000000005 21.154609000000004 0.056000000000000084 70.627252000000013 0.46500000000000002 63.660025000000012 4.7008665000000009 59.439881500000006 8.226833000000001 0.61559370248597578 0.025000000000000005 0.98182534576205316 -0.88545602565320969 62.919575000000002 70.541125000000008 18.214358500000007 1.0000000180025095e-35 25.389991500000004 59.277692000000009 0.37500000000000006 42.500000000000007 0.011250000000000015 6.1750000000000007 17.070984000000006 3.5000000000000004 63.903362500000007 0.23500000000000024 5.8269830000000011 51.500000000000007 60.784552500000011 0.015000000000000001 0.085000000000000006 12.905000000000003 8.5000000000000018 5.589392000000001 26.500000000000004 25.692408500000003 22.245591500000003 0.8542199457734333 15.4356755 17.026891000000003 17.500000000000004 18.517150000000004 49.500000000000007 51.500000000000007 68.090548000000013 59.297535000000003 -0.29696027566504662 -0.78574730703237872 64.73488500000002 5.8581415000000012 14.405000000000003 59.22106800000001
decision_type=2 8 2 10 10 8 2 2 2 10 2 8 2 10 2 2 2 2 2 10 2 2 2 2 2 2 2 2 10 2 10 2 2 2 2 10 2 2 2 10 10 2 2 2 2 2 2 2 2 2 2 2 2 2 2 2 2 2 2 2 2 2
left_child=4 2 6 25 12 16 9 8 -8 -2 13 14 21 55 -5 -9 60 18 33 -19 -11 23 27 24 58 -4 31 57 45 -21 -10 32 35 -17 -30 -18 38 -38 43 -24 -13 -33 -43 -20 -45 46 48 52 -16 -50 51 -51 53 -48 -15 56 -3 -23 59 -1 -6 -62
right_child=1 10 3 11 5 -7 7 15 30 20 -12 40 -14 54 28 17 26 19 36 29 -22 22 39 -25 -26 -27 -28 -29 34 -31 -32 41 -34 -35 -36 -37 37 -39 -40 -41 -42 42 -44 44 -46 -47 47 -49 49 50 -52 -53 -54 -55 -56 -57 -58 -59 -60 -61 61 -63
leaf_value=0.10349491783453434 0.0081750037746476569 -0.060396171683437111 0.077958365187910411 0.0089763595649233318 0.090600777294178036 0.11816733705670351 0.089808700869262736 -0.032342472930938136 0.036375348723240733 0.083338304523090961 0.016764135733554664 0.1345179498316523 0.0042444378711448058 0.11079433455594034 0.063493730117696892 0.10299609807093646 0.079931960438209715 -0.056900649937035086 0.048448742865207034 0.16147541958564662 -0.040880884273810481 0.13083532712573667 0.052822635636717533 0.20726075247687414 0.048866238802570607 -0.0056210085881924152 0.013921464707893419 0.092793634283445836 0.17592404462812386 -0.00031073103748514332 0.19592356316314669 0.10465646454176972 0.033285706708189582 0.077874114601357083 0.080389369962530599 0.12107769992948521 0.034703257406990332 0.14963788518020307 0.091734071191254429 0.084699553777911982 0.07675756787682661 0.088644101242704484 0.10539657946863386 0.11569474669233566 -0.058055887370984882 -0.055632878720771897 0.13162406632287843 -0.021262786669967129 -0.0076286211742854415 0.09707568574604554 -0.0077147730400326927 0.019255990831446607 -0.0098652051036758597 -0.023217324051549956 0.055593916372371266 0.090891330027983053 0.086565848550741731 -0.0014740450995305429 0.10720422864819434 0.063304029134101339 0.014663292241446689 0.082511348330814901
leaf_weight=1490.2019542083144 541.45716537162662 64.341022178530693 133.55690462514758 378.09286791831255 1057.5533877909184 3868.3872481435537 987.43518268316984 75.73930412530899 32.940647050738335 1088.1205431334674 203.93151774629951 333.96362106129527 187.32239716872573 4636.7286981120706 2769.4991423487663 2078.6119112707675 1295.8349336124957 26.972420446574688 1202.5863097161055 298.57817012816668 59.523516193032265 49.645309492945671 2317.7978613078594 98.050864234566689 425.01711592078209 1111.9202026613057 111.36083106324077 4303.0387921407819 102.23950748890638 33.273228019475937 431.79822032898664 20619.942717712373 450.91973316669464 2758.5308747403324 406.30351557582617 666.70617483556271 1032.8599729537964 105.27942019701004 1447.2957335412502 1035.7939833961427 612.67928867787123 7436.1862621679902 4528.3358546793461 309.17394813150167 31.456026487052441 53.193663015961647 413.82656679302454 58.031319573521614 364.15777114406228 353.57742096856236 174.34145569428802 220.08264602720737 45.341904066503048 31.830393206328154 237.63031904399395 6971.0091954097152 85.375837713479996 162.72215995192528 2542.5190656706691 1248.4815395325422 305.40642793476582 353.08183612674475
leaf_count=3535 4936 474 1412 3124 2940 3583 3882 547 207 4684 1187 1275 1647 7054 18907 6160 5137 318 6448 564 474 213 13837 204 2397 18236 632 12781 292 170 489 40128 2821 11512 2113 1616 6695 461 6558 3645 2857 18215 9413 1210 286 692 2317 532 3600 2402 1904 1983 474 342 921 19418 358 1192 6470 4580 1375 1003
internal_value=0.0902527 0.0802965 0.0709491 0.0541519 0.0961481 0.100307 0.0810779 0.0851575 0.120149 0.0548666 0.0957013 0.0641695 0.083938 0.0970433 0.0583588 0.0797519 0.0984307 0.0806624 0.0786855 0.130058 0.0768956 0.0850298 0.0782455 0.0942275 0.0922853 0.0033415 0.0995553 0.0898148 0.0620987 0.145254 0.184615 0.0998278 0.0825831 0.0886695 0.099596 0.0939098 0.0669882 0.0453349 0.0752292 0.0626682 0.0971347 0.101105 0.0949846 0.0597501 0.0996495 0.057846 0.0592084 0.0948023 0.0541739 0.0309656 0.0497548 0.0672204 0.10852 0.120565 0.108103 0.0894725 0.0234087 0.029456 0.0957795 0.0851731 0.0754216 0.0510435
internal_weight=86857.6 32303.3 20104.3 7562.64 54554.3 40693.7 12541.6 10852.5 1452.17 1689.1 12199 6317.16 13860.6 11995.1 5370.52 9400.36 36825.3 9324.62 8965.79 358.824 1147.64 13673.3 7869 5804.27 5706.22 1245.48 35109.3 4515.41 4992.43 331.851 464.739 34997.9 2413.46 4837.14 508.543 1962.54 4128.65 1138.14 2990.51 3353.59 946.643 32584.5 11964.5 1543.22 340.63 4483.88 4430.69 549.03 3881.66 1112.16 748.002 573.66 490.999 445.657 4874.36 7120.73 149.717 212.367 5281.2 2738.68 1716.04 658.488
internal_count=284839 147475 118063 62462 137364 86863 55601 45507 4578 10094 29412 42814 50501 28225 38682 40929 83280 40382 39330 1052 5158 48854 31668 17186 16982 19648 77962 14186 35558 734 696 77330 9574 17672 2405 6753 21658 7156 14502 17482 4132 67756 27628 7944 1496 33153 32461 3665 28796 9889 6289 4385 3133 2659 7975 20250 832 1405 14585 8115 5318 2378
is_linear=0
shrinkage=0.05


Tree=9
num_leaves=63
num_cat=0
split_feature=18 4 21 0 0 23 21 18 5 22 22 22 5 21 7 11 21 8 15 4 2 21 2 21 14 17 22 18 22 15 21 14 14 22 21 15 15 20 17 21 21 22 22 22 14 20 18 15 7 22 21 20 22 7 5 7 18 21 21 22 21 22
split_gain=1788.18 1600.4 1186.58 1385.07 822.567 693.271 636.368 478.169 464.578 516.501 452.913 408.823 389.891 364.872 360.578 427.926 359.162 357.05 342.875 318.407 300.373 295.559 280.939 347.627 271.859 268.599 267.015 332.705 662.356 459.223 477.953 312.959 356.896 301.503 272.859 264.674 259.105 295.88 258.042 593.01 246.288 244.348 244.285 606.585 257.461 242.986 242.046 239.469 238.178 237.551 477.426 275.494 234.531 230.849 223.604 220.808 277.458 274.556 247.775 286.633 218.988 217.75
threshold=-0.2393156642875576 0.43124999999999997 63.447470000000003 0.015000000000000001 0.015000000000000001 1.5000000000000002 63.660025000000012 1.0000000180025095e-35 0.11625000000000012 15.262750000000002 8.2672835000000013 4.7008665000000009 0.046250000000000062 70.627252000000013 0.0070000000000000184 1.0000000180025095e-35 59.776449500000005 1.0000000180025095e-35 4.7950000000000008 0.0075000000000002252 0.13500000000000004 62.919575000000002 0.12500000000000003 69.952617500000017 1.5000000000000002 -0.61559370248597534 5.8581415000000012 -0.78574730703237872 6.5249250000000005 15.205000000000002 59.801743000000009 3.5000000000000004 7.5000000000000009 5.1599165000000005 70.541125000000008 3.8050000000000002 14.005000000000001 45.500000000000007 0.98182534576205316 65.782682500000007 63.05535600000001 8.226833000000001 11.425056500000002 11.354997500000001 2.5000000000000004 48.500000000000007 0.5163939593874618 10.795000000000002 -0.14999999999999977 6.176358500000001 60.233157500000011 3.5000000000000004 18.214358500000007 0.00099999999999997248 0.036250000000000081 0.037000000000000054 -0.91023613416931226 60.616276000000006 60.402950000000011 5.7253000000000016 63.118851000000006 8.6790420000000008
decision_type=2 10 2 8 10 2 2 2 8 2 2 2 10 2 8 2 2 8 2 8 10 2 8 2 2 2 2 2 2 2 2 2 2 2 2 2 2 2 2 2 2 2 2 2 2 2 2 2 8 2 2 2 2 10 10 8 2 2 2 2 2 2
left_child=4 2 5 7 13 41 -5 -4 9 38 11 -7 -12 26 15 21 25 18 -18 -16 -10 36 23 -11 -3 -6 31 28 -28 -29 -31 33 -33 -1 52 -25 37 -13 -8 -40 -23 -2 43 44 54 -37 -24 -15 -44 51 -51 -21 -30 -54 -9 56 57 58 59 -20 -14 -56
right_child=1 24 3 6 16 10 8 42 20 22 12 14 60 47 19 -17 17 -19 55 49 -22 40 46 35 -26 -27 27 29 34 30 -32 32 -34 -35 -36 45 -38 -39 39 -41 -42 -43 48 -45 -46 -47 -48 -49 -50 50 -52 -53 53 -55 61 -57 -58 -59 -60 -61 -62 -63
leaf_value=0.072470971656347583 -0.055167383787622863 0.031754682375457345 0.059397669978950463 0.0088223865824360141 0.04834637708976057 -0.027906677349426937 0.060289059680592075 -0.05412552153147876 0.090616629523076628 -0.013639015456965853 -0.019367001501354925 0.074753959505909282 0.14963292906388251 -0.025797780072781412 0.14340229974281601 0.096370787091048446 0.043512915092116237 0.10311319151730849 0.098224690642380166 0.042173662261691863 0.066646075096530588 -0.033832471818932723 0.12532009651940562 -0.055087429085888401 0.096298444786611967 0.083151531608508286 0.019845253243216232 0.051337470224464443 0.086973975693071193 0.0031330911563526333 0.12519577683049565 0.045320942144176424 0.088796822069244469 0.11187823866887758 0.15846073286171522 0.079480387779633246 0.036491334326275375 0.049714918056328876 0.0046474744772544143 0.19083603836677668 0.049360826466162952 0.11841759403662196 0.084348014794000878 0.29413183786052843 -0.0059787591787829435 -0.054597461295761207 0.014620009578389832 0.10928865520493683 -0.021079947229013948 0.15382643832397203 0.085345135313838194 0.0803736124319442 0.039544862434124826 0.12698260796215341 -0.059864968436911525 0.099485329096953012 0.084321074294017889 0.098888840654471302 0.016820158796072474 0.027482403815600482 0.098287681677674266 0.17301544104129674
leaf_weight=680.52318452298641 132.88739839196205 167.00934811681509 449.11894176527858 508.16118762269616 705.09373185038567 95.670875035226345 1315.6370624639094 20.610090672969818 1861.0468068346381 549.98678600415587 53.713810373097658 6000.0704186670482 353.88050970435143 137.04800612851977 213.38618223741651 1255.1701145730913 383.05031047388911 6967.0276893526316 643.3292184472084 509.17297831177711 4389.1780485585332 127.15343459323049 113.43538675457239 53.732996493577957 7052.0642344504595 2592.1953739449382 420.74817931652069 2592.0420493707061 4667.9585928469896 98.558912575244904 430.47047459334135 712.80664015561342 1397.5605760067701 1692.6249172985554 123.47222144901752 299.96952822059393 632.1105933226645 1468.6155962273479 67.0814976580441 117.98089287430048 296.19338158145547 23.922990053892136 57.1303496286273 20.99347011372447 279.13590528815985 38.081341791898012 87.443698525428772 43.132077127695084 859.85036811605096 317.64200975000858 1280.4994642212987 6461.9842155948281 485.7118502035737 89.376999907195568 12.116473618894814 6196.7348977103829 13526.537586819381 7802.8047834858298 173.87425647675991 184.1830530166626 502.5952446013689 58.505270000547171
leaf_count=1703 1934 757 3788 3619 2318 654 9415 311 8070 6439 550 23095 203 1364 598 3759 2225 8496 1259 2745 19775 1261 506 706 12030 6010 2081 13036 13005 646 765 3319 3220 2951 269 2513 2681 8056 530 484 2000 162 223 102 3981 546 709 167 14329 381 4161 20219 2804 327 98 10952 31731 11997 626 809 1164 205
internal_value=0.0818638 0.0736104 0.0686562 0.0556263 0.0878259 0.0760278 0.0632423 0.0148835 0.0663517 0.0487793 0.076867 0.0751868 0.111307 0.0772178 0.0757182 0.069114 0.091501 0.0929524 0.0905038 0.0830717 0.0737835 0.0651005 0.0234502 0.012 0.0948053 0.0757088 0.0781687 0.07316 0.080256 0.0600021 0.102455 0.0881206 0.0741122 0.100578 0.0849924 0.0479921 0.0672289 0.0698304 0.0680651 0.123346 0.0243735 -0.0286853 -0.000396973 0.0326741 0.017854 0.0643766 0.0771318 0.00653964 -0.0145115 0.0815694 0.0989563 0.0775835 0.0832622 0.0531339 0.0907735 0.0911348 0.0888175 0.0957257 0.0710786 0.0824793 0.119503 0.13306
internal_weight=90849.8 38102.9 30883.9 11159.2 52746.9 19724.7 9401.74 1757.46 8893.57 2643.35 19567.9 18657.7 910.19 13572 18562 9779.31 39174.8 35877.5 28910.5 8782.68 6250.22 8524.14 1142.65 941.771 7219.07 3297.29 13391.9 8908.34 5787.27 3121.07 529.029 4483.52 2110.37 2373.15 5366.52 391.784 8100.8 7468.69 1500.7 185.062 423.347 156.81 1308.34 391.361 370.368 338.051 200.879 180.18 916.981 8569.3 1598.14 6971.16 5243.05 575.089 91.2318 28527.5 22330.7 8804.19 1001.39 827.512 856.476 70.6217
internal_count=284839 162759 149972 76349 122080 73623 53312 23037 49693 21848 71527 69610 1917 45657 68956 40852 76423 68095 59599 28104 27845 37093 11419 10204 12787 8328 44126 32933 18486 14447 1411 11193 6539 4654 16405 3765 33832 31151 10429 1014 3261 2096 19249 4697 4595 3059 1215 1531 14552 27506 4542 22964 16136 3131 614 57374 46422 14691 2694 2068 1367 303
is_linear=0
shrinkage=0.05


Tree=10
num_leaves=63
num_cat=0
split_feature=18 9 15 5 22 14 14 21 23 5 9 2 18 22 21 5 6 21 21 22 22 14 14 20 22 21 14 15 21 21 2 4 17 15 21 21 21 15 14 1 1 12 21 5 4 15 21 4 3 14 15 21 21 3 3 18 5 21 22 15 22 21
split_gain=1692.81 1643.02 1010.51 1372.76 778.135 748.788 859.481 761.284 501.077 480.809 468.87 453.563 382.694 378.557 369.255 328.988 319.144 407.946 691.761 331.442 326.918 315.56 543.158 517.436 419.531 405.134 339.555 338.856 308.241 300.754 296.773 282.067 266.777 262.091 260.676 261.745 371.43 259.559 254.511 333.413 248.156 247.63 245.86 274.721 244.581 239.78 238.596 237.435 235.465 232.007 291.761 253.514 225.029 237.277 219.286 216.944 222.58 212.745 597.552 310.128 217.846 235.33
threshold=-0.70581670320594803 1.0000000180025095e-35 10.995000000000003 0.04875000000000005 6.5249250000000005 7.5000000000000009 5.5000000000000009 69.515160000000009 2.5000000000000004 1.0000000180025095e-35 0.64583333333333337 0.015000000000000001 0.91023613416931248 27.267841500000003 59.277692000000009 0.33162500000000011 0.49500000000000005 60.565174000000006 60.423401000000005 5.0292250000000012 5.3874750000000011 7.5000000000000009 5.5000000000000009 9.5000000000000018 6.3914250000000008 63.032665000000009 1.5000000000000002 4.1950000000000012 59.439881500000006 59.116892000000007 1.0000000180025095e-35 0.082500000000000323 0.17992617227144039 9.6950000000000021 66.357475000000008 65.493365000000026 62.664110000000001 9.8950000000000014 5.5000000000000009 0.025000000000000005 0.055000000000000007 1.0000000180025095e-35 69.832092500000016 0.43812500000000021 0.31250000000000039 7.5050000000000008 60.107102000000005 0.005000000000000001 0.015000000000000001 6.5000000000000009 4.995000000000001 59.72249200000001 70.529125000000008 0.025000000000000005 1.2050000000000003 0.4647231720437684 0.013750000000000014 69.486830000000012 20.608350000000005 9.8950000000000014 9.1645375000000016 63.73280900000001
decision_type=2 8 2 10 2 2 2 2 2 10 10 8 2 2 2 10 10 2 2 2 2 2 2 2 2 2 2 2 2 2 10 10 2 2 2 2 2 2 2 8 10 10 2 10 10 2 2 10 10 2 2 2 2 8 10 2 10 2 2 2 2 2
left_child=9 2 3 4 28 6 8 30 -4 33 14 55 38 16 37 -10 17 18 20 -20 46 22 26 31 44 -26 42 -28 -2 -7 -8 -24 -22 -1 35 36 -31 -3 48 -40 -27 -35 54 -44 -25 -41 -11 -13 -5 51 -51 -30 53 -36 -16 56 -6 60 -59 -60 61 -19
right_child=1 10 5 12 11 29 7 -9 15 13 -12 47 -14 -15 21 -17 -18 57 19 -21 32 -23 23 24 25 40 27 -29 49 34 -32 -33 -34 41 52 -37 -38 -39 39 45 -42 -43 43 -45 -46 -47 -48 -49 -50 50 -52 -53 -54 -55 -56 -57 -58 58 59 -61 -62 -63
leaf_value=0.036610115809338491 0.012737727455746948 0.061214099112685785 -0.00011046611506800376 0.10427994812387771 0.0041034818943415947 0.011888438717287078 0.003751365492431841 0.14007218935754628 0.08234645046812937 0.09993791114822094 0.10174402546409221 0.13395179649114561 0.047811448844626132 -0.059744590575062366 0.0049373362944147127 -0.066065764250141573 0.097817222775302595 0.084107743468174082 0.050223748347109236 -0.044537848729460552 0.053342145276117303 0.091302567318837097 -0.062480568686063734 0.053561133673147188 0.10747459706852774 -0.020707568305925236 0.028616294889173284 0.087517431971982571 0.10315489160565663 0.095424311816334845 0.045463586835109829 0.098225904702113995 0.081247096679148145 0.07950324776949759 -0.0092710450871775919 0.13162720086629484 0.062053040501640025 -0.042726428527879362 0.027588132994506045 0.069642018778247855 0.060297259656140412 0.022020891986866412 0.14884760589399712 -0.028481798877911742 0.013162475222486628 0.050489741730810368 0.057997576191648817 0.03689673459080816 0.071437494061434612 -0.060359460995902274 0.089371965250439209 0.041857986069997744 0.19400284874493934 0.075400468989813674 0.1159530496613403 -0.016587435461440019 0.053613229980734936 0.010127341202856043 0.065202251878622594 0.11082297608400896 0.09156349210460174 0.057673068599613068
leaf_weight=736.20307422429323 349.45961721241474 142.25472287088633 198.1896450817585 601.0813510119915 816.91292240470648 129.63040130212903 506.6923402287066 197.2281708791852 4492.1893434748054 1641.3951195180416 2395.4209452569485 66.153322089463472 3134.003113809973 45.415867000818253 303.51161415874958 37.653494596481323 4080.1470663547516 8421.5386132374406 193.00794196128845 176.801603525877 1868.3875228241086 3979.5726359151304 28.10032943636179 722.98592983931303 481.2289499565959 100.47871942818165 252.54825941473246 7368.1981249973178 196.49850289523602 4080.9061944000423 2691.6286901608109 963.37454415857792 1581.4680574014783 1494.3580912053585 152.02210571244359 379.72513201460242 1047.9345116503537 103.95488978922367 672.50232130289078 5786.1061546169221 1601.2013232409954 214.21634005010128 87.884728811681271 29.063671782612801 777.61362133175135 2277.4746443554759 427.41245989501476 1328.5465227290988 5928.9422888197005 33.858300946652889 831.99379354715347 1191.5136237628758 24.43615361303091 181.55690484493971 52.120324857532978 766.78752838820219 314.36879735067487 343.71936236321926 959.19885941594839 609.07387924194336 12441.235774748027 935.43543636798859
leaf_count=3481 2457 536 1045 1911 8896 950 3977 318 11654 2759 2002 584 19042 354 1410 214 4552 15665 532 837 5749 6838 193 2250 626 623 945 14056 750 7357 12877 1802 3893 4617 820 560 3656 648 4128 21382 5180 829 134 152 2756 9924 1085 11795 21796 250 3036 6072 29 459 119 13652 2177 1740 3491 1157 19757 2189
internal_value=0.0744774 0.0691692 0.0631804 0.0569984 0.0360029 0.0738179 0.0639255 0.0447345 0.0777081 0.0829611 0.0810345 0.0198519 0.0637262 0.0845133 0.0781153 0.0811128 0.0847078 0.0829007 0.0711219 0.00491934 0.0755581 0.079009 0.0751773 0.0616086 0.0529784 0.066969 0.0830151 0.0855655 0.0564312 0.0872199 0.0388553 0.0936712 0.0661342 0.06155 0.0888845 0.0915714 0.0886058 0.0173282 0.0669934 0.0614118 0.0555142 0.0722963 0.0418885 0.104778 0.0326265 0.0642327 0.0912731 0.0415002 0.0744606 0.0632058 0.0835169 0.0505357 0.047542 0.0368131 0.0212075 0.00394479 0.0178616 0.085826 0.0698341 0.0829201 0.0872287 0.081465
internal_weight=93974.5 57805.5 38416 24296.2 5896.09 14119.8 8123.58 3395.55 4728.03 36169 19389.5 3292.77 18400.1 33724.2 16994.1 4529.84 33678.8 29598.7 5888.47 369.81 5518.66 16747.9 12768.3 4674.98 3683.51 2182.91 8093.33 7620.75 2603.32 5996.21 3198.32 991.475 3449.86 2444.78 5866.58 5508.57 5128.84 246.21 15266.1 8736.08 1701.68 1708.57 472.58 116.948 1500.6 8063.58 2068.81 1394.7 6530.02 2253.86 865.852 1388.01 358.015 333.579 355.632 1898.07 1131.28 23710.2 1911.99 1568.27 21798.2 9356.97
internal_count=284725 212038 171768 127852 49669 43916 30085 17172 12913 72687 40270 37104 78183 63760 38268 11868 63406 58854 14855 1369 13486 37084 30246 13430 11435 6429 16816 15001 12565 13831 16854 1995 9642 8927 12881 11573 11013 1184 59141 35434 5803 5446 1815 286 5006 31306 3844 12379 23707 10108 3286 6822 1308 1279 1529 24725 11073 43999 6388 4648 37611 17854
is_linear=0
shrinkage=0.05


Tree=11
num_leaves=63
num_cat=0
split_feature=9 15 20 5 5 4 14 14 9 5 4 7 22 15 7 13 20 20 20 7 20 1 22 13 7 0 22 20 5 23 15 20 14 23 22 5 22 22 5 4 0 4 13 22 5 5 13 2 15 20 15 2 22 14 14 22 22 4 23 22 14 22
split_gain=1233.83 1134.8 923.196 548.158 546.733 489.127 562.405 1320.35 484.496 448.542 433.981 399.722 399.518 380.443 351.944 344.286 325.291 294.381 286.4 282.217 275.826 266.895 261.749 254.946 389.191 252.718 320.667 371.656 249.906 240.517 236.313 236.181 237.454 305.396 234.494 231.997 226.309 362.743 264.62 217.679 286.81 250.667 218.659 216.035 224.405 208.048 272.879 220.29 316.013 252.409 234.763 201.93 200.157 199.245 469.399 441.535 236.337 254.426 231.451 229.793 200.506 198.393
threshold=1.0000000180025095e-35 6.1750000000000007 45.500000000000007 0.04875000000000005 0.30750000000000038 0.0049999999999999767 7.5000000000000009 5.5000000000000009 0.73214285714285732 0.04875000000000005 0.0024999999999999732 0.017000000000000032 6.0423915000000008 8.7050000000000018 0.093500000000000083 70.500000000000014 34.500000000000007 22.500000000000004 2.5000000000000004 0.0040000000000000435 37.500000000000007 0.30500000000000005 17.541222500000003 15.500000000000002 0.059000000000000087 0.075000000000000025 5.3423085000000006 22.500000000000004 0.13125000000000028 10.500000000000002 3.7050000000000005 12.500000000000002 2.5000000000000004 3.5000000000000004 27.267841500000003 0.016250000000000014 8.2672835000000013 7.8672165000000005 0.29562500000000019 0.055000000000000139 1.0000000180025095e-35 0.052500000000000026 7.5000000000000009 23.136133000000005 0.010000000000000021 0.0024999999999999519 54.500000000000007 1.0000000180025095e-35 9.4050000000000029 21.500000000000004 6.5050000000000008 0.095000000000000015 5.3482000000000012 6.5000000000000009 5.5000000000000009 6.3914250000000008 6.6357420000000014 0.37874999999999998 2.5000000000000004 7.8672165000000005 1.5000000000000002 20.715891500000001
decision_type=10 2 2 8 8 10 2 2 10 10 10 8 2 2 8 2 2 2 2 10 2 10 2 2 8 10 2 2 10 2 2 2 2 2 2 10 2 2 10 10 10 10 2 2 10 10 2 8 2 2 2 10 2 2 2 2 2 10 2 2 2 2
left_child=1 3 4 11 5 9 7 15 20 45 -11 31 18 -12 39 34 43 -8 -9 21 -2 -18 36 -4 -25 26 35 -28 52 -19 -13 -1 33 -33 -7 -20 37 -21 -38 41 -41 42 -5 44 -14 47 -47 48 50 -50 -3 -37 -22 54 58 -56 -57 -58 -30 -59 -60 -31
right_child=8 2 23 14 -6 6 17 12 -10 10 13 30 16 -15 -16 -17 19 29 25 22 28 -23 -24 24 -26 -27 27 -29 53 61 -32 32 -34 -35 -36 51 38 -39 -40 40 -42 -43 -44 -45 -46 46 -48 -49 49 -51 -52 -53 -54 -55 55 56 57 59 60 -61 -62 -63
leaf_value=-1.5636313340810974e-05 0.078845927361737955 0.10026384693471609 0.052750224259964923 0.10154733690445278 0.037323899344184445 0.077941804959414385 0.064546344778464798 -0.036501887564249054 0.096423412900109529 0.013047072555759981 0.23994812827575915 -0.059476463923646243 0.021089285306971087 0.030733079527748744 0.098757244417523024 0.020051160506055321 0.008249546775673567 0.086317262720715715 0.11380435103576901 0.040615445896903891 0.070113817545642276 0.092885146352134601 0.10495084982611827 0.012026275265999715 0.090566580785799988 0.055560000649719048 0.04727082364771517 -0.022052896269946776 -0.016657620881381476 -0.041917217157891512 0.091621764837729852 0.11140516001187067 0.056006782891793665 -0.0033411825782037221 -0.059796852199954946 0.018222732940993087 0.02018662123397465 0.16064815380416209 0.18471768930893506 -0.0050107576701837204 0.052689010912978874 0.15701035945672209 0.034610187387279216 0.11728851002675605 0.06921055585849456 0.066040780389074349 0.10798986416352646 0.093944956304183286 -0.044303695561768455 0.062487628023281686 0.018779599245665787 0.066718483848542634 -0.051215305173755589 0.083900122251994697 0.016837810373554921 0.12857040872451 0.030440729656459969 -0.044758526622414176 0.041310898566479431 0.079965521118664284 0.08127079980281883 0.060615996529883122
leaf_weight=853.12341403216124 16347.621182441711 99.111048385500908 3446.1579343341291 244.81652210280299 1297.2068132385612 19717.964848157018 2169.382998611778 102.48954404890537 3016.9856609627604 785.26547319442034 41.60819048807025 28.256509862840176 252.51879524439573 45.48081212118268 451.67376259341836 262.18914921209216 619.99349369481206 9801.7039667777717 129.41127883642912 172.98684063181281 59.568292781710625 109.61702847480774 260.0158729404211 932.45457928627729 189.84503882005811 3560.2617234736681 346.35167986154556 437.62874599546194 66.731446966528893 55.703672900795937 307.25106079503894 66.006308428943157 612.67126551270485 477.23813763260841 30.948551330715418 437.94922494888306 503.64798206090927 98.942412655800581 25.68429147452116 222.55775016546249 6669.3147035613656 94.877010978758335 243.20285725966096 223.51821444183588 5968.9706197120249 1750.2394646555185 497.97095392271876 367.77419665828347 56.27158835157752 3312.5582597851753 817.44503987953067 420.99273037910461 79.170641720294952 1660.6047364920378 805.19882814586163 124.83067289739847 552.9233833104372 38.727385863661766 348.214146502316 795.56688745319843 3187.3783037140965 308.23370708152652
leaf_count=11411 28514 649 19186 1240 4793 42708 6260 920 2275 4452 60 257 1081 260 1152 1089 4212 16587 372 771 130 478 780 7767 614 11608 1301 2526 373 428 1432 201 4477 4507 291 1845 2829 221 61 1393 28291 286 1805 321 14641 6708 1273 1128 371 12188 5121 1387 517 2780 2946 125 2267 168 1367 1956 6290 1278
internal_value=0.0684749 0.0649657 0.0676086 0.0496149 0.0693998 0.0701733 0.072133 0.0687879 0.0775355 0.0585729 0.0247915 0.0283763 0.0568108 0.130689 0.0558971 0.0769703 0.0637544 0.081267 0.046289 0.0449037 0.0751678 0.0209652 0.061361 0.0460097 0.0253119 0.0478802 0.032453 0.00857336 0.0673779 0.0848353 0.0788962 0.0199395 0.0346675 0.0106009 0.077726 0.0513948 0.0472157 0.0842898 0.02817 0.0533072 0.0508257 0.0826467 0.0681894 0.0689925 0.0672574 0.062843 0.0753324 0.0568087 0.0536216 0.0607038 0.0275908 0.0419919 0.000877993 0.068595 0.0643015 0.0467465 0.0626736 0.0567437 0.075594 0.0741759 0.0773352 0.0449224
internal_weight=97011 69927.5 59656.5 10271 55088 53790.8 46017.1 33682.1 27083.5 7773.73 872.354 2344.55 13671 87.089 7926.44 20011.1 8235.9 12335 5435.08 1790.89 24066.5 729.611 1061.28 4568.46 1122.3 5332.6 1772.33 783.98 7718.91 10165.6 335.508 2009.04 1155.92 543.244 19748.9 988.353 801.262 271.929 529.332 7474.77 6891.87 582.896 488.019 6445.01 6221.49 6901.37 2248.21 4653.16 4285.39 3368.83 916.556 858.942 138.739 7580.18 5919.57 2317.25 1512.05 1387.22 3602.32 834.294 3535.59 363.937
internal_count=284725 235017 178565 56452 150998 146205 113995 89442 49708 32210 4772 22285 45354 320 34167 44088 25395 24553 19959 9352 47433 4690 4662 27567 8381 19039 7431 3827 18919 18293 1689 20596 9185 4708 42999 3604 3882 992 2890 33015 29684 3331 3045 16043 15722 27438 7981 19457 18329 12559 5770 3232 647 18272 15492 7462 4516 4391 8030 2124 7657 1706
is_linear=0
shrinkage=0.05


Tree=12
num_leaves=63
num_cat=0
split_feature=18 4 21 4 7 21 23 18 15 9 18 21 22 22 22 15 22 21 21 14 22 14 7 11 10 18 7 22 22 22 21 17 22 22 14 17 22 6 22 18 7 20 18 22 22 14 22 7 21 14 7 22 21 12 22 6 6 15 17 15 22 22
split_gain=1484.14 1354.03 842.899 961.592 605.581 525.885 486.219 430.426 394.496 355.911 317.669 346.325 282.507 370.699 391.658 286.103 253.372 243.241 242.06 235.951 226.962 220.866 220.577 290.859 205.633 203.905 198.442 280.62 240.712 394.301 272.586 258.852 413.137 313.789 286.338 246.938 225.511 382.793 223.688 220.992 202.423 202.111 197.962 195.877 455.619 190.222 322.278 329.464 326.018 296.417 231.815 223.358 205.981 197.205 189.893 188.333 237.66 219.519 187.808 257.837 186.429 259.812
threshold=-0.2393156642875576 0.41750000000000037 63.447470000000003 0.022499999999999926 0.038000000000000068 63.660025000000012 1.5000000000000002 -0.85421994577343296 4.8950000000000005 1.0000000180025095e-35 0.91023613416931248 59.193075000000007 9.1645375000000016 17.934700000000003 20.090392000000005 10.005000000000001 13.712633500000001 69.335878000000022 59.065782000000006 2.5000000000000004 8.226833000000001 1.5000000000000002 0.016000000000000063 1.0000000180025095e-35 1.5000000000000002 0.17992617227144031 0.07400000000000008 25.692408500000003 9.8823915000000024 9.4093000000000018 64.604760000000013 0.98182534576205316 19.587800000000005 22.245591500000003 7.5000000000000009 0.91023613416931248 23.136133000000005 0.39500000000000007 10.745416500000001 0.98182534576205305 0.02500000000000004 45.500000000000007 -0.78574730703237872 11.792933500000002 11.097042000000002 8.5000000000000018 6.176358500000001 0.064000000000000209 60.088298000000002 2.5000000000000004 -0.047999999999999911 6.9799420000000003 59.289983500000005 1.0000000180025095e-35 6.1594000000000007 0.065000000000000016 0.28500000000000009 16.205000000000002 0.51639395938746258 12.095000000000001 11.425056500000002 11.724129000000003
decision_type=2 8 2 10 8 2 2 2 2 10 2 2 2 2 2 2 2 2 2 2 2 2 8 2 2 2 8 2 2 2 2 2 2 2 2 2 2 10 2 2 10 2 2 2 2 2 2 8 2 2 10 2 2 10 2 10 10 2 2 2 2 2
left_child=4 2 6 25 7 19 20 12 16 18 22 -12 -1 -14 17 -16 -9 -15 58 -5 -2 -6 23 -8 -3 -4 27 28 29 35 -30 33 -33 -32 36 41 37 40 -28 -38 -35 -7 -18 44 -27 46 47 49 -48 50 -13 -47 53 -51 -24 57 -57 -20 -10 -60 -46 -62
right_child=1 24 3 5 21 26 10 8 9 -11 11 45 13 14 15 -17 42 -19 55 -21 -22 -23 54 -25 -26 43 38 -29 30 -31 31 32 -34 34 -36 -37 39 -39 -40 -41 -42 -43 -44 -45 60 51 48 -49 -50 52 -52 -53 -54 -55 -56 56 -58 -59 59 -61 61 -63
leaf_value=0.064899088507802252 -0.055227119860262221 0.067457014412353064 0.029416863094768504 0.042779108902798929 0.042631418758835728 0.076357700479280768 0.05332713751136995 0.082498823271747915 -0.041764217969847826 0.074681803563479504 -0.04041636096135498 0.092024662582357308 0.079931298197210107 0.1177177315099492 0.047909126721511326 0.094186277972503035 0.095638446814891059 -0.029084286620484831 0.050420887310854805 -0.02510310823680317 0.10797240364712835 0.079623106100785102 0.063395454062737028 0.077575934135113475 0.083342948069387912 -0.0067545237165025935 0.0089863191561689194 -0.057202977757628275 0.0069218262630604448 0.11557142299114005 0.038975368734075255 0.08695079460952157 -0.058874894814025094 0.14503621036265466 -0.038730196270654917 -0.0077395280425532412 0.066687483705762163 -0.063056531218659853 0.076125368000022314 -0.059102852881710591 0.037240650135649908 0.0084039259198704554 -0.007143844780794612 -0.022844784647211774 0.19666948818477673 0.079950491031431384 0.13402286937944405 0.070249143606766887 0.051277666145871481 -0.0093131309246868698 0.027066120793151877 -0.001800014716149669 -0.008035227519692361 0.19800202323092567 0.083215194901886419 0.067754922851988239 0.051404384172200369 0.085547992168445039 0.0093608926226740261 0.17616235404424749 -0.054354288825733545 0.33673649661477223
leaf_weight=10585.431657880545 134.42246065661311 4951.914362154901 556.91322773322463 199.53650979697704 417.90193673968315 559.4506376683712 9454.3654939047992 132.31763388216496 103.6191438511014 4540.8450675830245 116.420509070158 179.25179149210453 9841.1583300381899 33.158460766077042 963.01795973628759 511.31727117300034 52.694773122668266 189.34911389648914 6134.1778950095177 357.11985938251019 25.315830115228891 11721.794517330825 5223.1062483042479 1422.7300557494164 3460.721563398838 263.64188182353973 140.54342661052942 64.679282892495394 463.68993559852242 321.73065957054496 5526.8192863166332 631.27437726035714 52.618139859288931 254.49017851799726 55.366868194192648 149.62769166380167 439.65952980145812 29.133151359856129 1057.7991530299187 37.927918441593647 52.54265408962965 136.02641771733761 422.18062832206488 712.67832223698497 45.462117627263069 653.67450094968081 158.11404953896999 417.7856146171689 481.71089706942439 21.563595347106457 587.45991807430983 95.797564249485731 730.73609706759453 24.507962621748447 1572.3233287632465 8617.839641161263 2994.7722028195858 479.53112038969994 98.23802362382412 30.317854799330235 20.189675811678175 5.3777704052627078
leaf_count=21823 1950 10254 5126 938 973 2009 33936 354 705 7388 955 520 15106 42 3614 1053 179 1143 20477 2611 153 17689 13395 3438 3943 3946 616 713 2805 973 30672 2401 464 1000 534 785 2075 184 3077 331 248 806 3229 12596 259 2272 214 1433 2101 169 3000 692 5153 71 3215 18696 8355 962 494 32 331 47
internal_value=0.0632353 0.056062 0.0515504 0.0410322 0.0684225 0.0465261 0.0575426 0.0657872 0.0610911 0.0621414 0.0581993 0.0443611 0.070798 0.0762098 0.0546266 0.0639586 0.0213107 -0.0072076 0.0590564 -0.000770357 -0.0293627 0.0783497 0.0609141 0.0564989 0.073992 0.00497137 0.0491659 0.0465595 0.04733 0.0684641 0.044061 0.0464934 0.0757311 0.0433671 0.0712948 0.0505304 0.0787808 0.110154 0.0682512 0.0566978 0.126589 0.0630668 0.00426144 -0.00802717 0.0235268 0.0473068 0.0409118 0.0308596 0.0717257 0.020198 0.042253 0.0695011 -0.00157031 0.100969 0.0679813 0.0597026 0.0635383 0.0529678 0.00832513 0.0486984 0.135922 0.0279064
internal_weight=99715.9 41846.2 33433.6 12134.3 57869.7 10530 21299.3 45730 23606.5 22999.3 21139.5 3467.02 22123.4 11538 1696.84 1474.34 607.193 222.508 18458.5 556.656 159.738 12139.7 17672.5 10877.1 8412.64 1604.26 9973.38 8775.04 8710.36 1166.84 7543.52 7079.83 683.893 6395.94 869.12 845.105 813.753 336.166 1198.34 477.587 307.033 695.477 474.875 1047.35 334.671 3350.6 2601.13 1961.3 639.825 1543.52 766.712 749.472 776.808 46.0716 6795.43 18226.3 11612.6 6613.71 232.175 128.556 71.0296 25.5674
internal_count=284725 162411 148214 75547 122314 53242 72667 103652 60871 57109 70564 16580 42781 20958 5852 4667 3762 1185 49721 3549 2103 18662 53984 37374 14197 22305 49693 46000 45287 4573 40714 37909 2865 35044 4372 3600 3838 1432 3693 2406 1248 2815 3408 17179 4583 15625 12661 10346 2315 8913 3520 2964 5393 240 16610 48490 27051 21439 1231 526 637 378
is_linear=0
shrinkage=0.05


Tree=13
num_leaves=63
num_cat=0
split_feature=18 9 21 1 0 23 8 22 18 21 21 18 21 7 22 9 21 15 21 21 21 22 21 21 7 13 22 7 22 22 22 22 21 22 22 6 21 20 13 15 21 21 20 21 22 7 13 6 6 20 22 9 21 15 18 22 22 13 7 21 6 15
split_gain=1338.91 1287.24 757.454 820.579 560.84 420.603 406.571 384.322 390.899 352.633 343.501 332.704 293.482 260.012 259.394 248.111 243.38 421.801 337.619 232.387 240.136 395.737 233.561 308.251 229.16 260.448 223.77 218.36 216.68 216.171 360.94 319.294 270.34 300.883 325.155 258.211 230.367 220.527 209.979 275.039 221.824 228.502 220.843 208.311 204.352 202.428 200.994 198.966 198.588 198.779 423.567 197.42 196.052 189.475 189.19 188.299 348.349 187.115 183.126 178.257 281.685 175.626
threshold=-0.51639395938746235 1.0000000180025095e-35 63.352958500000007 0.025000000000000005 0.015000000000000001 1.5000000000000002 0.58333333333333337 8.226833000000001 0.91023613416931248 63.660025000000012 60.616276000000006 0.17992617227144031 70.817625000000007 0.079000000000000084 7.8482300000000009 1.0000000180025095e-35 69.486830000000012 9.8950000000000014 69.983018000000001 59.193075000000007 59.801743000000009 5.3874750000000011 59.474634000000009 59.289983500000005 -0.11499999999999987 2.5000000000000004 25.692408500000003 -0.074999999999999831 8.226833000000001 21.829375000000002 18.517150000000004 23.338525000000004 69.515160000000009 17.644300000000005 17.541222500000003 0.29500000000000004 70.817625000000007 35.500000000000007 10.500000000000002 11.495000000000003 61.049925000000009 62.518825000000007 5.5000000000000009 59.22106800000001 5.2444165000000007 0.017000000000000032 98.500000000000014 0.045000000000000005 0.48500000000000004 39.500000000000007 11.484741500000002 0.38750000000000007 62.831525000000006 8.4950000000000028 0.78574730703237883 11.792933500000002 11.097042000000002 98.500000000000014 0.024000000000000094 63.352958500000007 0.015000000000000001 12.905000000000003
decision_type=2 8 2 8 10 2 10 2 2 2 2 2 2 8 2 10 2 2 2 2 2 2 2 2 8 2 2 8 2 2 2 2 2 2 2 10 2 2 2 2 2 2 2 2 2 8 2 10 10 2 2 10 2 2 2 2 2 2 8 2 8 2
left_child=4 2 5 11 12 28 43 8 27 14 15 45 24 26 -5 58 51 18 -18 -10 21 -21 23 -23 25 -1 29 -7 -2 30 32 -31 33 34 48 36 -33 -36 -29 42 44 -42 -40 -3 -41 -4 -30 -9 49 -11 -51 57 -43 -22 59 56 -13 -12 -6 -45 -61 -46
right_child=1 6 3 9 10 7 -8 47 19 13 16 55 -14 -15 -16 -17 17 -19 -20 20 53 22 -24 -25 -26 -27 -28 38 46 31 -32 35 -34 -35 37 -37 -38 -39 39 40 41 52 -44 54 61 -47 -48 -49 -50 50 -52 -53 -54 -55 -56 -57 -58 -59 -60 60 -62 -63
leaf_value=0.074964812737895556 -0.048569741084241932 0.0062908566109138274 0.023757928240924486 0.15700093651787753 0.045831518773127418 0.033911412131520179 0.077641013651396473 -0.026371931342497452 -0.03813042140041626 0.048118800805522846 0.069458818941006958 0.00019311325346968122 -0.057375856967444232 0.072104512238174365 0.0039435353679287332 0.071655975295009333 -0.025133711021500357 0.078333823272056666 0.046026669768859933 -0.021606704914373803 0.015314632628543096 0.10028411860248992 0.11180391753439337 -0.025013161083155586 0.057821181282771854 0.0075087098912737949 -0.043643160011622224 0.060993178006544073 -0.060063960466307909 0.090591794078329596 0.00099913310706846339 -0.033919006276238992 0.10300598506196296 -0.029933581358618344 -0.0073398557617555902 0.085922729175973059 0.059823855795819184 0.18308964405875572 0.073092603544983023 0.018660628369687807 0.090490986805318502 -0.065393174186970646 0.035320665486316884 0.06888216729961176 0.088339200273426288 0.077197662887481033 0.18401857836093857 0.099191290105934096 0.094159571751083693 0.063048334452203328 0.014192224506317346 0.090533127304891658 0.057233509945507959 0.049308343163919022 0.051290657508251042 -0.016902109125996347 0.10774015012100496 0.085200556113249767 0.0647862477754719 -0.05966293530227678 0.056794608490958735 0.045463202872158409
leaf_weight=205.29562267661095 147.87002854049206 179.20779050141573 1509.5653780996799 28.88983653113246 3461.2829972654581 1101.1952343210578 4132.5694835484028 33.309113319963217 106.20244619250298 4817.0823724903166 22243.877059966326 357.97644039615989 57.079649209976196 954.37283930182457 661.8701982870698 2563.6108058691025 214.30944909155369 862.80816712230444 750.02821607142687 108.79194165021181 1089.9534936286509 104.75145254284143 296.29300612211227 92.371585533022881 12210.895591445267 472.26782387495041 71.169301118701696 10950.633163075894 13.808661658316849 596.92017982155085 489.52284311875701 159.77309424057603 197.69786075502634 135.96369495615363 19.552897267043591 152.20133081078529 111.11422615870833 68.340935245156288 444.17004948481917 394.92385009676218 855.716702260077 42.270561181008816 3005.3185541070998 6758.624155819416 373.64560227096081 200.77690583840013 21.670849107205868 597.28868005424738 191.67805927991867 647.10951403528452 1410.8781367577612 1336.4541245251894 142.38560943678021 657.00525192543864 3992.9400583989918 873.53179030120373 95.348181288689375 2062.8119838833809 2016.6854442209005 52.700552336871624 3523.8487282544374 661.97068382054567
leaf_count=389 2107 881 10384 101 8754 4006 4329 339 908 20221 33966 4707 543 2674 3928 3437 1147 1486 2235 751 6928 466 678 699 33994 1728 726 29756 116 2349 3276 1250 821 947 128 430 561 129 1431 1495 1636 277 12166 11761 1164 574 83 1040 576 3002 9216 793 550 3398 10292 14309 746 2189 3997 426 9050 2279
internal_value=0.0586348 0.053192 0.0475385 0.0383957 0.0646588 0.0534574 0.0638054 0.0541139 0.0529271 0.0448988 0.0679066 0.0154554 0.0557497 0.04728 0.0103449 0.0588177 0.0705672 0.0529361 0.0302124 0.0342144 0.037485 0.0647127 0.083745 0.04157 0.0562507 0.0279473 0.0446676 0.0554836 -0.0219448 0.0453661 0.042595 0.0670402 0.0453142 0.0437498 0.04515 0.033812 0.00453302 0.140727 0.0568917 0.0493053 0.0620386 0.0796058 0.0401843 0.0598641 0.0492628 0.0300312 0.0890214 0.0925589 0.0439613 0.0425617 0.0295544 0.0718235 0.0291624 0.0280992 0.0605342 -0.00333312 0.0228136 0.0707948 0.0528096 0.0641054 0.0550786 0.0609327
internal_weight=102090 53632.8 34992.9 13751.3 48457.4 21241.5 18639.9 21058.2 20427.6 10714.1 35511.9 3037.2 12945.5 10023.4 690.76 8041.58 27470.3 1827.15 964.338 2455.37 2349.17 602.208 493.416 197.123 12888.5 677.563 9069 17972.2 183.35 8997.84 7977.83 1020.01 7488.3 7290.61 7154.64 423.089 270.887 87.8938 16871 5920.4 2470.91 1040.37 3449.49 14507.3 1430.54 1710.34 35.4795 630.598 7066.75 6875.07 2057.99 25643.1 184.656 1746.96 14328.1 1326.86 453.325 24306.7 5477.97 10335.2 3576.55 1035.62
internal_count=284725 190067 153328 81055 94658 72273 36739 69967 68588 50335 58004 30720 36654 46306 4029 16188 41816 4868 3382 13828 12920 2594 1843 1165 36111 2117 43632 54760 2306 42906 38316 4590 35040 34219 33272 2241 1811 257 50754 20998 7401 2463 13597 32410 4938 10958 199 1379 33015 32439 12218 36948 827 10326 31529 19762 5453 36155 12751 21237 9476 3443
is_linear=0
shrinkage=0.05


Tree=14
num_leaves=63
num_cat=0
split_feature=18 6 7 21 0 18 14 21 14 14 0 13 21 22 22 21 6 21 21 3 21 22 3 18 15 8 21 22 21 15 6 22 15 0 14 22 22 7 21 21 15 15 13 15 22 22 13 17 21 22 1 13 21 21 13 18 18 6 14 21 15 21
split_gain=1243.62 1087.84 684.662 558.038 900.936 504.597 478.666 688.431 514.673 474.071 430.214 376.619 367.919 587.971 366.505 373.582 312.442 352.294 273.29 267.78 258.265 408.214 254.072 253.503 224.218 222.758 215.792 352.825 318.613 204.055 260.132 224.913 202.303 321.839 285.617 271.543 211.822 193.19 192.311 235.63 301.482 209.106 193.856 188.14 178.962 254.022 306.378 210.448 337.36 418.411 290.778 221.75 216.603 253.508 209.298 348.223 221.764 211.118 186.245 178.341 241.141 230.464
threshold=-0.70581670320594803 0.49500000000000005 0.014000000000000035 62.010159000000009 0.015000000000000001 1.0000000180025095e-35 8.5000000000000018 59.277692000000009 3.5000000000000004 1.5000000000000002 0.015000000000000001 67.500000000000014 60.885267000000006 5.2610585000000007 14.972283000000003 69.146665000000013 0.49500000000000005 60.593142500000006 70.765717500000008 1.0000000180025095e-35 60.402950000000011 5.0292250000000012 0.39500000000000007 0.91023613416931248 15.105000000000002 0.58333333333333337 60.177050000000008 6.1464415000000008 59.31620800000001 10.605000000000002 0.35500000000000004 18.808142000000004 7.3050000000000006 0.025000000000000005 7.5000000000000009 5.2685665000000013 5.3096665000000014 -0.0029999999999999901 59.474634000000009 60.107102000000005 11.595000000000001 14.105000000000002 44.500000000000007 10.005000000000001 11.484741500000002 9.0546735000000016 2.5000000000000004 0.98182534576205316 70.019677000000016 23.136133000000005 0.015000000000000001 1.5000000000000002 68.341774000000015 65.853910000000013 11.500000000000002 -0.46472317204376873 0.8542199457734333 0.21500000000000002 2.5000000000000004 69.146665000000013 9.8950000000000014 69.983018000000001
decision_type=2 8 8 2 10 2 2 2 2 2 10 2 2 2 2 2 10 2 2 10 2 2 10 2 2 10 2 2 2 2 10 2 2 10 2 2 2 10 2 2 2 2 2 2 2 2 2 2 2 2 10 2 2 2 2 2 2 10 2 2 2 2
left_child=10 2 3 6 5 -5 8 37 9 -2 18 -9 13 -10 25 -16 17 20 22 -4 24 -22 -1 -21 -12 -3 27 32 -29 30 44 -32 33 -15 35 -34 -35 -8 41 -40 42 -11 -41 -17 45 46 -6 48 51 50 -50 -46 53 -49 56 -56 -53 -57 -51 -19 61 -61
right_child=1 14 19 4 29 -7 7 11 12 38 16 -13 -14 26 15 43 -18 59 -20 23 21 -23 -24 -25 -26 -27 -28 28 -30 -31 31 -33 34 36 -36 -37 -38 -39 39 40 -42 -43 -44 -45 47 -47 -48 52 49 58 -52 54 -54 -55 55 57 -58 -59 -60 60 -62 -63
